{"content": [{"win": 0, "name": "Player 1886", "parent": [7, 173, 442, 546, 740, 897, 1000, 1343, 1456, 1803], "first": 4, "second": 3, "third": 1, "top_five": 10, "top_ten": 12, "top_twenty": 18, "net": {"layers": [{"number_of_pre_neurons": 42, "neurons": [{"w": [-0.6006365920658896, 0.9496180367866787, -0.6079884949141026, 0.07017450817781667, -0.9643886921794087, -0.8014971410678826, 0.7612772724098781, 0.41623754444184563, -0.738357438070971, -0.911770549073093, -0.8627451649855702, 0.5421367814221631, 0.9875807320816461, 0.12341406056862181, 0.21176881380061752, -0.04172038727493379, 0.35772739352752914, 0.32746796426311797, 0.6640204035190307, -0.36242295503218047, -0.776047699064411, 0.6942680259843628, 0.5105172372196277, -0.4290539932140891, -0.5477741486170831, -0.5844532512055973, -0.6186584550143877, -0.6582979000091074, -0.6409983987640884, 0.1457027734122528, 0.25173622901680837, 0.3398002040592125, 0.519782087114673, 0.8651426129091362, -0.2794898361241731, 0.9689248436500857, 0.2947485058224159, -0.549727922147853, 0.9985179802357464, 0.8277914175332017, -0.9326574552718394, 0.43666893719311717, 0.7858735023786949], "pre_neurons": 42, "learn_rate": 0.25, "last_input": [1, 0, -1, 0, -1, 0, 0, 0, 0, 1, 1, 1, 0, 0, 0, 0, -1, -1, -1, 0, 0, 0, 0, 1, 1, 1, 0, 0, 0, 0, -1, -1, -1, 0, 0, 0, 0, 1, 1, 1, 0, 0, 0], "last_output": -0.0708984038567995, "learn_rate_possibility": 0.05, "cummulated_output": 207.493634950085}, {"w": [-0.4917172899014295, 0.7336053114341023, -0.8528606776103511, -0.4168482834651901, 0.25853613254615726, 0.2947363645555902, 0.5952401065654955, 0.3660670975604452, -0.681408924896664, -0.2482339863186236, 0.7880951501801443, -0.7574453169094808, -0.45695755819178063, 0.11381306093902421, -0.9535270950649195, 0.98808666580783, 0.006040769350414976, -0.6924294671741997, -0.2828352530470193, -0.07392144213560115, -0.9641640355866599, 0.9693622555319898, 0.18472787149263417, 0.5564473076850529, -0.19665314675695428, -0.43194268465579255, -0.3572819488708827, -0.311886587942678, -0.3375619372843779, -0.8159546911374473, 0.17196293701500445, -0.9273370362554616, -0.07128368747629699, 0.5055589082454994, 0.23145993952000343, 0.967440616050933, 0.49490645990777904, 0.1636570128456543, 0.21415596908345003, 0.6283050999077089, 0.8101429487789805, -0.6985495142934262, 0.19779222920039263], "pre_neurons": 42, "learn_rate": 0.25, "last_input": [1, 0, -1, 0, -1, 0, 0, 0, 0, 1, 1, 1, 0, 0, 0, 0, -1, -1, -1, 0, 0, 0, 0, 1, 1, 1, 0, 0, 0, 0, -1, -1, -1, 0, 0, 0, 0, 1, 1, 1, 0, 0, 0], "last_output": 0.06142940633923633, "learn_rate_possibility": 0.05, "cummulated_output": 404.9470439170334}, {"w": [0.2798518235559908, 0.3871031705045138, 0.60236609008768, 0.9657067431508994, -0.30969013185565775, -0.6350235144970484, -0.09565712168847475, -0.6111193476855448, 0.02410681167541462, 0.3704168470530653, -0.27176075201133565, 0.4486387476459548, -0.1554579165800798, -0.8997767162723221, 0.809812913992555, 0.5317919143820331, -0.8430907733938957, 0.23062862672051088, -0.33832872523758617, 0.9028250650196195, 0.5753208253783881, -0.8152815491440653, 0.6175196055377685, 0.24008275468348783, 0.8967783313063347, -0.07383784543886351, 0.2628584657309896, -0.8792811597395465, -0.7363803131542903, 0.6507473733150366, -0.029353445287294826, -0.7443816817631306, 0.11405817127328532, 0.11646553416261751, -0.8635883851613744, 0.8812926388504845, -0.5819946742246378, 1.0133255536170434, -0.6376798762345728, -0.3192336180518007, -0.9330455271035217, 0.9334218581319602, 0.9042296101217546], "pre_neurons": 42, "learn_rate": 0.25, "last_input": [1, 0, -1, 0, -1, 0, 0, 0, 0, 1, 1, 1, 0, 0, 0, 0, -1, -1, -1, 0, 0, 0, 0, 1, 1, 1, 0, 0, 0, 0, -1, -1, -1, 0, 0, 0, 0, 1, 1, 1, 0, 0, 0], "last_output": 0.07798059418803888, "learn_rate_possibility": 0.05, "cummulated_output": 894.7969048552984}, {"w": [0.4557890725947513, -0.07578975954399558, -0.44810797806549973, 0.9892086737604844, 0.5823081562878869, 0.1902005221564409, 0.9963852302292797, -0.6835245257734692, 0.6189608436480598, 0.19377607945360809, 0.7075277412252432, -0.21604340480412043, 0.006061691996054108, -0.9684857832340137, -0.30037151707729004, 0.11648706575463486, -0.16229594014120247, 0.020075753607315727, 0.020032777533270707, 0.7969966223580229, -0.10433127390697727, 0.3758880424705504, 0.7708648690822171, 0.29736635153486135, -0.38772423105898457, -0.4727435685705945, 0.8956966713615719, 0.6350975342514737, -0.08349010919465627, -0.5550038823223975, 0.8396257803837501, 0.35340086550817795, 0.7688008352557971, -0.7914702678684558, 0.8063214132969614, 0.5887295439599138, 0.4382777235545847, 0.7260884831237938, 0.4789302120851715, -0.9587672418345383, -0.9018892000176792, 0.1724196070516839, 0.8233811179554418], "pre_neurons": 42, "learn_rate": 0.25, "last_input": [1, 0, -1, 0, -1, 0, 0, 0, 0, 1, 1, 1, 0, 0, 0, 0, -1, -1, -1, 0, 0, 0, 0, 1, 1, 1, 0, 0, 0, 0, -1, -1, -1, 0, 0, 0, 0, 1, 1, 1, 0, 0, 0], "last_output": -0.027743784467602423, "learn_rate_possibility": 0.05, "cummulated_output": 617.1661535981339}, {"w": [0.6205730835639041, 0.8550740115469302, 0.20386633151635092, -0.3819013707027368, 0.2509376260694769, 0.15636654387106597, -0.32791870355526087, 0.24067262247025023, 0.3280050080871715, 0.10924018348868203, -0.8634960143359791, -0.4111563824905664, 0.36082787129872784, 0.6735012075469422, -0.1561737167636088, -0.17707267348893718, -0.8669390148406801, -0.008828391006981517, -0.370434366454629, 0.9886957660332454, 0.6846135581380345, -0.6780579325711065, 0.11128570463262744, -0.6500888504593787, 0.17731957173604962, -0.3691321988747558, -0.7735638015629821, -0.6788606893512967, -0.7564938607714564, -0.6377673023362826, 0.33102231289584294, 0.9454528423523285, 0.6413882186893323, 0.25467129876966155, -0.7549584574888712, -0.2845043317695748, 0.6261562468161852, -0.6156517748064083, 0.5830873647021593, 0.8013302550956396, 0.5737522504274375, -0.6694896304165041, 0.3770452165757423], "pre_neurons": 42, "learn_rate": 0.25, "last_input": [1, 0, -1, 0, -1, 0, 0, 0, 0, 1, 1, 1, 0, 0, 0, 0, -1, -1, -1, 0, 0, 0, 0, 1, 1, 1, 0, 0, 0, 0, -1, -1, -1, 0, 0, 0, 0, 1, 1, 1, 0, 0, 0], "last_output": -0.04105128445256813, "learn_rate_possibility": 0.05, "cummulated_output": 761.978412058788}, {"w": [0.22850578881997796, 0.6123745851236344, -0.7430595677494864, 0.4706339470467047, 0.33859391963747565, -0.21038980841920774, 0.3289824320355381, -0.5336828238450663, -0.5447716854010556, 0.976991823682716, 0.5689901630857728, 0.16133460554229995, -0.4800956451756191, 0.7450583158474597, 0.9475332247097628, -0.41806299875525976, 0.9463821334108982, 0.2966878309071197, -0.5518367338578478, 0.019400543175569274, 0.11886503822953132, -0.0873260332701935, 0.3010754458170266, 0.17828375588033585, 0.7305776673089901, -0.47889250703257713, -0.8784688532799327, -0.11355203874361953, -0.11357107694697444, -0.862182392921025, -0.744436020028477, 0.3091528099291827, 0.04149149201840596, -0.382437401236164, 0.5913940394837649, -0.2142455172677564, -0.5985760253353332, -0.34419396882974995, 0.26600612923911965, 0.6125093604197447, 0.055881411184329786, 0.006802740217917158, -0.3303149067200979], "pre_neurons": 42, "learn_rate": 0.25, "last_input": [1, 0, -1, 0, -1, 0, 0, 0, 0, 1, 1, 1, 0, 0, 0, 0, -1, -1, -1, 0, 0, 0, 0, 1, 1, 1, 0, 0, 0, 0, -1, -1, -1, 0, 0, 0, 0, 1, 1, 1, 0, 0, 0], "last_output": 0.07144199319988923, "learn_rate_possibility": 0.05, "cummulated_output": 879.7094961164538}, {"w": [0.40220164936668756, -0.33134402705886723, -0.0022405124821094358, -0.9769693017619911, -0.6033231813837736, -0.28012093082217593, -0.3979985982502816, 0.989054368247577, -0.8143280800689088, -0.021429370142617366, -0.18139764115700063, -0.8884616228133122, -0.8062603392354155, 0.6887892264829725, -0.48568140391807146, 0.5548297234161537, -0.9495082583884251, -0.6244849299649078, -0.3049022142166391, 0.9153713630825167, -0.4718860372855116, 0.08886192768399659, 0.954923857977212, 0.3247359698143337, -0.7443542142630133, 0.8330855239738755, -0.27065308130098975, 0.3774969970215474, 0.6077335702260807, -0.20516197849586493, -0.495430948040361, -0.6496940226603176, -0.4866336277257455, -0.26495454312592076, -0.9543449752254245, 0.17372629512353122, 0.49243187199141214, 0.37443250266457545, -0.011439112027743059, 0.8215275910945588, -0.16485715529275646, -0.7314283307150224, 0.7214164112821292], "pre_neurons": 42, "learn_rate": 0.25, "last_input": [1, 0, -1, 0, -1, 0, 0, 0, 0, 1, 1, 1, 0, 0, 0, 0, -1, -1, -1, 0, 0, 0, 0, 1, 1, 1, 0, 0, 0, 0, -1, -1, -1, 0, 0, 0, 0, 1, 1, 1, 0, 0, 0], "last_output": 0.11940156308723263, "learn_rate_possibility": 0.05, "cummulated_output": 1756.5358950344269}, {"w": [0.49783246140319615, 0.1686736446758299, -0.6667562179811595, -0.9969057933868068, -0.35781082709224576, 0.7864330359606786, 0.46685097170502043, 0.9749564265964692, -0.7751188000315492, -0.5087488435427789, -0.29050836077628905, 0.2731864306427072, 0.5804259949742134, 0.37616558887150253, -0.9460646951920799, 0.37197553008357165, 0.05692944453518356, 0.46890499595820456, -0.5305390031754285, 0.05783692925339845, -0.3185382145213427, -0.14026208649591454, -0.784077891450806, 0.00753274557753425, 0.9854814139786112, 0.9891901857403711, -0.14943731479286915, 0.15370521464944398, 0.980828434393388, -0.44020133828919494, -0.8502750143879647, -0.39047886833595147, -0.2667409456054506, 0.3497665586286671, -0.5065582728852771, 0.718200596052422, -0.3588241306765918, -0.9417717490357527, 0.6482148132014518, -0.026424520878128632, -0.5697807548992084, -0.6574830047400403, -0.841614909206315], "pre_neurons": 42, "learn_rate": 0.25, "last_input": [1, 0, -1, 0, -1, 0, 0, 0, 0, 1, 1, 1, 0, 0, 0, 0, -1, -1, -1, 0, 0, 0, 0, 1, 1, 1, 0, 0, 0, 0, -1, -1, -1, 0, 0, 0, 0, 1, 1, 1, 0, 0, 0], "last_output": 0.09970598200531587, "learn_rate_possibility": 0.05, "cummulated_output": 1423.7467206822598}, {"w": [-0.9296691244016702, -0.693597414395082, -0.35754044531488094, -0.6738942362380982, -0.6531127245341375, -0.36450951246688845, 0.9241005787541186, -0.6575630062921936, 0.6829910520346734, -0.42008081733862057, 0.9913779492235293, -0.4878548113156165, 0.5767460219776499, -0.8646708436731685, -0.5697927580173792, -0.7860995058490703, -0.07124597044978365, 0.2995361097409084, 0.6356204366778508, -0.2214630348835558, 0.04760975404268808, 0.6691451952374659, 0.12891398693091483, 0.23134988959404085, -0.5641893156329778, -0.9484558680073321, 0.04389357002616223, 0.9006067392757242, -0.45740226230124503, 0.9002881799741065, -0.049110571909862344, 0.7825965266477941, 0.9438238004470121, 0.05305795514456357, 0.730969702684714, 0.6351816646667934, 0.24279986826059274, -0.6411784174740047, 0.7038211869452435, 0.6324828497779369, 0.11748758190233527, 0.5758311378697334, 0.613883756890454], "pre_neurons": 42, "learn_rate": 0.25, "last_input": [1, 0, -1, 0, -1, 0, 0, 0, 0, 1, 1, 1, 0, 0, 0, 0, -1, -1, -1, 0, 0, 0, 0, 1, 1, 1, 0, 0, 0, 0, -1, -1, -1, 0, 0, 0, 0, 1, 1, 1, 0, 0, 0], "last_output": -0.07091280590775552, "learn_rate_possibility": 0.05, "cummulated_output": 219.62612888988923}, {"w": [0.5914709354130709, -0.5081577537263537, -0.023024745737138863, -0.6798263904709654, -0.2073357051840361, -0.3157913695884571, -0.22183916412309923, -0.8124412221952908, -0.06113666458548983, 0.8012758313141979, -0.7032270194373599, 0.4352617607849676, 0.49106350124690534, -0.5709800117267616, 0.05652196857542702, -0.678068993517934, -0.22702292933401935, -0.10794891993883837, 0.904491355800527, 0.6462357599061068, 0.7016979353799612, -0.474190586187202, -0.2652786920288043, 0.27644749236251576, 0.004609896596772689, 0.13629043736724866, 0.8278494031049768, -0.7850841505199395, 0.6522260426744446, -0.3746168106121883, 0.0557327233435847, -0.86239891702879, -0.4408438902133587, 0.9124314381701897, 0.31842363984056155, -0.1443891730620923, -0.5356007057969183, 0.6309768057835172, 0.8039370117173879, 0.9442831946122905, 0.8442580734924532, -0.7295081454735755, -0.897567206917138], "pre_neurons": 42, "learn_rate": 0.25, "last_input": [1, 0, -1, 0, -1, 0, 0, 0, 0, 1, 1, 1, 0, 0, 0, 0, -1, -1, -1, 0, 0, 0, 0, 1, 1, 1, 0, 0, 0, 0, -1, -1, -1, 0, 0, 0, 0, 1, 1, 1, 0, 0, 0], "last_output": 0.11531051050320207, "learn_rate_possibility": 0.05, "cummulated_output": 1743.5894313441063}, {"w": [0.44544365349405546, 0.5793914128957416, -0.14055108104560965, 0.22454052193438967, -0.5396881066722152, 0.15844385387400828, 0.009333040547326199, -0.20986989633331676, 0.040820605193437, 0.19096658327777116, 0.6129355011351223, -0.7728309617200195, 0.08112322465108845, 0.7136495732364565, 0.0705450970424657, -0.715177658372923, -0.6395492150132707, 0.28735478912429335, -0.2734105138046263, 0.23330973148780942, -0.38875268090403203, 0.6143362540210757, 0.7442248073165805, 0.9229493639805344, 0.12169144960252955, 0.8287354614474642, -0.7086260107961141, -0.31219532397693794, -0.747054059474598, 0.16897922721896674, -0.9365577263585707, -0.8488224500155686, 0.7698702576659813, 0.03165954752418365, 0.1165154878000052, -1.0914331680588303, 0.21125399805104017, -0.17507086802316763, 0.1264971077854109, -0.7706781750801105, -0.9061465411333611, 0.3599387490436112, -1.1453765189971838], "pre_neurons": 42, "learn_rate": 0.25, "last_input": [1, 0, -1, 0, -1, 0, 0, 0, 0, 1, 1, 1, 0, 0, 0, 0, -1, -1, -1, 0, 0, 0, 0, 1, 1, 1, 0, 0, 0, 0, -1, -1, -1, 0, 0, 0, 0, 1, 1, 1, 0, 0, 0], "last_output": 0.0915212623164762, "learn_rate_possibility": 0.05, "cummulated_output": 921.154385937307}, {"w": [-0.24551070227995342, -0.8207219232240841, 0.4176084214875293, -0.4050868649068149, -0.5800374059784812, -0.48780932271296207, 0.38457884666554043, -0.9905225744763271, -0.1582819092432377, 0.2664397997504815, 0.03278364102235476, 0.6056905552745981, -0.10230431804775098, -0.8261972686328836, 0.20909979590886008, 0.08177053738997397, -0.13939312640444346, -0.7541156192103762, -0.920689976838994, 0.9460189004618478, -0.34481198907874533, 0.8429448236641708, 0.0649340312748341, 0.877429744396186, -0.44395010155005576, -0.49315029829104096, -0.9349480824242793, -0.37970181324120955, -0.6270853839650972, 0.20864321845067302, 0.7585405992277592, -0.3445666066975005, -0.6263111132245343, 0.038873278085686414, -0.5391569178903881, 0.38890501870917715, -0.22128746277960287, 0.28783953881098867, 0.8151034417917311, -0.14639204021921448, -0.8185659125985552, 0.028476719953284046, 0.5078516018201419], "pre_neurons": 42, "learn_rate": 0.25, "last_input": [1, 0, -1, 0, -1, 0, 0, 0, 0, 1, 1, 1, 0, 0, 0, 0, -1, -1, -1, 0, 0, 0, 0, 1, 1, 1, 0, 0, 0, 0, -1, -1, -1, 0, 0, 0, 0, 1, 1, 1, 0, 0, 0], "last_output": 0.0887380251013336, "learn_rate_possibility": 0.05, "cummulated_output": 866.9465738051283}, {"w": [-0.06666801802792666, 0.7140344116817803, 0.5163089333657886, 0.3479621265926909, -0.7707718836792392, -0.7526566635491274, -0.48714287423181646, 0.33111990684478054, -0.05708927840683664, 0.5534812844991248, 0.9584907348239047, -0.7084629913142961, 0.6618245150981208, -0.10160069350409606, 0.7497470136654738, -0.5958739574012621, -0.17241737053891915, 0.10471652742088766, -0.47654119622555036, -0.15040458515716648, 0.9863369185458297, -0.4679368836341016, -0.8730769250992456, 0.9876179923900907, 0.3508595853566243, 0.6864511600118717, -0.5559126617661787, 0.6808475413670521, 0.8592629308855602, 0.08746080579308789, 0.7484223314608194, 0.1813130481254257, -0.7775106533529941, -0.052923861234533964, -0.2769874386192501, -0.17918834035333475, -0.7482449474028543, 0.5516765517000997, 0.4566883803696133, -0.000982946885521141, 0.610592717320785, -0.31809427500216114, 0.06947326395521136], "pre_neurons": 42, "learn_rate": 0.25, "last_input": [1, 0, -1, 0, -1, 0, 0, 0, 0, 1, 1, 1, 0, 0, 0, 0, -1, -1, -1, 0, 0, 0, 0, 1, 1, 1, 0, 0, 0, 0, -1, -1, -1, 0, 0, 0, 0, 1, 1, 1, 0, 0, 0], "last_output": 0.10465918146657659, "learn_rate_possibility": 0.05, "cummulated_output": 1097.0839818208283}, {"w": [-0.9423488335930974, 0.6338486503938705, -0.7410423953560894, -0.6600750264986379, 0.9792330606978796, -0.8402663994144115, -0.2743461059255543, -0.3858949366494484, 0.8604312952946709, -0.4432286274406898, -0.5413927794372843, -0.4931631611659604, 0.15203237135805625, -0.20705720237114905, 0.32167960996571976, 0.6086654242320739, 0.35084107609511994, 0.5485644118535002, -0.7132989609066518, 1.1196640483526448, 0.723644758494566, 0.9752288818745221, 0.7226344095602528, 0.6106669703263952, 0.05106047769056965, 0.5395185215230742, 0.4463008240818527, 0.16461714645935355, -0.2884823967314849, 0.472724714436084, -0.24095827887521382, 0.5737653240527816, 0.06984844199098506, -0.32591316506624546, -0.17641365228810968, 0.32407119842747756, 0.9669255363544547, 0.849634488603582, 0.5782460221662542, -0.4869858313555706, -0.11411518444474056, -0.2704370974389205, -0.9856749038426589], "pre_neurons": 42, "learn_rate": 0.25, "last_input": [1, 0, -1, 0, -1, 0, 0, 0, 0, 1, 1, 1, 0, 0, 0, 0, -1, -1, -1, 0, 0, 0, 0, 1, 1, 1, 0, 0, 0, 0, -1, -1, -1, 0, 0, 0, 0, 1, 1, 1, 0, 0, 0], "last_output": -0.025698363368522062, "learn_rate_possibility": 0.05, "cummulated_output": 70.68680258212943}, {"w": [0.7282543324042599, -0.9120493658237272, 0.8206818333300163, 0.7612094776436145, 0.0180946251521803, 0.5962164317122205, -0.14167725746888338, 0.8441219681264787, -0.8674847312044678, -0.9131861643468191, 0.6588930500201926, 0.6623536419353302, -0.06019886032969557, -0.18581663939299986, 0.0747868260212381, -0.1057165951610275, -0.44425515649828906, 0.38843519235703766, 0.07501039436733348, 0.703830268889752, -0.006536127212945164, -0.7509817433677968, -0.15506206651530863, -0.9848993047554924, 0.021606618695381385, 0.9624367221729138, 0.8613789554747415, 0.8134339231861816, -0.7429810867247884, 0.35475788644220474, 0.7075557870906419, -0.2634189941688998, 0.510960976170511, -0.916688674583759, -0.703224358217543, 0.6459342535697083, 0.5089821043101455, -0.9742630163667136, -0.96689649685004, -0.2984422949708072, -0.07361583689603446, 0.07015718688880357, 0.28167015528755934], "pre_neurons": 42, "learn_rate": 0.25, "last_input": [1, 0, -1, 0, -1, 0, 0, 0, 0, 1, 1, 1, 0, 0, 0, 0, -1, -1, -1, 0, 0, 0, 0, 1, 1, 1, 0, 0, 0, 0, -1, -1, -1, 0, 0, 0, 0, 1, 1, 1, 0, 0, 0], "last_output": -0.06961020968081057, "learn_rate_possibility": 0.05, "cummulated_output": 799.5670730108434}, {"w": [-0.39125858036701033, -0.5222154475878167, -0.5088296995157262, 0.5293900942697877, 0.9946486977795164, 0.6489924291721225, -0.6058483767710356, -0.23512919498996654, 0.6175146472152333, -0.7259544582559181, -0.3865590327109836, -0.7479875896530732, 0.7286061537170048, -0.7458364452394695, -0.8028029649080568, -0.9818845668733698, -0.5748390121697272, 0.9185544506883652, 0.0038189367089318527, 0.3345281244374675, -0.3100107317999581, 0.8541668292713838, -0.5074606388897942, 0.8887746286350776, 0.5284258905360194, -0.0020099800583704454, -0.6368942274891845, 0.06861198826944404, 0.6427837759367925, -0.7551570624286086, -0.7766132787625564, 0.13521697424686518, 0.2893449521806074, 0.457124010958198, 0.8072772635857868, -0.5312835306508081, -0.12179153861422942, -0.5587576515839137, 0.8127575737648471, -0.6996247041106909, -0.47091901372526124, -0.6652027684783375, 0.8707565431281576], "pre_neurons": 42, "learn_rate": 0.25, "last_input": [1, 0, -1, 0, -1, 0, 0, 0, 0, 1, 1, 1, 0, 0, 0, 0, -1, -1, -1, 0, 0, 0, 0, 1, 1, 1, 0, 0, 0, 0, -1, -1, -1, 0, 0, 0, 0, 1, 1, 1, 0, 0, 0], "last_output": -0.04127080233495775, "learn_rate_possibility": 0.05, "cummulated_output": 272.95848961897593}, {"w": [0.8003841035255643, 0.723447999130201, 0.8845861344322832, 0.6570657624092713, -0.3935994109002978, -0.573259746677856, -0.5839616328899342, 0.5871365441421288, 0.2427078332423321, -0.17672862351984775, 0.18251421122191208, -0.7711979133263447, 0.1578824704850592, -0.676027696142377, -0.07183052731483452, -0.054357783289967765, 0.43187628018413093, 0.3456517345530983, -0.3281322700654346, -0.6181050137280781, -0.9358371192681014, 0.35155752833328213, -0.7117885496937257, -0.8488430511427418, 0.7248163547142619, -0.46979851879896617, -0.024440886639854664, 0.8970736397025669, -0.5410843744742353, -0.9043486040998738, 0.7978706024702933, 0.7752922105477691, 0.1080609267567445, 0.4307692537846812, -0.6698704555316011, -0.19170752513856898, 0.5973152412043448, 0.009885955113150935, -0.03329878859744939, -0.7396970380658079, 0.5303324692528144, -0.16411875777307983, -0.6569498308337824], "pre_neurons": 42, "learn_rate": 0.25, "last_input": [1, 0, -1, 0, -1, 0, 0, 0, 0, 1, 1, 1, 0, 0, 0, 0, -1, -1, -1, 0, 0, 0, 0, 1, 1, 1, 0, 0, 0, 0, -1, -1, -1, 0, 0, 0, 0, 1, 1, 1, 0, 0, 0], "last_output": -0.09380325209758662, "learn_rate_possibility": 0.05, "cummulated_output": 710.2535393980899}, {"w": [-0.2579515323832593, -0.2679050305887143, 0.7372561819243864, 0.04476514287736655, 0.7083867229517795, 0.6536028152056306, 0.5043460143625604, -0.2893878804420644, 0.28916674657277475, 0.8365952565325014, 0.9635525283372914, 0.40796383650346746, -0.8694977622784279, 0.7835579955433136, -0.37359711376106886, -0.5936006416565509, 0.02501000141291332, -0.716140448864415, -0.6849847846420052, -0.26483706783609895, -0.604686476845421, 0.3280322181374651, 0.3946149185215744, 0.500905174085317, -0.6952488445869438, -0.003791344251968809, -0.9202484279963266, 0.2571239033713526, -0.65135333466949, 0.2997754735552036, 0.37010625697092947, 0.1777646151896526, -0.2696754074964197, 0.2287961028850216, -0.3704458860691613, 0.14241937538342753, -0.8722833131790584, 0.436610422562866, 0.3628467237025659, -0.3189846024819068, 0.4690836676720569, 0.39043388786520583, 0.37716079365662547], "pre_neurons": 42, "learn_rate": 0.25, "last_input": [1, 0, -1, 0, -1, 0, 0, 0, 0, 1, 1, 1, 0, 0, 0, 0, -1, -1, -1, 0, 0, 0, 0, 1, 1, 1, 0, 0, 0, 0, -1, -1, -1, 0, 0, 0, 0, 1, 1, 1, 0, 0, 0], "last_output": 0.04395686853526222, "learn_rate_possibility": 0.05, "cummulated_output": 335.6789092736623}, {"w": [0.9329726958961861, -0.21336423766494605, 0.34838015433208014, -0.6048742995586927, 0.8146251304470555, -0.6794606672786379, 0.2854193216716314, 0.3420097762061196, 0.3788404163476917, 0.3432549756819429, 0.23123811871970634, 0.1382138157939592, -0.09303405278559906, 0.8397669528244849, -0.6067652909977184, -0.5896979862240226, -0.2681174691365935, -0.3157154025166085, -0.48445018097228076, 0.49578668354155475, 0.8089261067325408, 0.1624704632825098, -0.5387484881973956, -0.4901343577893702, -0.03316474825240312, 0.12972395639709355, -0.12120452557608274, -0.473892271105431, -0.12125731541921181, -0.9431917026810865, 0.8128465288490385, 0.2707806446039318, -0.18141911536364508, -0.19818921099282968, -0.8395629509125411, -0.8759562851428773, -0.8894147558059133, -0.7052348723938455, -0.16133273265149128, 0.5725810256965032, -0.9276428934442111, 0.8839817696223013, 0.8836938447901945], "pre_neurons": 42, "learn_rate": 0.25, "last_input": [1, 0, -1, 0, -1, 0, 0, 0, 0, 1, 1, 1, 0, 0, 0, 0, -1, -1, -1, 0, 0, 0, 0, 1, 1, 1, 0, 0, 0, 0, -1, -1, -1, 0, 0, 0, 0, 1, 1, 1, 0, 0, 0], "last_output": -0.0012228961337991918, "learn_rate_possibility": 0.05, "cummulated_output": 982.128397627272}, {"w": [-0.49585223648250754, -0.9215074469979363, 0.040448034290584856, 0.8537963223867615, -0.6804016051772119, 0.9131312906395219, 0.6685520299463792, 0.37809840940109507, 0.2731146547436343, 0.16476928714195704, 0.01817928693702788, 0.6988461672436244, 0.14478576888198735, -0.08994429101304369, -0.979774201567041, 0.1472645791876687, -0.39424238537254896, 0.4555585907046973, -0.3573383545429285, 0.5801410929711419, 0.7748483177086716, -0.5460128769324746, 0.5735633455437616, 0.674180457312252, -0.7752630745055029, 0.9787405716879436, -0.8457914595471918, -0.7143873760232851, 0.3467082271724764, -0.15884974325144285, -0.18644529226822337, 0.3530779138480986, 0.29958895826777826, -0.9062953963873386, -0.6802389005695497, 0.526424773942288, 0.9005193733445342, -0.6081000261891354, -0.9685077833012221, 0.560318594133544, -0.048121680186255844, -0.960337265022162, 0.6812197073390338], "pre_neurons": 42, "learn_rate": 0.25, "last_input": [1, 0, -1, 0, -1, 0, 0, 0, 0, 1, 1, 1, 0, 0, 0, 0, -1, -1, -1, 0, 0, 0, 0, 1, 1, 1, 0, 0, 0, 0, -1, -1, -1, 0, 0, 0, 0, 1, 1, 1, 0, 0, 0], "last_output": 0.017329994300540347, "learn_rate_possibility": 0.05, "cummulated_output": 874.8126167765821}, {"w": [0.15058441559578872, 0.8811183608202462, 0.9205929684714831, -0.714245095968876, 0.5731480523041703, 0.36819042565887505, 0.35645450237739285, 0.22260674226992588, -0.3097766926209111, -0.6858432147979732, -0.944330699894355, 0.20018197497958057, 0.4935641181750252, -0.10141510959834621, -0.6876494390558174, 0.3648116594866615, 0.03420559254689537, 0.8535952236068605, 0.9387051165324825, 0.5769534719598868, -0.7525461846349744, 0.9199380830331687, 0.23748460091551205, 0.8834456684564156, 0.8675679450190346, -0.7316527418588286, 0.25531026368834775, 0.2720251935663214, -0.9688236004948647, -0.2799828346038338, 0.05219415338660327, 0.22535050889199248, -0.071108179714407, -0.10407465716496844, 0.9092050466966202, 0.9211901390816901, -0.9236896476899177, -0.8233047549877401, -0.21884907281043708, -0.2788979080319762, -0.5058302942532373, -0.5092144159870768, -0.36700406859476953], "pre_neurons": 42, "learn_rate": 0.25, "last_input": [1, 0, -1, 0, -1, 0, 0, 0, 0, 1, 1, 1, 0, 0, 0, 0, -1, -1, -1, 0, 0, 0, 0, 1, 1, 1, 0, 0, 0, 0, -1, -1, -1, 0, 0, 0, 0, 1, 1, 1, 0, 0, 0], "last_output": -0.12062624736568257, "learn_rate_possibility": 0.05, "cummulated_output": 421.3743593428552}, {"w": [-0.7670524893124342, 0.7094217802755696, 0.15747553912297274, -0.571950568209245, -0.30991726846107515, -0.21981490114697388, 0.14975737519453292, 0.24888276483556115, 0.15417223071568978, 0.9005918756090451, 0.8541091590567869, -0.37064083677525983, -0.1763193275841588, -1.0339499571029518, 0.9593648564953463, -0.5365580719350149, 0.5231092422357659, 0.8299012742165859, -0.5774193860802403, -0.058010220533136314, 0.5345048206518404, 0.39091143485758395, 0.8977595303946286, 0.36028972383467806, -0.451336140104295, -0.05483295819945244, -0.5349749745838854, -0.3423792116758182, -0.6230744203589882, -0.8445809102072046, 0.05152783403141803, 0.593296597972149, -0.9971521738475928, -0.9902343018954824, 0.6156832290125311, 0.6796717428423511, -0.5118164414198534, 0.9863699569870499, 0.047757824747440836, -0.8355346411994111, 0.2813351205631478, 0.7726379178088261, 0.3391998222406023], "pre_neurons": 42, "learn_rate": 0.25, "last_input": [1, 0, -1, 0, -1, 0, 0, 0, 0, 1, 1, 1, 0, 0, 0, 0, -1, -1, -1, 0, 0, 0, 0, 1, 1, 1, 0, 0, 0, 0, -1, -1, -1, 0, 0, 0, 0, 1, 1, 1, 0, 0, 0], "last_output": 0.009497692389969675, "learn_rate_possibility": 0.05, "cummulated_output": 323.7968807836021}, {"w": [-0.6041114185783572, 0.17594258915906846, -0.21211232019031123, -0.7758625264547043, 0.6942814006026536, -0.43484148191337213, -0.7584166803606394, 0.031523388014110365, -0.6684771890654413, 0.5369645799819913, -0.29201599412571877, 0.25717654446426197, 0.059161085814905645, 0.23789415662004054, 0.3752646596584519, -0.6234162820746447, -0.12223147504945664, -0.7084604218235804, 0.9963378310476838, 0.05453556899261103, -0.9016268301721855, 0.7679595366249121, -0.7789604625630531, -0.46820788809197955, 0.9358087109046871, 0.6743354698243915, 0.25522060261667234, -0.37135850482011445, 0.3503570099866047, 0.7490450567423865, -0.8563653127187012, 0.6833485803381298, 0.8156809431748402, -0.8386009223950459, 0.8180684691902933, -0.37366952058130387, -0.6281652585993083, -0.31995881837576845, 0.45328732048299314, 0.07478807803719256, 0.2737200043201913, -0.7525284832566013, -0.9442219736597182], "pre_neurons": 42, "learn_rate": 0.25, "last_input": [1, 0, -1, 0, -1, 0, 0, 0, 0, 1, 1, 1, 0, 0, 0, 0, -1, -1, -1, 0, 0, 0, 0, 1, 1, 1, 0, 0, 0, 0, -1, -1, -1, 0, 0, 0, 0, 1, 1, 1, 0, 0, 0], "last_output": -0.0012438690021980346, "learn_rate_possibility": 0.05, "cummulated_output": 357.27935988669674}, {"w": [-0.11507179254778999, -0.5690683173617699, 0.069901248319586, -0.6006464736676251, 0.15429252723486697, 0.03439082600644561, -0.8650127956833862, 0.2877044310960164, -0.07550719156140984, -0.493163656253071, 0.10019382504896646, -0.20595401961994209, 0.2314192620911557, 0.40913230233582687, 0.7754034040668607, -0.3446146662196726, -0.2907826034554768, -0.6363089588570867, -0.12290197147524151, 0.29066773644178384, 0.18717510713420363, -0.10056159114509278, -0.194266798328234, -0.8297665812308741, 0.07805805354857043, 0.19316098761081207, -0.12428697652251933, 0.6499631359834115, 0.7906668418442182, 0.6081063908476281, -0.7075723110840351, -0.11851400383625332, -0.5830168745671227, -0.17553204508097386, 0.5361846881595429, -0.07787735731548584, 0.7008938940285896, -0.10111071058113064, 0.4726034625676594, 0.7411043774168751, -0.5902981746495808, 0.1135714638526848, 0.8120647379373835], "pre_neurons": 42, "learn_rate": 0.25, "last_input": [1, 0, -1, 0, -1, 0, 0, 0, 0, 1, 1, 1, 0, 0, 0, 0, -1, -1, -1, 0, 0, 0, 0, 1, 1, 1, 0, 0, 0, 0, -1, -1, -1, 0, 0, 0, 0, 1, 1, 1, 0, 0, 0], "last_output": 0.048993276295412384, "learn_rate_possibility": 0.05, "cummulated_output": 666.6442614514145}, {"w": [-0.7276653572323319, 0.15136824376540803, -0.9399412916976533, 0.5052947863299111, -0.44042033557326343, -0.5477017382853255, 0.2532552027013253, -0.34168078740834473, -0.8236787582459999, 0.8941766103029731, 0.46872791873365305, -0.40269825554453265, -0.2759648480618806, 0.2699356976580831, 0.3767376689821573, -0.045586290042177735, -0.12091568451868667, -0.935241063461346, -0.8171047707979542, 0.18871361387350616, -0.47911745728383126, 0.3452073307990122, -0.8416975031201888, -0.7646333828489027, -0.23390679950416016, 0.21629316612292868, -0.7782943428722863, 0.24937992949293508, -0.8985893440892498, -0.19150784424629008, -0.8471980676598645, -0.6467291533221675, -0.3021581134414688, 0.6359452025846144, 0.5044999668362327, -0.9205522317728814, -0.30185221021134123, 0.0817653017014035, 0.23529549407005224, -0.7466385460768978, 0.7750059153525279, -0.8310727368589643, 0.4466255657531286], "pre_neurons": 42, "learn_rate": 0.25, "last_input": [1, 0, -1, 0, -1, 0, 0, 0, 0, 1, 1, 1, 0, 0, 0, 0, -1, -1, -1, 0, 0, 0, 0, 1, 1, 1, 0, 0, 0, 0, -1, -1, -1, 0, 0, 0, 0, 1, 1, 1, 0, 0, 0], "last_output": 0.0961318057555935, "learn_rate_possibility": 0.05, "cummulated_output": 496.4168238529431}, {"w": [0.7521385379228582, -0.5472189085596051, 0.81424282546947, -0.6331037394814398, -0.9948368357410788, -0.39648566260989093, -0.19908179146366378, -0.04406145272458151, 0.6533166480166395, 0.2408961686517168, 0.7680230991455812, -0.4886382037967807, -0.6073442517888061, 0.4299018741557681, -0.18546836336974093, -0.8028480106555778, 0.9742120212267804, 0.8794916920245077, 0.3151446269579481, 0.5189717739590418, 0.8738185821097375, 0.38371829572548055, -0.29064339734785116, -0.28973411224945567, 0.40188754741434596, -0.5889121529223427, 0.1296045384684512, 0.7416264038713432, 0.8908308372235978, -0.5510191980391077, -0.7942006341133516, -0.3753739881089626, 0.7308111409244552, 0.2811103331875082, 0.8982357645680794, 0.5756615742427116, -0.5584229556702955, -0.7310508514803269, -0.35808614670070305, -0.632546421103132, 0.279461111649689, -0.8303582946859762, -0.7857726451162732], "pre_neurons": 42, "learn_rate": 0.25, "last_input": [1, 0, -1, 0, -1, 0, 0, 0, 0, 1, 1, 1, 0, 0, 0, 0, -1, -1, -1, 0, 0, 0, 0, 1, 1, 1, 0, 0, 0, 0, -1, -1, -1, 0, 0, 0, 0, 1, 1, 1, 0, 0, 0], "last_output": -0.05888872627367316, "learn_rate_possibility": 0.05, "cummulated_output": 644.5267443137539}, {"w": [-0.44723147968542953, 0.6964326982053937, -0.7686293430907776, 0.5661777681073985, -0.3069990898144266, -1.1729547188856286, -0.33788234346848256, 0.6225068795090092, -0.11710464533483989, -0.9687524008333379, 0.6201680837199992, -0.34460294117670215, 0.568365723394513, 0.2010784731733819, 0.793503571110967, -0.4185501992807097, 0.9428191206191687, 0.5972803269610976, 0.7007667088220397, 0.6891095145688759, -0.7365557191905794, -0.7148508139691903, 0.3150174862116184, -0.98512242300019, 0.21748093918305877, -0.4958888164144526, -0.21112159171568967, -0.3900755277063037, 0.19624816064073403, -0.5211073530925099, -0.2781423807326664, -0.4531786946596428, -0.09316705143516191, 1.0122061480983726, 0.37943750056797, -0.5660858702850666, -0.5894414199440681, 0.29669323380690815, -0.027064534651775496, -0.1397169215749514, 0.16337768517283346, -0.49834292461681073, 0.37258535782492397], "pre_neurons": 42, "learn_rate": 0.25, "last_input": [1, 0, -1, 0, -1, 0, 0, 0, 0, 1, 1, 1, 0, 0, 0, 0, -1, -1, -1, 0, 0, 0, 0, 1, 1, 1, 0, 0, 0, 0, -1, -1, -1, 0, 0, 0, 0, 1, 1, 1, 0, 0, 0], "last_output": -0.06227834782566585, "learn_rate_possibility": 0.05, "cummulated_output": 175.92546102770376}, {"w": [0.15770550817692874, 0.8840759508279972, 0.879525117521534, -0.3285390797266199, 0.7068878180758265, -0.04922429573179876, 0.3484762706413054, 0.9277070381224111, 0.004303583569357228, 0.45852830357798235, -0.4317149547635022, -0.30315753528463274, 0.5589597178252346, 0.053261397851251585, -0.4881319300988569, 0.5293090827893738, -0.1971748971209255, 0.7434645586006527, -0.6087262345331514, -0.06617124297793331, -0.16198511555102457, -0.2583715502786166, 0.3047168208445936, 0.7063066641517988, -0.13708375631847103, -0.8904113351175589, 0.053076237172148266, 0.2879557393435569, -0.0791699815175948, -0.2543297440945824, -0.5977829807015635, -0.5567367046579654, 0.8392866302185343, -0.15316075401455956, 0.27253375095141275, -0.9547885364172146, 0.9674067393612225, 0.07881967188573591, -0.06338809286747304, 0.5306495648584821, 0.4720851727982662, 0.5688092161288572, 0.3905103582267815], "pre_neurons": 42, "learn_rate": 0.25, "last_input": [1, 0, -1, 0, -1, 0, 0, 0, 0, 1, 1, 1, 0, 0, 0, 0, -1, -1, -1, 0, 0, 0, 0, 1, 1, 1, 0, 0, 0, 0, -1, -1, -1, 0, 0, 0, 0, 1, 1, 1, 0, 0, 0], "last_output": -0.025604162289503837, "learn_rate_possibility": 0.05, "cummulated_output": 486.6780885775065}, {"w": [-0.10393512879791666, -0.07103890978118743, 0.7660011840970351, 0.8278512831767568, 0.8537649129172169, -0.5808790847897753, -0.6633276739484835, -0.12293265304480494, -0.7141341275691562, -0.4686534478937622, 0.47183614254605843, 0.05289010589945475, -0.3508210116456103, 0.4308910526165768, 0.3898833220189859, -0.5559390124981118, 0.7574617141593976, -0.855315761022214, -0.36737392268228186, -0.7626082356823527, -0.9196609702563496, 0.23780659531502235, 0.3542181007141598, -0.7554013715179744, 0.5832561072017854, -0.415847996973566, -0.5265749498517571, -0.6424353782392944, -0.616081753163396, 0.21496728997149248, -0.9459958977563521, -0.28398229126050795, -0.8315339835524247, 0.47307151505728884, 0.8741736433402485, 0.5031954336305928, 0.9177903239597479, -0.0998387897785078, 0.6290467849117458, 0.16599223967094745, -0.22309237541427596, -0.6065708831192649, 0.02739886728750185], "pre_neurons": 42, "learn_rate": 0.25, "last_input": [1, 0, -1, 0, -1, 0, 0, 0, 0, 1, 1, 1, 0, 0, 0, 0, -1, -1, -1, 0, 0, 0, 0, 1, 1, 1, 0, 0, 0, 0, -1, -1, -1, 0, 0, 0, 0, 1, 1, 1, 0, 0, 0], "last_output": 0.022261612895355165, "learn_rate_possibility": 0.05, "cummulated_output": 304.0844871591773}, {"w": [0.999994266266024, 0.5126337580452252, -0.1442830455448283, -0.41591617248684276, -0.8505948778275199, 0.8894386226057391, 0.6770748558812671, 0.4376393604205762, 0.800063336050312, -0.06123926152142234, 0.8900610946345469, 0.34962568452276455, 0.9422156738256031, 0.49194849634160054, 0.5291043452562512, 0.37498917204173443, 0.2533493216290412, 0.40877346397686876, -0.2431905138005237, -0.09367265453513114, -0.4260080061823821, -0.18767489536002424, -0.11641390410608522, 0.7121088876847343, -0.9573822202187752, -0.5429122018072186, -0.7917703261428224, 0.6321010750739842, -0.7130379294334208, 0.901138507990727, 0.6509400818361251, 0.2184713936650323, 0.9816819059794526, -0.8394777783540088, 0.657339820279703, 0.9797964762418503, 0.46826275929194616, 0.10103111725843306, 0.40357054600849085, -0.6463056900608417, 0.5602765357990009, 0.2851081641542288, 0.005712690300187395], "pre_neurons": 42, "learn_rate": 0.25, "last_input": [1, 0, -1, 0, -1, 0, 0, 0, 0, 1, 1, 1, 0, 0, 0, 0, -1, -1, -1, 0, 0, 0, 0, 1, 1, 1, 0, 0, 0, 0, -1, -1, -1, 0, 0, 0, 0, 1, 1, 1, 0, 0, 0], "last_output": -0.0008847405149743772, "learn_rate_possibility": 0.05, "cummulated_output": 669.9239791429171}, {"w": [-0.727681971620256, -0.598972946910546, -0.2674695775303175, 0.19778054653180122, 0.8290548119071732, 0.894747819032216, 0.012738012826494671, 0.25295833202204676, 0.09831788193820934, 0.26263131944372486, 0.27819428904790056, 0.9183828123369779, 0.568464228235706, 0.19267888176682568, 0.6254914337356365, -0.5796538775913431, -0.6412238620814013, -0.5328946274894895, -0.3716642273318438, -0.41307685888244067, 0.5858716792906313, -0.21409669939979814, 0.48627209322415776, 0.7913858580998789, -0.9124780486607169, 0.5059480683528548, -0.3088281636922039, 0.1686337069921129, 0.8249763791025542, -0.41542702065594894, 0.6546601484459864, 0.27967128384957807, -0.9988352905659517, -0.2710389010953411, -0.6638655703401366, -0.2126939540257038, 0.7116689176139643, 0.3384800065773206, 0.7589686083003739, -0.2858998498186158, -0.8027054013201893, 0.07506575743117194, -0.6823226225828631], "pre_neurons": 42, "learn_rate": 0.25, "last_input": [1, 0, -1, 0, -1, 0, 0, 0, 0, 1, 1, 1, 0, 0, 0, 0, -1, -1, -1, 0, 0, 0, 0, 1, 1, 1, 0, 0, 0, 0, -1, -1, -1, 0, 0, 0, 0, 1, 1, 1, 0, 0, 0], "last_output": 0.07043813043339185, "learn_rate_possibility": 0.05, "cummulated_output": 687.3957951337857}, {"w": [0.5544617048406846, 0.5279511332896658, 0.6008081929371751, 0.5142698972230066, 0.5820020807998971, 0.44996387219486733, -0.3547558050992963, 0.7658165426337045, -0.9716642647175848, 0.9879561842397491, -0.23456643396206145, -0.8434727262389532, -0.43441230322144686, 0.9355808136014856, 0.6139017418661155, -0.964786911720495, -0.3627118284514803, -0.1681433437650619, 0.7527397739622541, -0.4468188575460976, -0.500743573757072, -0.6220947390088558, -0.952519553768328, 0.8208862478174337, -0.1095141845764862, -0.9566320087945399, 0.6241461022582315, -0.787828170023793, -0.6192570654218816, -0.36833909411210897, 0.246484029988967, -0.6393452793688732, 0.14674082918561537, 0.8168622220027504, 0.6154354334749261, 0.5069945658666715, 0.7508242576844593, 0.8872039035093686, 0.5874099230067293, -0.23640376193616697, 0.3047819714390494, 0.7095121139843954, 0.5325171086126899], "pre_neurons": 42, "learn_rate": 0.25, "last_input": [1, 0, -1, 0, -1, 0, 0, 0, 0, 1, 1, 1, 0, 0, 0, 0, -1, -1, -1, 0, 0, 0, 0, 1, 1, 1, 0, 0, 0, 0, -1, -1, -1, 0, 0, 0, 0, 1, 1, 1, 0, 0, 0], "last_output": 0.007143150834842619, "learn_rate_possibility": 0.05, "cummulated_output": 778.5409945455236}, {"w": [0.2697504190825495, -0.7334773808104667, 0.48242234967698816, 0.36182724099370733, 0.3277395820767883, 0.8613343041159507, -0.3329849686762951, 0.8800586835545903, -0.9133720589526302, 0.46925180020831037, -0.6129573113980786, 0.08598421120485278, -0.9607217512214548, -0.362892977603005, -0.7898941326055768, -0.9133049610593305, 0.2948681377591469, -0.3927394589028068, 0.10097996750844485, -0.5579275097882492, 0.8390323866163776, 0.4465480162422768, 0.9769345291760709, 0.6870779684822828, -0.5490479189774627, -0.9095136921761193, 0.5620684687568784, 0.6861587350921519, -0.11330178211789099, -0.6260806492460862, -0.8812346968062059, 0.8792488268453751, -0.410785475975481, -0.1819112122867157, 0.2701843842442586, 0.19108437247830978, -0.9534388438905856, 0.2347482179406748, -0.5450692504448804, 0.007499553050607233, 0.22438327363472577, -0.7032049937696634, -0.03774395418596699], "pre_neurons": 42, "learn_rate": 0.25, "last_input": [1, 0, -1, 0, -1, 0, 0, 0, 0, 1, 1, 1, 0, 0, 0, 0, -1, -1, -1, 0, 0, 0, 0, 1, 1, 1, 0, 0, 0, 0, -1, -1, -1, 0, 0, 0, 0, 1, 1, 1, 0, 0, 0], "last_output": -0.029925441865053064, "learn_rate_possibility": 0.05, "cummulated_output": 479.66081373440164}, {"w": [-0.9623708079748126, 0.5848245860213817, 0.990357934840489, -0.8315487199203109, -0.21072221872393718, -0.700511946834189, -0.8459650341589269, 0.9082818681483749, 0.6242301020230439, -0.2421502058614986, 0.6386865983655674, 0.7929889697269574, -0.6318708224258702, 0.6655187846405011, -0.6535709098141624, 0.20108679946417074, -0.8096057534681007, -0.07481159799746995, -0.03625644308550657, -0.2918582939871106, 0.9634401943268641, 0.643958757013279, 0.7724368203094991, 0.13192652577909292, 0.30791435352731367, -0.4411850010277658, -0.5205405684312905, -0.5607260953515865, -0.7512173690951736, -0.6382960055242068, -0.08092023846201524, 0.49512875918668775, -0.8702324005870921, 0.6721082112536825, -0.8578565981953561, 0.4839799542409397, -0.9806993369505324, 0.34572953533385253, 0.4838602551791318, -0.5044157108852056, -0.8975776460580671, -0.24479125202915641, 0.6925328167420024], "pre_neurons": 42, "learn_rate": 0.25, "last_input": [1, 0, -1, 0, -1, 0, 0, 0, 0, 1, 1, 1, 0, 0, 0, 0, -1, -1, -1, 0, 0, 0, 0, 1, 1, 1, 0, 0, 0, 0, -1, -1, -1, 0, 0, 0, 0, 1, 1, 1, 0, 0, 0], "last_output": 0.026941927233684295, "learn_rate_possibility": 0.05, "cummulated_output": 222.25990358882066}, {"w": [-0.8026994486441053, -0.5592222485902585, -0.9110034679156769, -0.7370064316554483, -0.6416999842600752, 0.4240572437413406, 0.29423475432779966, -0.7080683067461302, 0.8039198788045099, 0.09265777443807344, -0.5176707717765048, -0.14180744310641802, 0.36526330387603545, 0.17238771285270604, -0.579088456309917, 0.41452341087316324, -0.6392896232656096, -0.5791533593964797, -0.3126125505041861, 0.7074925187097105, -0.38982171179818953, 0.9974821669520144, 0.7115952220382907, 0.8152769312693751, 0.25366118895628387, 0.6829763003664455, -0.6614541086724104, 0.08335785963354825, 0.16344922820169527, 0.49928086852425535, -0.5681246837563598, -0.14555419810925962, -0.394920672266001, -0.6740035316408584, 0.8628450430075523, 0.3832396433592913, 0.7428670701713118, 0.046841104615200205, -0.6118803156075348, -0.000738951283017153, 0.4157067195264319, -0.21941199436302508, 0.6264566383165922], "pre_neurons": 42, "learn_rate": 0.25, "last_input": [1, 0, -1, 0, -1, 0, 0, 0, 0, 1, 1, 1, 0, 0, 0, 0, -1, -1, -1, 0, 0, 0, 0, 1, 1, 1, 0, 0, 0, 0, -1, -1, -1, 0, 0, 0, 0, 1, 1, 1, 0, 0, 0], "last_output": 0.09541250443892701, "learn_rate_possibility": 0.05, "cummulated_output": 849.8157444127485}, {"w": [0.8147699901794057, 0.24302768420115523, -0.47291148171149433, -0.9769194813085795, 0.19589832352102055, 1.0411547195997668, 1.003750677578933, 0.4781283087044257, -0.7536130625032373, -0.7111803365128133, 0.8455769255042005, -0.8792065725409353, -0.24473790418575225, 0.2835271402763344, -0.8408535249901539, -0.6555525168839222, 0.9179187932105106, -0.36106287639201917, 0.6484378127513236, 0.3360490778752909, 0.40665871802860476, -0.5193465120731009, 0.6355012117052894, -0.3510983963778169, -0.6073435920834958, 0.31685858568212844, -0.14776196748535853, 0.008875473808741319, 0.6145511592945718, -0.1124301246948054, -0.8489014764323706, 0.6760932291031447, -0.8677361262324357, -0.10413458674494569, -0.5040750705608401, -0.6076167864397515, -0.16464343947214743, 0.04994630277221801, -0.07351445472335327, -0.8514112286078168, -0.40479650857020144, 0.2659479521249335, -0.045833997284210115], "pre_neurons": 42, "learn_rate": 0.25, "last_input": [1, 0, -1, 0, -1, 0, 0, 0, 0, 1, 1, 1, 0, 0, 0, 0, -1, -1, -1, 0, 0, 0, 0, 1, 1, 1, 0, 0, 0, 0, -1, -1, -1, 0, 0, 0, 0, 1, 1, 1, 0, 0, 0], "last_output": -0.03242168549279729, "learn_rate_possibility": 0.05, "cummulated_output": 565.8773811282211}, {"w": [0.36079550910941316, -0.6117158568028231, -0.4717055063892672, 0.31810154154013026, 0.622169307787912, -0.7611474570597498, 0.3993566706048386, 0.40063585688973946, -0.6729306595942376, 0.32045460341614496, -0.8907172837191519, 0.3527303590643829, 0.16496045947462323, -0.3158484985756804, -0.5679070795818084, -0.7216068925368535, 0.5588825444622649, -0.01595067528019123, -0.3932664618814007, 0.07173724655428293, 0.05559144319291165, 0.5213974868612992, 0.5604514882136387, 0.8070781480544046, 0.3146501528333503, 0.32113738754481025, -0.6972373981459015, 0.5012882384931334, -0.7464874933621275, 0.8393581929383704, -0.7692584075253086, -0.2017649122748352, -0.49682004282189407, 0.7925489684579843, -0.5623022707872157, -0.331306115392598, -0.006056705359949843, -0.27922093119087843, 0.600549282945942, -0.26415177783287747, 0.16499364200314504, -0.3496302985830604, 0.7862382235151502], "pre_neurons": 42, "learn_rate": 0.25, "last_input": [1, 0, -1, 0, -1, 0, 0, 0, 0, 1, 1, 1, 0, 0, 0, 0, -1, -1, -1, 0, 0, 0, 0, 1, 1, 1, 0, 0, 0, 0, -1, -1, -1, 0, 0, 0, 0, 1, 1, 1, 0, 0, 0], "last_output": 0.06740643553003882, "learn_rate_possibility": 0.05, "cummulated_output": 989.1107540925941}, {"w": [0.8429197385794265, 0.7330963315280741, -0.8382922476080189, 0.010679232809013062, 0.5341564384731654, -0.616617007093553, 0.8245750851585616, -0.9810216469240427, 0.7140121947117124, -0.24964119634499826, 0.6685736803493452, 0.8453669156515671, -0.8990139974021951, -0.9077803734258851, -0.0011464584504310427, -0.21372902200754607, 0.08648191123112636, 0.9051998749052517, -0.5698106555028484, 0.7196215889938089, -0.5980193960193969, 0.12210474859606157, 0.6993399613822782, -0.5193386297343199, 0.7325956317023954, -0.2795768005743, 0.8448405441902094, 0.8344995644561188, 0.9663845415453198, -0.3359438200971998, -0.6256614740468143, -0.6139090658458222, -0.9301747096329473, 0.4031506704444523, 0.440983067070688, 0.7597778589454383, -0.8951418432756084, 0.8716372637187049, -0.018571641334627076, -0.8385845666149485, -0.16714657436186364, -0.6865269644807153, -0.6655934887203294], "pre_neurons": 42, "learn_rate": 0.25, "last_input": [1, 0, -1, 0, -1, 0, 0, 0, 0, 1, 1, 1, 0, 0, 0, 0, -1, -1, -1, 0, 0, 0, 0, 1, 1, 1, 0, 0, 0, 0, -1, -1, -1, 0, 0, 0, 0, 1, 1, 1, 0, 0, 0], "last_output": 0.09790844789657568, "learn_rate_possibility": 0.05, "cummulated_output": 1269.999558405963}, {"w": [-0.6486238673160702, 0.8992006253542824, 0.5423108720691843, 0.20153212148217725, 0.5151690995446814, -0.21879062896545753, -0.506212692361901, 0.9724611226443225, 0.0013712532801901656, 0.1453651957036107, -0.7108507099020325, -0.41218646158848893, 0.7257079925784254, 0.49737711744026836, 0.920881946676426, 0.8246188575428801, -0.2620399978396626, -0.7383633103212413, -0.2299790864427418, 0.4121212312977216, -0.3152756313699727, 0.4738680172015457, -0.4459195302533854, 0.9752038508295786, -0.43351670925960706, 0.9034710149005054, -0.1915778257701477, -0.0038563051876872034, -0.7260851982695453, 0.5829047480511449, 0.8845222277627658, 0.32888374338194826, -0.17682866925969454, 0.29695209477437956, -0.30608502817595495, -0.7327216295166217, 0.9195901704341383, 0.35858953234085544, 0.2213224301349448, 0.3984995550908752, 0.7852714621984, 0.8983586108374568, -0.676261803665037], "pre_neurons": 42, "learn_rate": 0.25, "last_input": [1, 0, -1, 0, -1, 0, 0, 0, 0, 1, 1, 1, 0, 0, 0, 0, -1, -1, -1, 0, 0, 0, 0, 1, 1, 1, 0, 0, 0, 0, -1, -1, -1, 0, 0, 0, 0, 1, 1, 1, 0, 0, 0], "last_output": -0.0015863006468067467, "learn_rate_possibility": 0.05, "cummulated_output": 268.85566735955405}, {"w": [-0.6217690560130993, -0.16187657571975156, 0.20733314950187443, -0.48968326268483486, 0.18045095496043184, 0.835960025410831, 0.20357118859525247, -0.009903014195117965, 0.7462834904140165, 0.6860639224698937, -0.10731945857682779, 0.2462092921172978, -0.5374381310014353, 0.5605105388189756, -0.7781275386322783, -0.6188352554544383, 0.6446513337339759, 0.4118918565094032, 0.9681134763721517, -0.8892186630939423, 0.45355426513366237, -0.09998930896413724, 0.15392738364977632, -0.6262648779254669, -0.3374677770167678, -0.9868100128491706, 0.6360692492762938, -0.6784211545914274, -0.8898158991027232, 0.8411153835001142, -0.7820912405067656, 0.9595565192334843, 0.8991966709745084, -0.9262333905961437, -0.8212077544228291, 0.02702888559682229, 0.6743994164235967, -0.18121071820711365, 0.11647823280898617, -0.42977134029779074, -0.519967954085581, 0.5019571342821263, -0.2255913303161654], "pre_neurons": 42, "learn_rate": 0.25, "last_input": [1, 0, -1, 0, -1, 0, 0, 0, 0, 1, 1, 1, 0, 0, 0, 0, -1, -1, -1, 0, 0, 0, 0, 1, 1, 1, 0, 0, 0, 0, -1, -1, -1, 0, 0, 0, 0, 1, 1, 1, 0, 0, 0], "last_output": -0.1361473149885373, "learn_rate_possibility": 0.05, "cummulated_output": 389.8167485084232}, {"w": [0.6727963143055334, -0.7816673633314595, -0.39536218692623915, -0.7207431678208425, -0.374622286315651, -0.15063153962801756, -0.8336225214310979, 0.14728048154160556, 0.9129969506340099, -0.9807917202127345, 0.6249852849116775, -0.5795558838003607, 0.0355571972556501, -0.6342902062406724, 0.4851091826067852, -0.8474451511849084, 0.4421513600816773, -0.7561812829972654, 0.05672841666827866, 0.5631164232725383, -0.5259557195107676, 0.11151001939185323, 0.30806505723520283, -0.7998808372032866, -0.5115497077143175, -0.09628567301691326, -0.7866216669407773, -0.03617590046841235, 0.7024239412005722, 0.3515925477585866, 0.6870262533758984, 0.3607650305379877, -0.8937349190487804, -0.9805954239126353, 0.8428484070309501, 0.05149497590618801, -0.438180495974824, -0.30099798946272527, -0.6923417323509204, -0.4567147748076652, 0.3941795659069067, 0.9015697208714586, 0.943317795374818], "pre_neurons": 42, "learn_rate": 0.25, "last_input": [1, 0, -1, 0, -1, 0, 0, 0, 0, 1, 1, 1, 0, 0, 0, 0, -1, -1, -1, 0, 0, 0, 0, 1, 1, 1, 0, 0, 0, 0, -1, -1, -1, 0, 0, 0, 0, 1, 1, 1, 0, 0, 0], "last_output": -0.05425598379514651, "learn_rate_possibility": 0.05, "cummulated_output": 698.0159849333988}, {"w": [-0.06941899346019009, 0.3037525053114267, 0.05102835027200747, 0.7485426610509827, 0.7341557890254365, -0.32665264412441375, 0.9684863361872114, -0.4262371622067411, -0.2871902519546381, -0.41198992024273173, 0.180238465175514, 0.18182790987325192, 0.8270105645567059, 0.40456011845050854, 0.9517684016261421, -0.03610495659151103, -0.16551815713651252, -0.729551105515339, -0.8880235278221391, 0.05183011833566997, -0.05391369773593002, -0.42832128158280836, 0.6983721965635199, -0.8520518883806385, -0.08119617588276329, -0.16187874590114792, 0.9314572007452284, 0.48238670574231735, 0.27117769032458194, -0.2793102337618587, -0.8765063519357172, 0.6972964987135213, 0.8184241560892038, 0.7527206316811239, 0.4426695312539213, -0.4717742255187974, 0.3742561674872603, 0.8805363101411712, 0.7664827902869905, 0.2790038728347666, 0.8678223994163903, 0.3786546041019665, 0.7034595803119268], "pre_neurons": 42, "learn_rate": 0.25, "last_input": [1, 0, -1, 0, -1, 0, 0, 0, 0, 1, 1, 1, 0, 0, 0, 0, -1, -1, -1, 0, 0, 0, 0, 1, 1, 1, 0, 0, 0, 0, -1, -1, -1, 0, 0, 0, 0, 1, 1, 1, 0, 0, 0], "last_output": 0.024988147225318252, "learn_rate_possibility": 0.05, "cummulated_output": 379.95300048686767}]}, {"number_of_pre_neurons": 42, "neurons": [{"w": [0.3206846570084849, -0.6625387001751064, 0.17194216495334813, -0.21606213486294634, 1.1487700082507963, 0.6935646159993056, -0.49470201213053966, -0.251636985424384, -0.6782850741475588, 0.02301152981978456, 0.02269772954728578, 0.785921954452109, -0.3437224881330315, 0.7457896381596105, -0.2866654749596358, 0.07046669448956511, 0.39467737830205496, -0.009869104399880806, 0.1584728167344147, -0.7609088944536644, -0.5644327730847922, 0.08339456669287082, -0.6041512354274055, -0.2111784615157044, -0.5864406272362466, 0.879459638225418, -0.13211915450957454, 0.53490931934925, -0.418783641498901, 0.3567564676475225, -0.8723468503105085, 0.16183663810936233, 0.6086582322164193, -0.15969045405561677, 0.8132061674453923, 0.36897683466587017, -0.7138012729974472, 0.9584299526998794, 0.006359909571384437, -0.6247126896169988, -0.7011364202757393, 0.6165636665337042, -0.5153653406140293], "pre_neurons": 42, "learn_rate": 0.25, "last_input": [1, 0, 0.06142940633923633, 0.07798059418803888, 0, 0, 0.07144199319988923, 0.11940156308723263, 0.09970598200531587, 0, 0.11531051050320207, 0.0915212623164762, 0.0887380251013336, 0.10465918146657659, 0, 0, 0, 0, 0.04395686853526222, 0, 0.017329994300540347, 0, 0.009497692389969675, 0, 0.048993276295412384, 0.0961318057555935, 0, 0, 0, 0.022261612895355165, 0, 0.07043813043339185, 0.007143150834842619, 0, 0.026941927233684295, 0.09541250443892701, 0, 0.06740643553003882, 0.09790844789657568, 0, 0, 0, 0.024988147225318252], "last_output": 0.011490091260993934, "learn_rate_possibility": 0.05, "cummulated_output": 287.1383153909985}, {"w": [0.14819658397458602, 0.962866470863061, 0.5843854125698535, -0.7582301244073388, 0.304289387081776, 0.6318950313259113, 0.2129449217680337, 0.3861652049113098, 0.625306923907959, -0.7174600693140831, -0.01384277765513331, -0.6836076655589871, 0.30566667010342097, -0.6105236014423965, 0.9777007550918975, 0.820087333265878, 0.2674620646760124, -0.14438092264675984, -0.681294278811371, -0.1708567255244231, -0.5712532113476887, -0.956978165834327, 0.8649629462175474, 0.8663801048162325, 0.623754469401545, -0.3339887455518429, 0.6281856841192837, 0.10466992652673013, 0.2961400917869641, -0.7072693069342473, 0.7395704754975818, 0.27319680537791213, -0.5947510982640745, -0.052805719524071426, 0.00861350437726327, 0.3749567086809735, -0.5000166258803149, -0.04850042814068689, -0.2185736675880785, 0.29693762571776783, 0.43742257451611954, -0.4927967347833879, -0.7342837504107385], "pre_neurons": 42, "learn_rate": 0.25, "last_input": [1, 0, 0.06142940633923633, 0.07798059418803888, 0, 0, 0.07144199319988923, 0.11940156308723263, 0.09970598200531587, 0, 0.11531051050320207, 0.0915212623164762, 0.0887380251013336, 0.10465918146657659, 0, 0, 0, 0, 0.04395686853526222, 0, 0.017329994300540347, 0, 0.009497692389969675, 0, 0.048993276295412384, 0.0961318057555935, 0, 0, 0, 0.022261612895355165, 0, 0.07043813043339185, 0.007143150834842619, 0, 0.026941927233684295, 0.09541250443892701, 0, 0.06740643553003882, 0.09790844789657568, 0, 0, 0, 0.024988147225318252], "last_output": 0.0025601038156635547, "learn_rate_possibility": 0.05, "cummulated_output": 160.47888900141422}, {"w": [0.11724393525941301, -0.6487801759600357, -0.1719944967382676, 0.8056045351306891, -0.09674840257995676, 0.34375252825480906, 0.5742047302489806, -0.6106261404554609, 0.08492327667608723, -0.9160869703502137, -0.4161467138892332, 0.9869316507412098, 0.6049973016110954, 0.872688124627325, -0.370763398951208, -0.465150993879637, 0.8995287911039547, 0.25003365401096, -0.5397522643993926, 0.7817701975224316, 0.6105309444818261, -0.2303308474227317, 0.9591094198094603, 0.799361887740506, -0.5742566061236516, 0.45575276383111896, -0.3727393374888801, 0.4539155706172233, 0.30626284575347085, -0.9668032157061524, -0.7185626696447436, -0.7398917986978961, 0.3086468866971406, -0.4485763146304562, -0.8236858616872282, -0.23945361690590894, -0.35174678885529786, -0.27186786996765533, 0.6027565791882106, 0.41174576063696167, -0.9059730717863035, -0.8196705589390392, -0.43201616381015207], "pre_neurons": 42, "learn_rate": 0.25, "last_input": [1, 0, 0.06142940633923633, 0.07798059418803888, 0, 0, 0.07144199319988923, 0.11940156308723263, 0.09970598200531587, 0, 0.11531051050320207, 0.0915212623164762, 0.0887380251013336, 0.10465918146657659, 0, 0, 0, 0, 0.04395686853526222, 0, 0.017329994300540347, 0, 0.009497692389969675, 0, 0.048993276295412384, 0.0961318057555935, 0, 0, 0, 0.022261612895355165, 0, 0.07043813043339185, 0.007143150834842619, 0, 0.026941927233684295, 0.09541250443892701, 0, 0.06740643553003882, 0.09790844789657568, 0, 0, 0, 0.024988147225318252], "last_output": 0.0061842556410273905, "learn_rate_possibility": 0.05, "cummulated_output": 136.42352964808427}, {"w": [0.07267645716182392, -0.9766073108209614, -0.9863111114052558, 0.1674330759970757, -0.9445975429935949, -0.24626396222380675, 0.597962159032404, -0.9321601536304847, -0.5347489848450628, 0.3953053955455381, -0.5352599274330192, 0.13253176013699886, -0.48958477103739595, 0.18622325949460494, 0.7337972978569329, -0.7571045993779462, 0.7762743949863551, 0.1576926252022155, 0.7458825726815361, -0.94048877051193, 0.43289810735515855, 0.0174310437794043, 0.4911946492522292, -0.16270178058073026, 0.6044860259318487, -0.9112010791914043, 0.41198554693259837, 0.3813194306737002, -0.9640088306971046, -0.22344196355616233, -0.25356052102203086, 0.03567841604536337, 0.11950755226080156, -0.2632109689286717, -0.5734022727827859, -0.6361892312653616, -0.05121049423705484, 0.820250881211684, -0.06696433027105231, 0.8757038197206384, -0.350406874345177, 0.10016854147191268, 0.6491465913160951], "pre_neurons": 42, "learn_rate": 0.25, "last_input": [1, 0, 0.06142940633923633, 0.07798059418803888, 0, 0, 0.07144199319988923, 0.11940156308723263, 0.09970598200531587, 0, 0.11531051050320207, 0.0915212623164762, 0.0887380251013336, 0.10465918146657659, 0, 0, 0, 0, 0.04395686853526222, 0, 0.017329994300540347, 0, 0.009497692389969675, 0, 0.048993276295412384, 0.0961318057555935, 0, 0, 0, 0.022261612895355165, 0, 0.07043813043339185, 0.007143150834842619, 0, 0.026941927233684295, 0.09541250443892701, 0, 0.06740643553003882, 0.09790844789657568, 0, 0, 0, 0.024988147225318252], "last_output": -0.004645579098237685, "learn_rate_possibility": 0.05, "cummulated_output": 8.515521720949799}, {"w": [-0.6765716676577569, 0.06571557193238364, -0.26112821272066533, -0.24366699230937677, 0.9748291131574416, -0.9556208849418744, -0.6530945233702725, -0.3413378644595326, -0.05678564899473737, -0.20960452142976593, -0.14817616015726598, 0.8402890281676871, -0.45040235999526734, 0.47918181165586704, -0.20218243180353235, -0.506372245822533, 0.31408981244966205, 0.9134263995565757, -0.63855018268415, 1.0301331365299817, 0.0012073264072844925, 0.6515452013142131, 0.3583253794256367, -0.8176535519081551, -0.8015945853980115, -0.6365785227164331, 0.6606922280508032, -0.20704425145903738, 0.5512924448814658, 0.3963592127988389, 0.40083738042610517, 0.9853803381243995, -0.7146850320712523, 0.7131102620982479, -0.5603396317001594, 0.3129926431100811, 0.7112835603398397, -0.3339729334477102, 0.49444172252636465, 0.26944012138278217, -0.8050538147053308, -0.4944295394543854, 0.20505866136189388], "pre_neurons": 42, "learn_rate": 0.25, "last_input": [1, 0, 0.06142940633923633, 0.07798059418803888, 0, 0, 0.07144199319988923, 0.11940156308723263, 0.09970598200531587, 0, 0.11531051050320207, 0.0915212623164762, 0.0887380251013336, 0.10465918146657659, 0, 0, 0, 0, 0.04395686853526222, 0, 0.017329994300540347, 0, 0.009497692389969675, 0, 0.048993276295412384, 0.0961318057555935, 0, 0, 0, 0.022261612895355165, 0, 0.07043813043339185, 0.007143150834842619, 0, 0.026941927233684295, 0.09541250443892701, 0, 0.06740643553003882, 0.09790844789657568, 0, 0, 0, 0.024988147225318252], "last_output": -0.017619743261207063, "learn_rate_possibility": 0.05, "cummulated_output": 0}, {"w": [-0.9911001514931435, -0.05541470984573715, -0.8892380863485831, -0.7463073521661863, -0.4544455610728444, 0.5637857226819041, 0.24023076586732173, 0.7053253743740424, -0.14436544923603134, -0.7949092217186189, -0.5329851084862087, -0.4297732852219973, 0.3465943767237436, 0.2361627440523697, 0.9640979389677444, -0.07353074577491525, 0.5848918842871822, -0.7570079673485586, 0.9878797027673138, -0.6560781734318082, 0.9289802262764573, 0.28999259664419874, 0.0945681486128993, 0.458529308380591, 0.05114633417782355, 0.7956198860171178, -0.5111737580355931, 0.826329751640793, 0.8301448182234383, 0.7138724882924461, -0.2710891454575996, -0.8890296621617284, -0.9525802135124268, -0.6390164718898024, -0.04829214305290819, 0.7293783990147822, 0.7599917470874715, 0.4016660320461969, 0.6815973832494316, -0.9909143310557373, -0.6124014484091269, -0.8881567587193813, 0.29953892536125815], "pre_neurons": 42, "learn_rate": 0.25, "last_input": [1, 0, 0.06142940633923633, 0.07798059418803888, 0, 0, 0.07144199319988923, 0.11940156308723263, 0.09970598200531587, 0, 0.11531051050320207, 0.0915212623164762, 0.0887380251013336, 0.10465918146657659, 0, 0, 0, 0, 0.04395686853526222, 0, 0.017329994300540347, 0, 0.009497692389969675, 0, 0.048993276295412384, 0.0961318057555935, 0, 0, 0, 0.022261612895355165, 0, 0.07043813043339185, 0.007143150834842619, 0, 0.026941927233684295, 0.09541250443892701, 0, 0.06740643553003882, 0.09790844789657568, 0, 0, 0, 0.024988147225318252], "last_output": -0.019238225016431524, "learn_rate_possibility": 0.05, "cummulated_output": 0}, {"w": [-0.023486403370834408, -0.22661468574107846, 0.656284051382839, 0.17722228275708996, 0.2444397714334885, -0.9601304572536284, 0.9418265743845582, 0.6670733264664213, -0.34381333551946947, -0.07635874037823864, 0.9573899550667337, -0.5279874348227882, -0.5504195331722859, 0.8494906869172869, 0.41085041448246384, 0.7043775872275833, 0.005268743282322852, -0.8664471905465785, -0.05840385483788446, 0.07059466983872009, -0.02250321975968883, 0.5471406722096397, 0.0008881404964107276, 0.09945787691332253, -0.5181785977853417, 0.45858010744347344, 0.5730182491478106, 0.9652131666210155, -0.19309757463186528, 0.9358106420713546, -0.2535450290723742, -0.5013982961221002, 0.3902080316593304, -0.08437787504553351, 0.9015631108394886, -0.0737391500508191, -0.37375148240620426, -0.9199248553543835, 0.27985850931872375, 0.44647311472045104, 0.25005232324688076, 0.37130134152669414, 0.4667429104370655], "pre_neurons": 42, "learn_rate": 0.25, "last_input": [1, 0, 0.06142940633923633, 0.07798059418803888, 0, 0, 0.07144199319988923, 0.11940156308723263, 0.09970598200531587, 0, 0.11531051050320207, 0.0915212623164762, 0.0887380251013336, 0.10465918146657659, 0, 0, 0, 0, 0.04395686853526222, 0, 0.017329994300540347, 0, 0.009497692389969675, 0, 0.048993276295412384, 0.0961318057555935, 0, 0, 0, 0.022261612895355165, 0, 0.07043813043339185, 0.007143150834842619, 0, 0.026941927233684295, 0.09541250443892701, 0, 0.06740643553003882, 0.09790844789657568, 0, 0, 0, 0.024988147225318252], "last_output": 0.005756438325911426, "learn_rate_possibility": 0.05, "cummulated_output": 67.16679558765237}, {"w": [-0.23369175915569174, -0.5063217901056569, -0.8892560346828156, 0.9217002219780117, -0.8370149184169018, -0.005976882875578182, -0.6175272549257753, -0.03272901126698291, 0.7230886097461058, -0.538236765703461, 0.2253331883489722, -0.3983297126754091, -0.9860592661314418, 0.9857925494475612, 0.356147210234284, -0.4284353708409363, -0.055693605273698266, -0.6732914893716082, -0.6234413241213177, 0.7258152039433579, 0.042332949698032474, 0.2996702393204709, 0.21525302749165753, -0.12064165306189167, -0.5567101381611992, -0.41146616139086967, 0.7402584249506192, 0.6003961940335021, -0.4407217788447635, -0.08062677089109616, 0.6260028598417444, 0.6042444350646168, 0.09699869808273465, 0.905857809397163, 0.23509871736173138, -0.1456432107530942, 0.15253809942445162, 0.016007595966661903, 0.9839338161847315, 0.10069599573249399, 0.9300505050764154, 0.8317171783587247, 0.18440530378394215], "pre_neurons": 42, "learn_rate": 0.25, "last_input": [1, 0, 0.06142940633923633, 0.07798059418803888, 0, 0, 0.07144199319988923, 0.11940156308723263, 0.09970598200531587, 0, 0.11531051050320207, 0.0915212623164762, 0.0887380251013336, 0.10465918146657659, 0, 0, 0, 0, 0.04395686853526222, 0, 0.017329994300540347, 0, 0.009497692389969675, 0, 0.048993276295412384, 0.0961318057555935, 0, 0, 0, 0.022261612895355165, 0, 0.07043813043339185, 0.007143150834842619, 0, 0.026941927233684295, 0.09541250443892701, 0, 0.06740643553003882, 0.09790844789657568, 0, 0, 0, 0.024988147225318252], "last_output": -0.0033441214111864775, "learn_rate_possibility": 0.05, "cummulated_output": 0.4343863046734873}, {"w": [0.39869198003644746, -0.6633197248953715, -0.8494037006462418, 0.5306752987933148, -0.21452300097859478, 0.34170475701551223, -0.7174732431000068, 0.563002459984968, 0.1814415795794605, -1.0339991411135137, -0.16525637889877112, -0.24142988917312702, 0.9006692809256629, 0.768626409631304, 0.5775550486841672, 0.5943789845096104, 0.6387864806135197, 0.08401955082209556, 0.48921102238192904, 0.8258347597688791, 0.5676757505689731, -0.9519719840425205, 0.8884775531352931, 0.8882474867961125, -0.47218553671862695, -0.15283722910588704, -0.9668950563365435, -0.8348160693188446, -0.6085542833128366, -0.6017065509342723, -0.813227877251265, 0.4727189229144735, 0.9672292520633741, -0.5505740195142019, -0.6081601160100316, -0.05384223631493046, -0.8636740565978802, 0.7943496036007913, -0.29121118183134453, -0.7218676694635713, -0.12052163543201216, 0.2552589074615226, 0.8520262759935486], "pre_neurons": 42, "learn_rate": 0.25, "last_input": [1, 0, 0.06142940633923633, 0.07798059418803888, 0, 0, 0.07144199319988923, 0.11940156308723263, 0.09970598200531587, 0, 0.11531051050320207, 0.0915212623164762, 0.0887380251013336, 0.10465918146657659, 0, 0, 0, 0, 0.04395686853526222, 0, 0.017329994300540347, 0, 0.009497692389969675, 0, 0.048993276295412384, 0.0961318057555935, 0, 0, 0, 0.022261612895355165, 0, 0.07043813043339185, 0.007143150834842619, 0, 0.026941927233684295, 0.09541250443892701, 0, 0.06740643553003882, 0.09790844789657568, 0, 0, 0, 0.024988147225318252], "last_output": 0.014170842372012705, "learn_rate_possibility": 0.05, "cummulated_output": 429.07174286968365}, {"w": [-0.0707292451002508, 0.10536859853938574, -0.5924817893936065, 0.5577598556344858, -0.014368127542436104, 0.47255742748809726, -0.2053286547191504, 0.5239802259800264, 0.40874226335840813, -0.46939812144140114, 0.7163727099440389, 1.024032633095528, -0.7291256673010853, -0.05720218112309183, 0.5602038574230972, 0.006551085200991125, 0.2221162845750173, 0.8573992790182419, -0.8104757653191028, 0.343289205741528, 0.6883981542484323, 0.6215251480688389, -0.08836805868217308, -0.8422215787871572, -0.4562369514784106, 0.7904527978609421, 0.21870107153863172, -0.8869676955152663, -0.7065705652859766, -0.32793751181208597, 0.7865510681062724, -0.08296479413230062, -0.8622437325146843, 0.7145165344105733, 0.8287962436245953, 0.8078263344274652, -0.7933440391758038, 0.5679202062739814, 0.9716001605014717, -0.8750508516049524, -0.048680602384232996, 0.21545390927711838, -0.834134783861981], "pre_neurons": 42, "learn_rate": 0.25, "last_input": [1, 0, 0.06142940633923633, 0.07798059418803888, 0, 0, 0.07144199319988923, 0.11940156308723263, 0.09970598200531587, 0, 0.11531051050320207, 0.0915212623164762, 0.0887380251013336, 0.10465918146657659, 0, 0, 0, 0, 0.04395686853526222, 0, 0.017329994300540347, 0, 0.009497692389969675, 0, 0.048993276295412384, 0.0961318057555935, 0, 0, 0, 0.022261612895355165, 0, 0.07043813043339185, 0.007143150834842619, 0, 0.026941927233684295, 0.09541250443892701, 0, 0.06740643553003882, 0.09790844789657568, 0, 0, 0, 0.024988147225318252], "last_output": 0.008440002507216026, "learn_rate_possibility": 0.05, "cummulated_output": 92.24511343995388}, {"w": [-0.45447130202018116, -0.9340897731930091, -0.9283909196678035, -0.419572623377084, 0.17433271146558993, -0.042051990043248555, -0.5142865901263185, -0.6899228760717977, -0.730082989790714, -0.4303222573936516, 0.33022750737512174, 0.7859750022263559, 0.2938103298510619, -0.5325580255979305, 0.20139040605986214, -0.9191826350070018, -0.25993601013822554, 0.49930976237507463, 0.4750908428642817, 0.2804943628392864, -0.34446435865995095, 0.6576363349963388, 0.3869409819629823, -0.581862685444263, 0.459711550634581, 0.11379041238035566, 0.6502527749424898, -0.29997003150334267, 0.8855695718067447, -0.8122013939039279, -0.7978820597870417, 0.03712913710665755, 0.7912144015099356, -0.14240568703060807, 0.8559134417166396, -0.3852787293390889, -0.6521580737386905, -0.6686359153149353, 0.8491635222737222, -0.5285651132198921, -0.7468385493947454, -0.5203517542844023, -0.9150612887160965], "pre_neurons": 42, "learn_rate": 0.25, "last_input": [1, 0, 0.06142940633923633, 0.07798059418803888, 0, 0, 0.07144199319988923, 0.11940156308723263, 0.09970598200531587, 0, 0.11531051050320207, 0.0915212623164762, 0.0887380251013336, 0.10465918146657659, 0, 0, 0, 0, 0.04395686853526222, 0, 0.017329994300540347, 0, 0.009497692389969675, 0, 0.048993276295412384, 0.0961318057555935, 0, 0, 0, 0.022261612895355165, 0, 0.07043813043339185, 0.007143150834842619, 0, 0.026941927233684295, 0.09541250443892701, 0, 0.06740643553003882, 0.09790844789657568, 0, 0, 0, 0.024988147225318252], "last_output": -0.014566318349765519, "learn_rate_possibility": 0.05, "cummulated_output": 0}, {"w": [-0.940174152329297, -0.03639817338227602, -0.8019371582622608, -0.8989718728189673, -0.6166999305115266, 0.09187398374332245, 0.2906018306182301, -0.6273115528600359, -0.042924578838718475, -0.6061736720067565, 0.7579372581146102, 0.2550190400654775, -0.8208980742726284, -0.9115658649692249, 0.25446521491246, 0.11133523246001054, 0.09690465393489678, -0.9252019140019958, -0.8869761316029561, -0.7119428043487119, -0.5327074561694494, -0.1856985937058957, 0.025672730650283304, 0.541974096181236, 0.6530912821320494, -0.5649523960951728, -0.4901059083306576, -0.8273664902029547, -0.23464152595438237, 0.14223909079933117, 0.629438080441997, -0.7055935849593153, 0.3527784262063107, 0.6024246317863295, 0.8991837447211195, 1.0380064142772751, 0.21375023185230502, 0.6487329347736943, -0.8004246561769253, 0.378267917996971, 0.6456891615187896, 0.5165615331033719, -0.10732365888228212], "pre_neurons": 42, "learn_rate": 0.25, "last_input": [1, 0, 0.06142940633923633, 0.07798059418803888, 0, 0, 0.07144199319988923, 0.11940156308723263, 0.09970598200531587, 0, 0.11531051050320207, 0.0915212623164762, 0.0887380251013336, 0.10465918146657659, 0, 0, 0, 0, 0.04395686853526222, 0, 0.017329994300540347, 0, 0.009497692389969675, 0, 0.048993276295412384, 0.0961318057555935, 0, 0, 0, 0.022261612895355165, 0, 0.07043813043339185, 0.007143150834842619, 0, 0.026941927233684295, 0.09541250443892701, 0, 0.06740643553003882, 0.09790844789657568, 0, 0, 0, 0.024988147225318252], "last_output": -0.0286051132664058, "learn_rate_possibility": 0.05, "cummulated_output": 0}, {"w": [0.09051209603443966, -0.18393915124785254, -0.3497324757954028, 0.780623396852294, -0.5539309211566232, -0.6815949402498556, -0.929197938676654, -0.2904745496522163, -0.4190295422771577, 0.3266323736449839, -0.966467709178024, 0.7273603878708719, -0.6441785093100012, -0.918964867654861, -0.22391618759539256, -0.1827936323979651, -0.7723152045519197, 0.21280049529707146, -0.089419978719675, -0.7366467051211274, -0.8534790217607291, 0.11464361102220444, 0.20759390539012124, -0.12869196655500326, -0.2006793824008164, 0.8607609714448969, 0.7034199459779076, 0.3633228169014102, 0.1298880316273372, -0.8246670721638683, -0.25062445658757704, -0.6738966715639834, -0.9088717009875389, -0.6529379685247299, 0.7789324495254322, -0.18446706043117733, 0.3021517205234161, 0.683323583985044, 0.45336416391397294, -0.1504951463115538, 0.5103255750145854, -0.27692040173668, -0.4094295775240109], "pre_neurons": 42, "learn_rate": 0.25, "last_input": [1, 0, 0.06142940633923633, 0.07798059418803888, 0, 0, 0.07144199319988923, 0.11940156308723263, 0.09970598200531587, 0, 0.11531051050320207, 0.0915212623164762, 0.0887380251013336, 0.10465918146657659, 0, 0, 0, 0, 0.04395686853526222, 0, 0.017329994300540347, 0, 0.009497692389969675, 0, 0.048993276295412384, 0.0961318057555935, 0, 0, 0, 0.022261612895355165, 0, 0.07043813043339185, 0.007143150834842619, 0, 0.026941927233684295, 0.09541250443892701, 0, 0.06740643553003882, 0.09790844789657568, 0, 0, 0, 0.024988147225318252], "last_output": -0.0033978297213348007, "learn_rate_possibility": 0.05, "cummulated_output": 10.01894294295033}, {"w": [0.12652004684586915, -0.5572471375389185, 0.47863524950885483, 0.21663782561208356, -0.21793197424508226, -0.6834404720457965, -0.2473669020740781, 0.6842639781029336, -0.5212192424870499, 0.6231332578896205, 0.633062455669092, -0.8420454640278008, 0.1314418429494455, 0.8690407002516622, 0.46243950274473566, 0.06913226019136354, -0.6402337397708466, -0.8516680126216143, -0.3223106565679801, 0.6372885280559935, 0.9907890069893344, -0.6740415703705125, 0.6093202851338249, 0.2918757434242749, 0.3366459380344602, 0.3108380489595839, -0.8498863070480442, 0.7919556748208219, 0.5676940676646545, 0.3857169555150881, -0.06073847329962789, -0.138874069139707, -0.7305666139978078, 0.34696952732205744, -0.05412663951680674, -0.8948401738131466, -0.15524977438763302, -0.13313800944846732, 0.052289594418112983, 0.9893524001627227, -0.6549546314164152, -0.5355577862051084, 0.8691857653418833], "pre_neurons": 42, "learn_rate": 0.25, "last_input": [1, 0, 0.06142940633923633, 0.07798059418803888, 0, 0, 0.07144199319988923, 0.11940156308723263, 0.09970598200531587, 0, 0.11531051050320207, 0.0915212623164762, 0.0887380251013336, 0.10465918146657659, 0, 0, 0, 0, 0.04395686853526222, 0, 0.017329994300540347, 0, 0.009497692389969675, 0, 0.048993276295412384, 0.0961318057555935, 0, 0, 0, 0.022261612895355165, 0, 0.07043813043339185, 0.007143150834842619, 0, 0.026941927233684295, 0.09541250443892701, 0, 0.06740643553003882, 0.09790844789657568, 0, 0, 0, 0.024988147225318252], "last_output": 0.006240197067074008, "learn_rate_possibility": 0.05, "cummulated_output": 154.2139211523243}, {"w": [0.3656334948300217, -0.11679977203633869, 0.10821929072864989, -0.8713461944932646, 0.7851010050355969, -0.5625691409050493, -0.6085435803903929, 0.4287435307073155, 0.6474323129248736, -0.7239252089864734, 0.14809692884744718, -0.03149970968795146, 0.7794716289531163, 0.21105240572068906, 0.7553774774655391, -0.38529712495636304, 0.10170165666653697, 0.6164042667478025, -0.8946323678722423, 0.8743972241783294, -0.9061620518532489, 0.1366321711791636, -0.47095130412668884, 0.8121841660654261, 0.41284159897738903, -0.850476929618545, 0.2612678982372245, -0.19936395871642643, -0.057363616828652875, 0.10765666119718809, 0.12974535989616842, 0.17231461023827244, -0.17245422853592696, 0.23649865662385583, -0.49875487485822445, -0.8604539347486257, 0.31364357917216656, -0.23459282982300134, 0.38172371124365356, 0.5179932535908232, -0.28248856078270124, 0.6916037593454474, 0.1157241655244976], "pre_neurons": 42, "learn_rate": 0.25, "last_input": [1, 0, 0.06142940633923633, 0.07798059418803888, 0, 0, 0.07144199319988923, 0.11940156308723263, 0.09970598200531587, 0, 0.11531051050320207, 0.0915212623164762, 0.0887380251013336, 0.10465918146657659, 0, 0, 0, 0, 0.04395686853526222, 0, 0.017329994300540347, 0, 0.009497692389969675, 0, 0.048993276295412384, 0.0961318057555935, 0, 0, 0, 0.022261612895355165, 0, 0.07043813043339185, 0.007143150834842619, 0, 0.026941927233684295, 0.09541250443892701, 0, 0.06740643553003882, 0.09790844789657568, 0, 0, 0, 0.024988147225318252], "last_output": 0.00723391484131426, "learn_rate_possibility": 0.05, "cummulated_output": 379.78483464501505}, {"w": [-0.9858050133645271, 0.29503545867001657, -0.4903845449683657, -0.6256163992883086, 0.3520975250630082, 0.5634511544734246, -0.7100666206683673, -0.34506251434160773, 0.9193066176902405, 0.0341314350259283, 0.03740076249420721, -0.21592648311757234, 0.33999964324189136, 0.18188284799692878, 1.0152651480059356, 0.9007849201995426, 0.9964463253183287, 0.39354624744228994, -0.34432769772563976, -0.3224443247690669, 0.4642241885369207, -0.33150609839776357, -0.6280969864783663, 0.7015010744821326, 0.3538597078475121, 0.2180159894319389, -0.6543010895219565, -0.20467846249932795, 0.30693552704395627, 0.9765991357850754, -0.07376377122437949, 0.3975147792055878, 0.2731835857121807, -0.4447925034078253, 0.7244027535632415, 0.600758739668586, -0.25246142287714113, 0.36718970669696094, -0.07363779836247816, 0.7633736517004897, 0.220795733966748, -0.02171029523807766, 0.2728286106007587], "pre_neurons": 42, "learn_rate": 0.25, "last_input": [1, 0, 0.06142940633923633, 0.07798059418803888, 0, 0, 0.07144199319988923, 0.11940156308723263, 0.09970598200531587, 0, 0.11531051050320207, 0.0915212623164762, 0.0887380251013336, 0.10465918146657659, 0, 0, 0, 0, 0.04395686853526222, 0, 0.017329994300540347, 0, 0.009497692389969675, 0, 0.048993276295412384, 0.0961318057555935, 0, 0, 0, 0.022261612895355165, 0, 0.07043813043339185, 0.007143150834842619, 0, 0.026941927233684295, 0.09541250443892701, 0, 0.06740643553003882, 0.09790844789657568, 0, 0, 0, 0.024988147225318252], "last_output": -0.020316171124335553, "learn_rate_possibility": 0.05, "cummulated_output": 0}, {"w": [-0.2879076354314347, 0.7172206541840238, 0.8722051082805349, 0.42788411944494703, -0.2713497213238787, -0.07917261271865206, 0.3880806459200048, -0.12778309217310468, -0.6411944956262972, -0.06466350248512409, -0.020567172780763032, 0.33680359207766186, 0.40864462975994487, -0.623077815570048, -0.4446458456343889, 0.8250955230587886, -0.10051348631882395, 0.9192999430112316, -0.6992026646100353, 0.4014779557226773, 0.24172875542157657, 0.32669818094418535, 0.562484366352767, 0.1977350387074852, -0.2683476766679349, 0.04566548962577732, -0.16707804788070968, 0.19637370685018074, 0.1523438754728652, 0.9319363077872178, 0.7875162231916457, 0.2733395566584176, 0.9176558897163722, -0.8148979254897153, -0.2604272868259272, 0.7444096024286687, 0.4658456554104522, 0.9351640518074897, -0.17542507223816606, -0.3368815603299107, 0.32787956521717976, -0.28216730659846667, -0.4024146490069933], "pre_neurons": 42, "learn_rate": 0.25, "last_input": [1, 0, 0.06142940633923633, 0.07798059418803888, 0, 0, 0.07144199319988923, 0.11940156308723263, 0.09970598200531587, 0, 0.11531051050320207, 0.0915212623164762, 0.0887380251013336, 0.10465918146657659, 0, 0, 0, 0, 0.04395686853526222, 0, 0.017329994300540347, 0, 0.009497692389969675, 0, 0.048993276295412384, 0.0961318057555935, 0, 0, 0, 0.022261612895355165, 0, 0.07043813043339185, 0.007143150834842619, 0, 0.026941927233684295, 0.09541250443892701, 0, 0.06740643553003882, 0.09790844789657568, 0, 0, 0, 0.024988147225318252], "last_output": -0.00324979956437141, "learn_rate_possibility": 0.05, "cummulated_output": 4.52846350036298}, {"w": [0.22658345974088379, -0.24836891669438188, 0.051520462645479936, -0.1711347066531017, 0.19489573836192786, -0.6745231573627211, 0.9796927880174207, -0.07724675374576728, -0.5545153132798124, -0.11170152119760446, -0.6380637683927466, -0.30901710916724867, 0.2448635180100016, -0.7947606372950702, 0.4911987649591762, 0.06928718901475128, 0.9280009866131678, 0.7050341016188533, -0.41547314891960196, -0.4219239168472311, -0.18945264757520608, -0.524958488705948, -0.20204320634032547, -0.17740008174840188, -0.8513246660237772, -0.01207607559286128, -0.6272062712513018, -0.9443516931668623, 0.9768768591716641, 0.9148591861723603, 0.9408436972989465, -0.26876288799482073, 0.5913516392916784, 0.24921036736299462, -0.9958018450387585, -0.18647514913742524, -0.8154375579750555, -0.695236682831343, 0.6540433518167377, 0.7681052069258754, -0.2845223467328739, 0.1427751926939833, -0.6221671199151428], "pre_neurons": 42, "learn_rate": 0.25, "last_input": [1, 0, 0.06142940633923633, 0.07798059418803888, 0, 0, 0.07144199319988923, 0.11940156308723263, 0.09970598200531587, 0, 0.11531051050320207, 0.0915212623164762, 0.0887380251013336, 0.10465918146657659, 0, 0, 0, 0, 0.04395686853526222, 0, 0.017329994300540347, 0, 0.009497692389969675, 0, 0.048993276295412384, 0.0961318057555935, 0, 0, 0, 0.022261612895355165, 0, 0.07043813043339185, 0.007143150834842619, 0, 0.026941927233684295, 0.09541250443892701, 0, 0.06740643553003882, 0.09790844789657568, 0, 0, 0, 0.024988147225318252], "last_output": -0.0010616616454304881, "learn_rate_possibility": 0.05, "cummulated_output": 137.49324739015327}, {"w": [-0.9147706715495629, 1.034332788375514, 0.13736698489157262, -0.22691752508108354, -0.9735012305905553, -0.7304104468188211, -0.4003585353189687, 0.5237250460083533, 0.43675779077713117, 0.22793853670077535, -0.861761067103644, -1.0521868280551407, 0.6420887111146496, -0.7463056289209834, -0.06613663017970306, -0.45962973136332086, 0.2687792503425508, -0.5956470588461865, -0.3452471373219237, 0.8961175351961461, -0.8962431069752734, -0.44027255903506335, 0.9607131635599242, 0.8393444517602109, -0.04793225910747467, 0.5678618241260416, 0.6020632263991075, -0.7548764876310536, 0.661667553955836, 0.3812406646314741, -0.9279193529775083, -0.4449577890742413, 0.9760703698898621, 0.46459099626287403, -0.18531102953879675, -0.03821604481512275, 0.711927671778666, -0.16314391179453777, 0.051080451977354224, 0.3107494078519142, -0.6610647124619333, 0.9736573808217757, -0.8512700851944677], "pre_neurons": 42, "learn_rate": 0.25, "last_input": [1, 0, 0.06142940633923633, 0.07798059418803888, 0, 0, 0.07144199319988923, 0.11940156308723263, 0.09970598200531587, 0, 0.11531051050320207, 0.0915212623164762, 0.0887380251013336, 0.10465918146657659, 0, 0, 0, 0, 0.04395686853526222, 0, 0.017329994300540347, 0, 0.009497692389969675, 0, 0.048993276295412384, 0.0961318057555935, 0, 0, 0, 0.022261612895355165, 0, 0.07043813043339185, 0.007143150834842619, 0, 0.026941927233684295, 0.09541250443892701, 0, 0.06740643553003882, 0.09790844789657568, 0, 0, 0, 0.024988147225318252], "last_output": -0.025819396047124604, "learn_rate_possibility": 0.05, "cummulated_output": 0}, {"w": [-0.33500854121057566, -0.6884900887439358, -0.1842253378783416, 0.8705057254438553, -0.3086027037541521, -0.16218618378474003, 0.7932990987033912, 0.033219239137470824, -0.33675877117379666, -0.7668005384636012, 0.18758347761766658, 0.5214432125816761, 0.22421079250072906, 0.9045132410621042, 0.7590625702775498, 0.7495058162212349, 0.5654011283646987, 0.006004555904522535, 0.11257734365820737, 0.5060857383805146, -0.8549507144506785, 0.6918843737071947, 0.43496006071966886, -0.04514775813163907, -0.7968279086497896, 0.91174818354733, -0.44669045561143306, -0.37572793288391204, -0.008748574238922203, -0.5589389865178096, 0.8650300792950019, 0.8233718149525397, 0.32956299704766123, -0.0014112935633557053, 0.452286094548944, 0.5665470008497084, -0.5587102478514323, 0.6189126889525971, -0.5289640698999214, -0.694226420598353, 0.4761384885544828, -0.640441501529898, -0.8426887374785388], "pre_neurons": 42, "learn_rate": 0.25, "last_input": [1, 0, 0.06142940633923633, 0.07798059418803888, 0, 0, 0.07144199319988923, 0.11940156308723263, 0.09970598200531587, 0, 0.11531051050320207, 0.0915212623164762, 0.0887380251013336, 0.10465918146657659, 0, 0, 0, 0, 0.04395686853526222, 0, 0.017329994300540347, 0, 0.009497692389969675, 0, 0.048993276295412384, 0.0961318057555935, 0, 0, 0, 0.022261612895355165, 0, 0.07043813043339185, 0.007143150834842619, 0, 0.026941927233684295, 0.09541250443892701, 0, 0.06740643553003882, 0.09790844789657568, 0, 0, 0, 0.024988147225318252], "last_output": 0.0013727791000460164, "learn_rate_possibility": 0.05, "cummulated_output": 3.256818125169308}]}, {"number_of_pre_neurons": 20, "neurons": [{"w": [-0.03404818739388109, 0.3878703281023561, -0.46375567714351407, -0.08748351240930362, -0.3481263970852647, 0.9237808627149319, 0.09724894650915017, 0.1906532890851551, 0.7683362628836248, 0.09622515261598238, -0.14238092496723076, -0.4596258873111157, 0.8632033783661182, -0.5267102506850838, 0.5216665044495856, -0.4093143551388613, 0.14301525373762147, 0.30499466230520356, -0.6909602348156807, 0.09300089146870727, 0.28571991448532086], "pre_neurons": 20, "learn_rate": 0.25, "last_input": [1, 0.011490091260993934, 0.0025601038156635547, 0.0061842556410273905, 0, 0, 0, 0.005756438325911426, 0, 0.014170842372012705, 0.008440002507216026, 0, 0, 0, 0.006240197067074008, 0.00723391484131426, 0, 0, 0, 0, 0.0013727791000460164], "last_output": -0.0014749402327774587, "learn_rate_possibility": 0.05, "cummulated_output": 0}, {"w": [-0.4045861111189455, 0.13207321059934518, 0.9906223440288517, -0.4008140390289614, 0.2352709425864974, 0.7744315080267377, 0.6607444637740052, 0.9077755675919221, -0.4226872917044713, -0.2867771191213815, 0.5886662299125358, -0.7310446952050638, 0.28722885586850433, 0.0628721612212988, -0.06721793771189398, 0.4799653994193003, 0.5833136631446085, 0.9932049264853346, -0.08105937593235057, -0.5824640028701138, 0.593614688508427], "pre_neurons": 20, "learn_rate": 0.25, "last_input": [1, 0.011490091260993934, 0.0025601038156635547, 0.0061842556410273905, 0, 0, 0, 0.005756438325911426, 0, 0.014170842372012705, 0.008440002507216026, 0, 0, 0, 0.006240197067074008, 0.00723391484131426, 0, 0, 0, 0, 0.0013727791000460164], "last_output": -0.019652725754205885, "learn_rate_possibility": 0.05, "cummulated_output": 0}, {"w": [-0.30081674268290537, 0.7053526040469524, 0.8187400900331485, 0.7010082677566201, 0.013200739290628172, 0.7335148209698872, -0.5845696408669037, -0.074169346317845, 0.4236669122597454, -0.9147520021318987, -0.1743880635172821, 0.36741480885156497, -0.3004013189570176, -0.7826287186034697, -0.41120357198258084, 0.012683154836324206, 0.23575947475546832, -0.5273215963228985, -0.020841614100471598, 0.45719376892758135, -0.5214898728325641], "pre_neurons": 20, "learn_rate": 0.25, "last_input": [1, 0.011490091260993934, 0.0025601038156635547, 0.0061842556410273905, 0, 0, 0, 0.005756438325911426, 0, 0.014170842372012705, 0.008440002507216026, 0, 0, 0, 0.006240197067074008, 0.00723391484131426, 0, 0, 0, 0, 0.0013727791000460164], "last_output": -0.015215018281395157, "learn_rate_possibility": 0.05, "cummulated_output": 0}, {"w": [-0.42193029687936656, 0.3690107410095522, 0.4109516665234054, 0.6471404073950153, 0.9875479946230519, -0.9286705740413548, 0.4491041877767721, -0.5259338697141036, 0.9417069876896795, -0.3748631084647869, 0.6194123415157704, 0.06410593875155479, -0.1469435136736188, -0.6248960075398051, 0.5926707268679918, -0.5423124021511543, 0.644175570050412, -0.9937978979328919, -0.3556204766649096, 0.0598305774486001, -0.4231364287457964], "pre_neurons": 20, "learn_rate": 0.25, "last_input": [1, 0.011490091260993934, 0.0025601038156635547, 0.0061842556410273905, 0, 0, 0, 0.005756438325911426, 0, 0.014170842372012705, 0.008440002507216026, 0, 0, 0, 0.006240197067074008, 0.00723391484131426, 0, 0, 0, 0, 0.0013727791000460164], "last_output": -0.020822736896404237, "learn_rate_possibility": 0.05, "cummulated_output": 0}, {"w": [0.439099881825316, 0.4100307437251449, -0.4585653770315048, 0.67986493067808, 0.5750421517405433, 0.15498262502786497, -0.2051362923030533, -0.40390741986166057, -0.8837707800985528, 0.9034992638578019, -1.0116793456480637, -0.1839855755198916, -0.2102613064111456, 0.9719184149202464, 0.2704868560602398, 0.640919633242389, 0.5368389562186531, -0.754074830977618, -0.09423585903878062, 0.7995525115116993, -0.940213461816229], "pre_neurons": 20, "learn_rate": 0.25, "last_input": [1, 0.011490091260993934, 0.0025601038156635547, 0.0061842556410273905, 0, 0, 0, 0.005756438325911426, 0, 0.014170842372012705, 0.008440002507216026, 0, 0, 0, 0.006240197067074008, 0.00723391484131426, 0, 0, 0, 0, 0.0013727791000460164], "last_output": 0.022690765773584528, "learn_rate_possibility": 0.05, "cummulated_output": 873.9002976443344}, {"w": [-0.8286528596221863, -0.2851243534108676, -0.21776877036922834, 0.02726120366604845, -0.19719443739528053, -0.6682633670275513, -0.2038577759564013, -0.4809695812186343, -0.9974839872156409, -0.37924079126683496, 0.8056877815493735, -0.8501989647556238, -0.35070420758071896, 0.5231716618959532, -0.2719366637288012, -0.9736651647043082, -0.7521611249099298, -0.8027370108589077, -0.5972471760317446, 0.35319666847123643, -0.40053083573755294], "pre_neurons": 20, "learn_rate": 0.25, "last_input": [1, 0.011490091260993934, 0.0025601038156635547, 0.0061842556410273905, 0, 0, 0, 0.005756438325911426, 0, 0.014170842372012705, 0.008440002507216026, 0, 0, 0, 0.006240197067074008, 0.00723391484131426, 0, 0, 0, 0, 0.0013727791000460164], "last_output": -0.042141223719471814, "learn_rate_possibility": 0.05, "cummulated_output": 0}, {"w": [-0.29135130702861334, -0.07139445996096971, -0.6666335588429322, 0.4609960796348016, -0.23090758474950746, -0.9914373031906714, -0.8993625746910292, 0.12123484278629415, 0.06341446979746007, 0.5575003012012525, -0.11800174777182715, 0.6440427500055795, -0.5686948962176208, 0.39706946489223527, -0.7599897009869372, -0.07009088405213132, 0.2505254116107165, 0.09503613187282456, 0.7184346189142158, -0.22844816374611865, 0.3619727871495382], "pre_neurons": 20, "learn_rate": 0.25, "last_input": [1, 0.011490091260993934, 0.0025601038156635547, 0.0061842556410273905, 0, 0, 0, 0.005756438325911426, 0, 0.014170842372012705, 0.008440002507216026, 0, 0, 0, 0.006240197067074008, 0.00723391484131426, 0, 0, 0, 0, 0.0013727791000460164], "last_output": -0.014408085824302535, "learn_rate_possibility": 0.05, "cummulated_output": 0}, {"w": [0.24467646381277675, 0.06642708452152157, -0.4760098162037336, 0.9733223456281399, 0.45517962857855165, -0.17435502298809702, -0.8750687123111667, -0.6425652941129347, -0.3104877373579078, 0.38626432649372733, -0.2166798723508816, -0.2995239098381428, -0.18572180718316078, 0.054380096028040725, -0.21964224359274165, 0.4945557861969039, 0.11068228350732623, 0.5687959743066915, 0.42881110663608046, 0.4048832312362445, 0.9156105607189569], "pre_neurons": 20, "learn_rate": 0.25, "last_input": [1, 0.011490091260993934, 0.0025601038156635547, 0.0061842556410273905, 0, 0, 0, 0.005756438325911426, 0, 0.014170842372012705, 0.008440002507216026, 0, 0, 0, 0.006240197067074008, 0.00723391484131426, 0, 0, 0, 0, 0.0013727791000460164], "last_output": 0.012686107598274881, "learn_rate_possibility": 0.05, "cummulated_output": 487.7879630125945}, {"w": [0.19055204815202553, -0.012218379568565248, -0.9151525694351025, 0.7495274122644568, 0.9003271128790997, -0.7958258386067854, 0.3077996568273633, -0.9393433236020285, 0.6091323299574887, 0.031243672623102903, 0.6191057454744264, 0.48209693520513364, -0.30238524292654834, -0.30986887932629315, 0.2942978985325566, -0.5738520735712103, -0.3089368370231884, 0.45363721469298635, -0.538689270130946, -0.567641584783015, 0.6255831642351686], "pre_neurons": 20, "learn_rate": 0.25, "last_input": [1, 0.011490091260993934, 0.0025601038156635547, 0.0061842556410273905, 0, 0, 0, 0.005756438325911426, 0, 0.014170842372012705, 0.008440002507216026, 0, 0, 0, 0.006240197067074008, 0.00723391484131426, 0, 0, 0, 0, 0.0013727791000460164], "last_output": 0.009580589024881484, "learn_rate_possibility": 0.05, "cummulated_output": 351.5546449971238}, {"w": [-0.7050576250317357, 0.9118931577474143, -0.39276591931208227, -0.8978381771048676, -0.17478237267910868, -0.5694357448075253, 0.6863770193215282, -0.5975997896795189, 0.026001250348897074, 0.5369226819247901, -0.8985415154061338, -0.09130603728227626, 0.5259530002250767, -0.9068211658962264, -0.6152587960220455, 0.44916352663837, -0.008882535711792094, 0.4983383603567366, 0.41593044231614806, 0.37111514787654065, 0.5438272845843359], "pre_neurons": 20, "learn_rate": 0.25, "last_input": [1, 0.011490091260993934, 0.0025601038156635547, 0.0061842556410273905, 0, 0, 0, 0.005756438325911426, 0, 0.014170842372012705, 0.008440002507216026, 0, 0, 0, 0.006240197067074008, 0.00723391484131426, 0, 0, 0, 0, 0.0013727791000460164], "last_output": -0.03522553475691546, "learn_rate_possibility": 0.05, "cummulated_output": 0}, {"w": [0.33940859773342025, -0.11307305699339176, 0.3472403524034571, 0.36106106824498685, -0.28346484254354065, -0.33369246387444984, -0.6081693204565579, -0.08250583446299453, -0.6133885259263301, 0.33812971667645897, 0.5423787385847629, -0.008659385122049779, 0.0590935135084425, -0.7176282914169339, -0.7343431750712097, -0.5703882509055531, -0.7869059976189736, 0.5763056323810622, 0.6447433267239104, 0.45109448273574015, -0.6869735742145444], "pre_neurons": 20, "learn_rate": 0.25, "last_input": [1, 0.011490091260993934, 0.0025601038156635547, 0.0061842556410273905, 0, 0, 0, 0.005756438325911426, 0, 0.014170842372012705, 0.008440002507216026, 0, 0, 0, 0.006240197067074008, 0.00723391484131426, 0, 0, 0, 0, 0.0013727791000460164], "last_output": 0.017031328162591137, "learn_rate_possibility": 0.05, "cummulated_output": 649.4148531214851}, {"w": [-0.3101932451325282, -0.3169462800370473, -0.941797479168351, -0.2628587959246522, -0.6675665683596894, -0.296258957949906, 0.4221118060491844, -0.13435834774023508, -0.8879543502360665, -0.5427135062417632, 0.06722505903237153, 0.35778340868683345, -0.5242846389256575, -0.174770130473346, 0.3973390745263088, -0.539129028374322, -0.06300690344854787, 0.7922141185285092, -0.08692620138470852, 0.43304986695778314, 0.4507692028399235], "pre_neurons": 20, "learn_rate": 0.25, "last_input": [1, 0.011490091260993934, 0.0025601038156635547, 0.0061842556410273905, 0, 0, 0, 0.005756438325911426, 0, 0.014170842372012705, 0.008440002507216026, 0, 0, 0, 0.006240197067074008, 0.00723391484131426, 0, 0, 0, 0, 0.0013727791000460164], "last_output": -0.016332193144028347, "learn_rate_possibility": 0.05, "cummulated_output": 0}, {"w": [-0.916115901923837, 0.7379113925832317, 0.4798165689949605, 0.7569569608289812, 0.8998360724422441, 0.0681951243832759, 0.12815621089621332, 0.314242162556182, 0.691305586645909, -0.28810169416047127, 0.8591507643627168, 0.2613372679311725, -0.35596062434745024, -0.22492831441018257, 0.7742905288379762, -0.2992680687237652, 0.6577350374264936, 0.45071129733070125, 0.1623887877414978, -0.0923817692086335, 0.37176342297504683], "pre_neurons": 20, "learn_rate": null, "last_input": [1, 0.011490091260993934, 0.0025601038156635547, 0.0061842556410273905, 0, 0, 0, 0.005756438325911426, 0, 0.014170842372012705, 0.008440002507216026, 0, 0, 0, 0.006240197067074008, 0.00723391484131426, 0, 0, 0, 0, 0.0013727791000460164], "last_output": -0.04467903796928707, "learn_rate_possibility": null, "cummulated_output": 0}, {"w": [-0.3718817014619604, 0.835340052627392, -0.7394636889471145, 0.5375231655302164, 0.2973746320389279, -0.5895574360565474, 0.7831762256449595, 0.9479482361709104, 0.2740160786865655, -0.579260984231305, -0.5122344614228966, 0.4403237727253977, -0.39738494867470386, -0.7432226232467531, 0.799235033002019, -0.7368200650140411, 0.6108667661405671, 0.47258864243496057, -0.2946415281524364, -0.5948123153984461, -0.8830510190827705], "pre_neurons": 20, "learn_rate": 0.25, "last_input": [1, 0.011490091260993934, 0.0025601038156635547, 0.0061842556410273905, 0, 0, 0, 0.005756438325911426, 0, 0.014170842372012705, 0.008440002507216026, 0, 0, 0, 0.006240197067074008, 0.00723391484131426, 0, 0, 0, 0, 0.0013727791000460164], "last_output": -0.018485785301584772, "learn_rate_possibility": 0.05, "cummulated_output": 0}, {"w": [-0.11775915796107217, -0.6599834686766286, 0.8228141419345383, -0.9361999447201941, -0.6711626742189778, -0.3374966048924506, -0.6401773040961698, -0.3131076738373761, -0.18875375831047814, 0.9168399318524991, 0.572386326628715, -0.6653539559847117, 0.3032068739791869, 0.15235262649136083, -0.5067564834327587, 0.20174379309770396, 0.32255194593133596, 0.9539682695705738, 0.31133950660464915, -0.1266360027179907, 0.4284880755403567], "pre_neurons": 20, "learn_rate": 0.25, "last_input": [1, 0.011490091260993934, 0.0025601038156635547, 0.0061842556410273905, 0, 0, 0, 0.005756438325911426, 0, 0.014170842372012705, 0.008440002507216026, 0, 0, 0, 0.006240197067074008, 0.00723391484131426, 0, 0, 0, 0, 0.0013727791000460164], "last_output": -0.005698821614159484, "learn_rate_possibility": 0.05, "cummulated_output": 0}, {"w": [0.04838050547442463, -0.6814333961323376, -0.6778954731418414, 0.3394791289322219, 0.7092860176680067, 0.24121019545488243, 0.7980571836209884, -0.9200807503879436, -0.04434204181134915, -0.16630211285309815, 0.6709585098110356, 0.5996722216617352, 0.27091601219224315, -0.357437322288199, 0.024164068769503944, 0.9969894577606653, 0.7419009709435553, 0.8491991329833, -0.6666281605647526, 0.7765184759871169, -0.37816573372222617], "pre_neurons": 20, "learn_rate": 0.25, "last_input": [1, 0.011490091260993934, 0.0025601038156635547, 0.0061842556410273905, 0, 0, 0, 0.005756438325911426, 0, 0.014170842372012705, 0.008440002507216026, 0, 0, 0, 0.006240197067074008, 0.00723391484131426, 0, 0, 0, 0, 0.0013727791000460164], "last_output": 0.0022997393933980614, "learn_rate_possibility": 0.05, "cummulated_output": 90.80700475656329}, {"w": [0.9903245375247585, -0.22436276393653842, -0.7189178215848464, 0.44807926164647904, -0.17602399770851193, -0.03338739563174564, 0.8458114005409414, -0.964149659372757, -0.5122979782876909, 0.7409134868230631, -0.1599975594732459, -0.8494483569737254, -0.07003752738283775, 1.053018137298057, -0.42117111918277295, -0.3624984939570566, 0.0677387721699485, 0.060127080569616576, 0.7010521810108408, 0.2943073310726998, 0.16814925787822532], "pre_neurons": 20, "learn_rate": 0.25, "last_input": [1, 0.011490091260993934, 0.0025601038156635547, 0.0061842556410273905, 0, 0, 0, 0.005756438325911426, 0, 0.014170842372012705, 0.008440002507216026, 0, 0, 0, 0.006240197067074008, 0.00723391484131426, 0, 0, 0, 0, 0.0013727791000460164], "last_output": 0.04936849080390401, "learn_rate_possibility": 0.05, "cummulated_output": 1894.308436862574}, {"w": [0.2836029578658268, -0.048904183769209686, -0.513145530025618, 0.09902348051674559, 0.17001859445285894, 0.9812890824013982, -0.11453561296093318, 0.721854814968323, 0.9439694013501885, 0.8726405575790677, -0.938141884759164, -0.09248897236235498, 0.09162888784856094, 0.9017352644141334, -0.9264655120928678, 0.7462335499044013, -0.8698197978664055, -0.9904879904240078, 0.2555642952602821, 0.11119457895505547, 0.8036873257208244], "pre_neurons": 20, "learn_rate": null, "last_input": [1, 0.011490091260993934, 0.0025601038156635547, 0.0061842556410273905, 0, 0, 0, 0.005756438325911426, 0, 0.014170842372012705, 0.008440002507216026, 0, 0, 0, 0.006240197067074008, 0.00723391484131426, 0, 0, 0, 0, 0.0013727791000460164], "last_output": 0.014577523675763432, "learn_rate_possibility": null, "cummulated_output": 564.0723428010322}, {"w": [0.805318132599343, -0.25499986743724623, -0.4791255684933475, 0.8036196502685728, -0.8558969273042176, -0.012540751223219626, -0.6242848035316166, 0.8095550027102882, 0.2529565818595243, 0.1896668132371977, -0.03801188583588466, 0.4310600950536547, 0.0977982433793878, 0.14765993043903403, -0.7093510226242068, -0.8222086558518644, -0.17471518196574132, -0.4767947810501565, 0.060784196635016885, 0.641455433561793, -0.3329525657468475], "pre_neurons": 20, "learn_rate": 0.25, "last_input": [1, 0.011490091260993934, 0.0025601038156635547, 0.0061842556410273905, 0, 0, 0, 0.005756438325911426, 0, 0.014170842372012705, 0.008440002507216026, 0, 0, 0, 0.006240197067074008, 0.00723391484131426, 0, 0, 0, 0, 0.0013727791000460164], "last_output": 0.04011578349058742, "learn_rate_possibility": 0.05, "cummulated_output": 1522.7233420044008}, {"w": [-0.4943495096546937, 0.46706957341492483, 0.6984541271511386, -0.7756531919082685, -0.8263549923995601, 0.2749464024839836, -0.6148844410760979, -0.5759076547624384, 0.8872322190659092, 0.8087561925001272, 0.7973838405442728, 0.29493688725282885, -0.9354883599776074, -0.4551571034578823, -0.5585419376244178, 0.26960063823059666, 0.7100060938856616, 0.2949203394519988, -0.546766060587967, -0.639785972315803, -0.6285522093285976], "pre_neurons": 20, "learn_rate": null, "last_input": [1, 0.011490091260993934, 0.0025601038156635547, 0.0061842556410273905, 0, 0, 0, 0.005756438325911426, 0, 0.014170842372012705, 0.008440002507216026, 0, 0, 0, 0.006240197067074008, 0.00723391484131426, 0, 0, 0, 0, 0.0013727791000460164], "last_output": -0.023967654829960973, "learn_rate_possibility": null, "cummulated_output": 0}]}, {"number_of_pre_neurons": 20, "neurons": [{"w": [0.7645790161985262, 0.37122984714175966, 0.11992863458187819, -0.056604358335019755, 0.025934715614032156, -0.6179832465610746, 0.37471584002072555, 0.20248220639715075, 0.6177603109469487, 0.14912891628844882, -0.6845914893426186, -0.2571583625862206, 0.06881846868131825, -0.5781552395176124, 0.312707587327514, -0.50314692467389, -0.9529428848669381, 0.37137328581595264, -0.19952686444197165, 0.9670034846851623, -0.9601079911376382], "pre_neurons": 20, "learn_rate": 0.25, "last_input": [1, 0, 0, 0, 0, 0.022690765773584528, 0, 0, 0.012686107598274881, 0.009580589024881484,