{"content": [{"win": 0, "name": "Player 2172", "parent": [], "first": 1, "second": 0, "third": 0, "top_five": 1, "top_ten": 1, "top_twenty": 1, "net": {"layers": [{"number_of_pre_neurons": 42, "neurons": [{"w": [-0.00889873503234151, 0.5804029505812258, 0.523585060558831, -0.0409809195584272, -0.8611343328299081, -0.03514262384292843, 0.1667135102520496, -0.4272995941826234, 0.22200778643599262, 0.24769971961460868, -0.4249998908322039, -0.7976933902950301, 0.9283299118716839, -0.8133729282859878, 0.7600276982586032, 0.02338501197478493, 0.7080000802189297, 0.3798599089844774, -0.3347878539762086, 0.9841758189041268, -0.6599848953365979, -0.7652828046152842, -0.785615069079068, -0.5316714401904217, -0.34596136416968437, 0.7525770230721955, -0.7243364859303185, -0.026719357844761316, 0.41768449832718546, -0.22967244652243135, -0.15129182482611747, 0.09839024008849862, 0.4962585300510325, -0.4564226534863025, 0.08473787561634505, -0.14816882443451962, -0.26963618692680935, -0.049916011803653904, -0.3330172391737076, -0.879488355283454, 0.4436727032448653, -0.3382651014098834, 0.33053073554472046], "pre_neurons": 42, "learn_rate": null, "last_input": [1, 0, 0, 0, 0, 0, 0, 0, 0, 0, 0, 0, 0, 0, 0, 0, 0, 0, 0, 0, 0, 0, 0, 0, 0, 1, 0, 0, 0, 0, 0, 0, 1, 0, 0, -1, 0, 0, 0, 1, 0, 0, -1], "last_output": 0.003739604960342295, "learn_rate_possibility": null, "cummulated_output": 12.399810026192352}, {"w": [0.26199356371640126, 0.7766966618500863, 0.3518661548058979, 0.6612937566805142, 0.9745132343503884, 0.8132808586072344, -0.22618200194298899, 0.1897102736811569, 0.061848069926759175, 0.11497159292335324, -0.48952133739824966, -0.9843108823080138, 0.15618036367841204, -0.6374269504900654, -0.12277761662754427, -0.25396466198689205, -0.23042552985523246, 0.08739172906813408, 0.17257102226773213, 0.38015091835314685, -0.7093168838255803, 0.12817229846841727, -0.9061419878010428, -0.04106511012737668, -0.1466215878163719, 0.8699844113905435, -0.8522340014877698, -0.13177624044627168, 0.47331878776017455, -0.08768840340471362, -0.06271842557273843, -0.989340347482758, 0.7804794459964659, -0.6606914528575605, -0.6360251053078123, 0.4360876520038506, 0.4212673102357769, 0.4997888143901845, 0.32105754005003106, -0.6979365315708876, 0.8571114778115714, -0.4737487881771818, 0.015546491759946823], "pre_neurons": 42, "learn_rate": null, "last_input": [1, 0, 0, 0, 0, 0, 0, 0, 0, 0, 0, 0, 0, 0, 0, 0, 0, 0, 0, 0, 0, 0, 0, 0, 0, 1, 0, 0, 0, 0, 0, 0, 1, 0, 0, -1, 0, 0, 0, 1, 0, 0, -1], "last_output": 0.017914070769072258, "learn_rate_possibility": null, "cummulated_output": 18.59514209700469}, {"w": [0.476018185743071, -0.43226532309918575, -0.9667448403403696, -0.3340613496777567, -0.34956568880965255, -0.2247322022723679, 0.7814712962399826, 0.5161693190836869, -0.5598255708635695, -0.6092238883666159, -0.028481979689365833, -0.5708257533058265, 0.23054651797420278, -0.19949378712293342, 0.290366512577666, -0.5361622212517647, -0.07880310587902684, -0.42036847431449154, -0.23428331272068026, 0.36433191954025146, 0.32641250296372615, -0.09293260115009638, 0.3528132601080938, -0.5717282522416676, 0.9456972514182957, 0.6607714490604357, -0.5641018842599754, 0.36802476096828984, -0.6883862848261073, -0.15213127848013364, 0.4120598177807042, 0.17051118631963136, -0.7789995645888488, 0.13931847499091754, 0.40927651195859793, 0.5362974496637936, 0.5608319997068911, 0.4858815599744264, 0.36771037515198324, -0.030613592426928182, 0.7184046813969802, -0.19618840369347557, -0.670600731769456], "pre_neurons": 42, "learn_rate": null, "last_input": [1, 0, 0, 0, 0, 0, 0, 0, 0, 0, 0, 0, 0, 0, 0, 0, 0, 0, 0, 0, 0, 0, 0, 0, 0, 1, 0, 0, 0, 0, 0, 0, 1, 0, 0, -1, 0, 0, 0, 1, 0, 0, -1], "last_output": 0.010919903259142133, "learn_rate_possibility": null, "cummulated_output": 30.861826856341928}, {"w": [-0.11303618069480859, -0.2681338247409777, -0.7515016839426585, -0.10873061653581195, 0.24497892286725498, -0.22947982605430028, -0.47518067191027025, 0.6149414825628992, -0.029274598300602417, 0.9084591813963643, -0.4371113774434625, 0.3074422413422806, 0.17792453938377628, 0.5899796249156308, -0.29172872615665324, 0.3473858105990577, -0.04046091244676675, -0.7670016166737075, 0.5993710988494665, 0.2054413135849833, -0.5419416600584555, -0.6390818502537692, 0.3097760436367696, -0.31652717685983256, -0.6503295867393308, -0.1458090878892233, -0.9878791168259937, -0.6347655900950171, 0.275657490342877, 0.358949255453209, 0.8991544870007089, 0.34656288604597285, -0.3457045476848464, 0.49181690633091657, -0.6580100405359974, -0.09298064190058408, -0.48042372945509126, -0.43207123685293114, -0.8551619220761499, 0.3480444149573787, -0.38480709749102937, -0.024070423221073778, 0.3095477582352355], "pre_neurons": 42, "learn_rate": null, "last_input": [1, 0, 0, 0, 0, 0, 0, 0, 0, 0, 0, 0, 0, 0, 0, 0, 0, 0, 0, 0, 0, 0, 0, 0, 0, 1, 0, 0, 0, 0, 0, 0, 1, 0, 0, -1, 0, 0, 0, 1, 0, 0, -1], "last_output": -0.011225858909935825, "learn_rate_possibility": null, "cummulated_output": 9.200069479733527}, {"w": [-0.2253337813430938, 0.25955262099363074, 0.7250166102130522, 0.6322237060291744, -0.9683222316595286, 0.5298896904783221, -0.013465442793804572, -0.2866906926312345, -0.3100017180409318, 0.7218153639917733, 0.5651198510917532, 0.9500305088719305, 0.8737985514080411, -0.5742441178261879, 0.4274285777916822, 0.3482918936698993, -0.1554541317955811, 0.7469802720981453, 0.8283015849044684, -0.2844712416316857, -0.6030699602049692, 0.6310776400693305, -0.26471421235845427, -0.8574312490395102, -0.4037520670601191, -0.12447852049963104, 0.4294934040388638, -0.47903168496290904, -0.48437788341252963, -0.804796502242801, 0.14303707232386498, -0.2916937525295977, -0.1525808230589225, 0.9304096942887965, 0.9785743510708753, -0.741632810991308, 0.8890315852520967, -0.5879559202002425, 0.994407403341137, -0.3502326855550497, 0.20973795534610584, -0.3942326343871261, 0.12257974411532291], "pre_neurons": 42, "learn_rate": null, "last_input": [1, 0, 0, 0, 0, 0, 0, 0, 0, 0, 0, 0, 0, 0, 0, 0, 0, 0, 0, 0, 0, 0, 0, 0, 0, 1, 0, 0, 0, 0, 0, 0, 1, 0, 0, -1, 0, 0, 0, 1, 0, 0, -1], "last_output": -0.005899472081987577, "learn_rate_possibility": null, "cummulated_output": 8.59310771153241}, {"w": [0.9197196258150724, -0.613168992981812, -0.371006630060563, 0.7648347253846111, -0.1041247425596381, 0.9230938459467533, 0.25031515056261777, 0.35389480594561484, -0.03319891032446454, 0.770716261542308, 0.1830652882180115, -0.5035643193165802, 0.546835958571658, -0.6042619835406648, -0.8485314943020561, -0.03449457162819303, 0.912309164550209, -0.9318469484173502, 0.4885715664251382, -0.6188798150491062, -0.9724752612561363, -0.35911118211034476, 0.151581825103835, 0.2518501797970145, -0.6338527352842154, 0.04675991765643284, 0.4165471944285939, -0.7989651926453938, -0.8563301466740978, 0.8705028771423093, 0.16680370553949997, -0.2979139470741521, 0.21180297588888397, 0.791981189454303, 0.011607429098474453, -0.24644930144743027, -0.19860926074294505, 0.19681394748222436, 0.3290285967198472, 0.09724701319214124, -0.875898960754945, -0.29836877534039563, 0.0884399329301071], "pre_neurons": 42, "learn_rate": null, "last_input": [1, 0, 0, 0, 0, 0, 0, 0, 0, 0, 0, 0, 0, 0, 0, 0, 0, 0, 0, 0, 0, 0, 0, 0, 0, 1, 0, 0, 0, 0, 0, 0, 1, 0, 0, -1, 0, 0, 0, 1, 0, 0, -1], "last_output": 0.033967504150568754, "learn_rate_possibility": null, "cummulated_output": 43.20109987606763}, {"w": [-0.30860639348549723, -0.8712819523307977, -0.40546365870468426, -0.7842981013910688, -0.2843668027968993, 0.8413949719891163, 0.8430118160163314, -0.529246227287786, 0.6573316702373304, 0.6339987669081522, 0.07310049810925023, -0.15333705834292988, 0.22659532965641982, -0.5362313459371226, 0.1734061132752136, -0.628307753778458, -0.9438191304392889, 0.3750191827636933, -0.08613955308552046, -0.060606674067159805, 0.38141976525214316, -0.18299432691720474, -0.3335765523287677, -0.6946786334534643, 0.8677822956091263, 0.935633036309721, -0.2815287755629683, -0.27924749156992235, -0.9633560577454441, 0.43517002110095526, -0.422628360125459, -0.5067195706481329, 0.09966540378630095, 0.9203398954327509, -0.6524920163866772, -0.30909289833435993, 0.7678575265206928, 0.06963840017828282, 0.8344419827931504, -0.623540251329554, -0.34108648645618866, 0.5030099103746644, 0.4787730982884586], "pre_neurons": 42, "learn_rate": null, "last_input": [1, 0, 0, 0, 0, 0, 0, 0, 0, 0, 0, 0, 0, 0, 0, 0, 0, 0, 0, 0, 0, 0, 0, 0, 0, 1, 0, 0, 0, 0, 0, 0, 1, 0, 0, -1, 0, 0, 0, 1, 0, 0, -1], "last_output": -0.0022685058625716028, "learn_rate_possibility": null, "cummulated_output": 18.671545031055537}, {"w": [-0.09513270827787546, 0.6728239613481486, 0.9804314931129439, -0.885744845225666, 0.6274294206274593, -0.2245664526721458, 0.02397130880041587, 0.11008037706211238, -0.4189915564502793, 0.8740086290139324, -0.7645126497688903, -0.847382835870877, -0.23670048822185885, 0.6826841302809861, 0.4260238018685616, 0.08833539726123774, -0.27190865143255905, -0.28802556370191246, -0.7636490102524414, 0.3747799412507564, -0.4015626154086791, 0.7253735145137858, 0.558645220273176, -0.5645342803047286, -0.8101569107611264, -0.22237669109319924, 0.22824283966745273, -0.26818687350269643, 0.0063634551189935, 0.7216172724864136, 0.5859896395790343, -0.44908847552575604, -0.08962598157422508, -0.3337547207077729, 0.5772092613556699, 0.8481290490077826, -0.39729645885494613, -0.7718428085611915, 0.642616112841931, 0.1898323760492464, -0.7006560673669184, -0.013647487170663108, 0.099993914566878], "pre_neurons": 42, "learn_rate": null, "last_input": [1, 0, 0, 0, 0, 0, 0, 0, 0, 0, 0, 0, 0, 0, 0, 0, 0, 0, 0, 0, 0, 0, 0, 0, 0, 1, 0, 0, 0, 0, 0, 0, 1, 0, 0, -1, 0, 0, 0, 1, 0, 0, -1], "last_output": -0.027152782207315714, "learn_rate_possibility": null, "cummulated_output": 15.999761261655918}, {"w": [0.2793356706948604, -0.994522826212346, 0.9713048010073493, 0.840007179443538, 0.6325713489977614, 0.8911053809684357, -0.677417907797957, 0.9186964145925487, 0.342795860058136, 0.3984370963832471, 0.5501878640815472, 0.8061423749255967, 0.6432691983663827, -0.8813560416507362, 0.0751461627552017, 0.3670063303377966, 0.6943075310598401, 0.19654205507890454, -0.39335113836028435, 0.6403148913502341, 0.050587149606605264, -0.2693927445856579, 0.8294781656045362, 0.0005509214709327193, -0.29570349087025627, 0.13233849249346274, 0.40842062413949076, 0.10549339822348669, -0.8785994480820662, -0.7586778601858493, 0.598049421673787, -0.8052608190886854, -0.04888887011847176, -0.2691341709314994, -0.8743849993747461, 0.7955569781072014, -0.13144507080061607, -0.5303696054686513, 0.554359848437048, -0.6662382046317872, -0.9695541218489601, -0.840505766602246, -0.37313365511388485], "pre_neurons": 42, "learn_rate": null, "last_input": [1, 0, 0, 0, 0, 0, 0, 0, 0, 0, 0, 0, 0, 0, 0, 0, 0, 0, 0, 0, 0, 0, 0, 0, 0, 1, 0, 0, 0, 0, 0, 0, 1, 0, 0, -1, 0, 0, 0, 1, 0, 0, -1], "last_output": -0.01691946783523527, "learn_rate_possibility": null, "cummulated_output": 29.573671070953747}, {"w": [0.254651258916738, -0.8690720093915614, 0.9067305355881976, -0.5581729841200607, 0.461883667845159, 0.32115572868129827, -0.13883527656940542, -0.8920720535887876, -0.7859955551363915, -0.8067083237603501, 0.9819975614784213, -0.09374119274070392, -0.021864318061260768, 0.7959178479305948, 0.0988853423754783, 0.5493201056698562, 0.4898661603222314, 0.08848173314376084, 0.09924280678751551, 0.5667874144156682, 0.6325004235487914, -0.28042138862310306, 0.8035487192369479, 0.7600354421008837, -0.7080429500196259, 0.5225095897613536, 0.7291661596055741, -0.1322090425377347, 0.10239384439340182, 0.2468968369178688, -0.9846813235106175, -0.5142749360621788, -0.8088522149838351, -0.2520623061247098, 0.3275809103279328, 0.5803354296735803, 0.9994179022460785, 0.5554563186064956, 0.044099824134378185, 0.06302593132385503, 0.7072007613004339, 0.7411816691355162, 0.08792184246887635], "pre_neurons": 42, "learn_rate": null, "last_input": [1, 0, 0, 0, 0, 0, 0, 0, 0, 0, 0, 0, 0, 0, 0, 0, 0, 0, 0, 0, 0, 0, 0, 0, 0, 1, 0, 0, 0, 0, 0, 0, 1, 0, 0, -1, 0, 0, 0, 1, 0, 0, -1], "last_output": -0.01512097840236881, "learn_rate_possibility": null, "cummulated_output": 20.545463075818333}]}, {"number_of_pre_neurons": 10, "neurons": [{"w": [-0.1283006637797246, 0.5123185956336416, -0.12951425737765043, -0.11516201124606984, -0.5434415821880245, 0.897655532618322, -0.18959910969232396, 0.31776581322024966, 0.4055700959913686, 0.031565906063096616, 0.02614083646255283], "pre_neurons": 10, "learn_rate": null, "last_input": [1, 0.003739604960342295, 0.017914070769072258, 0.010919903259142133, 0, 0, 0.033967504150568754, 0, 0, 0, 0], "last_output": -0.01362974156433817, "learn_rate_possibility": null, "cummulated_output": 0.005625151271206301}, {"w": [-0.45351857276895213, 0.333117873482357, -0.18995442400365348, 0.13762679674693823, -0.684515259587178, -0.21050922818312712, 0.21932785148431622, 0.27131582172951463, 0.8146535038303093, -0.6935374681718534, -0.12692979655323278], "pre_neurons": 10, "learn_rate": null, "last_input": [1, 0.003739604960342295, 0.017914070769072258, 0.010919903259142133, 0, 0, 0.033967504150568754, 0, 0, 0, 0], "last_output": -0.04468459585995957, "learn_rate_possibility": null, "cummulated_output": 0}, {"w": [0.5022561869134208, -0.8176492296701938, -0.803407062848376, 0.6302615520688817, 0.8145455631661676, 0.017679772632289037, 0.04336693333751018, -0.8412239967967026, 0.07987345892702313, 0.32939047250648046, -0.5778748782211383], "pre_neurons": 10, "learn_rate": null, "last_input": [1, 0.003739604960342295, 0.017914070769072258, 0.010919903259142133, 0, 0, 0.033967504150568754, 0, 0, 0, 0], "last_output": 0.049406213360511125, "learn_rate_possibility": null, "cummulated_output": 71.20380130214608}, {"w": [0.1752099823482991, 0.8058515428241506, 0.6796220431649995, 0.7997384644800412, -0.37405067704552386, -0.07613237308672405, 0.12833253082410812, 0.542402452394545, -0.2172195976490956, 0.01419275959485744, -0.22389498894855753], "pre_neurons": 10, "learn_rate": null, "last_input": [1, 0.003739604960342295, 0.017914070769072258, 0.010919903259142133, 0, 0, 0.033967504150568754, 0, 0, 0, 0], "last_output": 0.020220430030247847, "learn_rate_possibility": null, "cummulated_output": 30.403958509304605}, {"w": [-0.4523097484716856, 0.16874493059453766, -0.7030178039735764, 0.12635122943874788, -0.526158272836917, -0.030872429181852068, 0.5419006518795333, 0.04724040749024838, 0.5052309665899246, 0.3990205759470282, -0.27101345687656764], "pre_neurons": 10, "learn_rate": null, "last_input": [1, 0.003739604960342295, 0.017914070769072258, 0.010919903259142133, 0, 0, 0.033967504150568754, 0, 0, 0, 0], "last_output": -0.04442559772877433, "learn_rate_possibility": null, "cummulated_output": 0}, {"w": [-0.8583461948891928, 0.3065411557047253, -0.886540302930692, 0.20271651073532992, 0.7292373027088814, -0.894800829895281, 0.6985052323310246, 0.18581566309973852, 0.5969956723053687, 0.46654128970769704, 0.8786138284626988], "pre_neurons": 10, "learn_rate": null, "last_input": [1, 0.003739604960342295, 0.017914070769072258, 0.010919903259142133, 0, 0, 0.033967504150568754, 0, 0, 0, 0], "last_output": -0.08467314362551787, "learn_rate_possibility": null, "cummulated_output": 0}, {"w": [-0.7547085472908368, -0.2581082226527007, -0.5080919004684394, 0.5705447796459193, -0.7659798365315773, -0.594556067482177, 0.6727891836320741, 0.34651943245892625, 0.1359468270107822, -0.4080119451060049, -0.36292380965122173], "pre_neurons": 10, "learn_rate": null, "last_input": [1, 0.003739604960342295, 0.017914070769072258, 0.010919903259142133, 0, 0, 0.033967504150568754, 0, 0, 0, 0], "last_output": -0.07357553819671513, "learn_rate_possibility": null, "cummulated_output": 0}, {"w": [-0.006048410328225007, -0.026132440952759906, 0.5799479352806596, 0.7621345808544207, -0.6438065010040166, 0.6528351335266671, -0.33687706810939355, 0.21347612091155588, 0.5112983604315173, 0.6156390603849615, -0.233918839121543], "pre_neurons": 10, "learn_rate": null, "last_input": [1, 0.003739604960342295, 0.017914070769072258, 0.010919903259142133, 0, 0, 0.033967504150568754, 0, 0, 0, 0], "last_output": 5.569630210456418e-05, "learn_rate_possibility": null, "cummulated_output": 4.0089054792594645}, {"w": [0.8991011825270676, -0.6536419936017501, -0.7138509607985957, 0.28594194051439015, -0.7991239763185078, 0.8019954488547576, 0.9078570066968155, -0.1505513800224929, -0.0936362669115618, 0.651557598006919, 0.08760879442534586], "pre_neurons": 10, "learn_rate": null, "last_input": [1, 0.003739604960342295, 0.017914070769072258, 0.010919903259142133, 0, 0, 0.033967504150568754, 0, 0, 0, 0], "last_output": 0.09180548611928283, "learn_rate_possibility": null, "cummulated_output": 134.02764819028636}, {"w": [-0.07539872565636174, -0.9111658535687637, -0.3375066656612149, -0.04228484417448142, -0.4831793385976306, 0.7929839377396457, -0.9390933232506886, -0.9441590940846438, 0.6312411742349078, 0.5732559089058249, -0.4732827081315025], "pre_neurons": 10, "learn_rate": null, "last_input": [1, 0.003739604960342295, 0.017914070769072258, 0.010919903259142133, 0, 0, 0.033967504150568754, 0, 0, 0, 0], "last_output": -0.011595853443226452, "learn_rate_possibility": null, "cummulated_output": 0.11212148778589882}]}, {"number_of_pre_neurons": 10, "neurons": [{"w": [0.6260410428504792, -0.43074999170723993, -0.6041769640028896, 0.05424409364447769, 0.3255019703680284, 0.1978096049767819, 0.9396303736438583, 0.850690529737085, -0.5180375599820493, 0.3617903140017067, -0.8226823246146335], "pre_neurons": 10, "learn_rate": null, "last_input": [1, 0, 0, 0.049406213360511125, 0.020220430030247847, 0, 0, 0, 5.569630210456418e-05, 0.09180548611928283, 0], "last_output": 0.06684604850770637, "learn_rate_possibility": null, "cummulated_output": 96.33877907631025}, {"w": [0.5288599230550732, -0.7669234548565971, -0.12507319469667455, 0.43589868230723106, -0.8226781281498239, -0.9380285952185576, -0.943265640207245, -0.7209300530361804, 0.41816784228466597, 0.5624670558293206, -0.2774589134917578], "pre_neurons": 10, "learn_rate": null, "last_input": [1, 0, 0, 0.049406213360511125, 0.020220430030247847, 0, 0, 0, 5.569630210456418e-05, 0.09180548611928283, 0], "last_output": 0.05855680424132859, "learn_rate_possibility": null, "cummulated_output": 84.61383925171991}, {"w": [0.3492552983345609, 0.83625042098965, 0.7313046100113061, -0.7376134264017296, 0.05640979310562266, -0.7414791286248659, -0.3265988310750143, -0.6705181326607839, 0.36036303878586207, 0.9957169086521149, 0.6566879388717213], "pre_neurons": 10, "learn_rate": null, "last_input": [1, 0, 0, 0.049406213360511125, 0.020220430030247847, 0, 0, 0, 5.569630210456418e-05, 0.09180548611928283, 0], "last_output": 0.04053302045614846, "learn_rate_possibility": null, "cummulated_output": 58.81056533886061}, {"w": [0.09752581472060862, -0.08179102897114099, -0.7789330832675667, 0.218210310826906, 0.026576128425291667, 0.045045227557439116, -0.6028242451198467, -0.5905533322487417, -0.38815680080410875, 0.9267891867550917, 0.36912940452168574], "pre_neurons": 10, "learn_rate": null, "last_input": [1, 0, 0, 0.049406213360511125, 0.020220430030247847, 0, 0, 0, 5.569630210456418e-05, 0.09180548611928283, 0], "last_output": 0.019393834534015685, "learn_rate_possibility": null, "cummulated_output": 27.975599832201095}, {"w": [0.3318292363598345, 0.5105492131846703, -0.2835487890813031, -0.45530977923859184, -0.45432672105275973, -0.4632805335853254, 0.9430319315205591, -0.7648990804687532, 0.2627396979826613, 0.575753149798238, 0.4709835489964407], "pre_neurons": 10, "learn_rate": null, "last_input": [1, 0, 0, 0.049406213360511125, 0.020220430030247847, 0, 0, 0, 5.569630210456418e-05, 0.09180548611928283, 0], "last_output": 0.035304517920157125, "learn_rate_possibility": null, "cummulated_output": 51.08369842341966}, {"w": [0.5392597593923503, -0.2581898926529349, -0.7769920449333907, 0.780336635189556, -0.8067898226403849, -0.2715237736070455, 0.7270113521933732, -0.29400976065044904, 0.1609602170233393, -0.1720747955381583, 0.6633597151023853], "pre_neurons": 10, "learn_rate": null, "last_input": [1, 0, 0, 0.049406213360511125, 0.020220430030247847, 0, 0, 0, 5.569630210456418e-05, 0.09180548611928283, 0], "last_output": 0.054587400458306096, "learn_rate_possibility": null, "cummulated_output": 78.6785994488394}, {"w": [0.7274659676124664, 0.33346384681936847, -0.025330835471066848, 0.13187912940540913, 0.8656516628177591, 0.6647455883640287, -0.6507905920208297, -0.8485949788847653, 0.6226886064336943, -0.8651606076618941, 0.4808253987196136], "pre_neurons": 10, "learn_rate": null, "last_input": [1, 0, 0, 0.049406213360511125, 0.020220430030247847, 0, 0, 0, 5.569630210456418e-05, 0.09180548611928283, 0], "last_output": 0.06719807567572803, "learn_rate_possibility": null, "cummulated_output": 97.19723706130723}]}], "connector_layout": [42, 10, 10, 7]}}, {"win": 0, "name": "Player 2013", "parent": [], "first": 0, "second": 1, "third": 0, "top_five": 1, "top_ten": 1, "top_twenty": 1, "net": {"layers": [{"number_of_pre_neurons": 42, "neurons": [{"w": [-0.28660657204496753, -0.0061104216618590446, 0.3509568628644748, -0.32004686015721684, -0.23482437475982665, -0.3220774671475559, -0.3262496827886925, -0.9600209277497653, 0.10713308890712803, -0.809043200446733, -0.8533603734092188, -0.9464226011375527, -0.6788532991597116, 0.4258605156047175, 0.34934451015101686, 0.39849367899269184, -0.45846868779525174, 0.9422580939190577, -0.4885211965098166, 0.3259096895268647, -0.28854405109021153, 0.11012273246049653, -0.6786476062536364, 0.2638346839942287, -0.0626094999250626, -0.7800644817600562, 0.621082878074684, -0.39564381534526083, -0.8148622506416809, 0.2900311620239895, 0.008810601073806046, -0.8380235650755694, -0.5845496660717606, -0.7198341193483457, 0.530306188491189, -0.11524598442853007, 0.2403717705931252, -0.8844337927513912, -0.7971579282623842, -0.960959333850435, -0.8108104153545168, -0.3984881292531961, -0.713242157766816], "pre_neurons": 42, "learn_rate": null, "last_input": [1, 0, 0, 0, 0, 0, 0, 0, 0, 0, 0, 0, 0, 0, 0, 0, 0, 0, 0, 0, 0, 0, 0, 0, 0, 1, 0, 0, -1, 0, 0, 0, 1, 0, 0, -1, 0, 0, 0, 1, 0, 0, -1], "last_output": -0.02308052399972738, "learn_rate_possibility": null, "cummulated_output": 5.377026854174228}, {"w": [-0.8538473155779924, -0.9611828445628416, 0.9715256761879298, -0.8913294563255698, 0.9689838311200334, 0.9637100391069726, 0.31324195954474177, -0.009641110946065012, 0.38414464913658386, 0.07298881074450136, 0.40840456553594806, -0.03575122126726704, 0.46983027284044154, -0.13504546471403578, -0.5440306634988619, -0.8844623812344863, -0.5281295391920422, 0.7438785544885984, 0.11927186471982143, 0.7047073656459766, -0.7464381625218033, -0.9614371612538106, -0.2485926881999143, 0.7221727298217797, 0.5771750267646714, -0.0485999438452267, 0.6064735165184738, -0.6136909642930373, 0.9246409858518034, 0.0972665128333321, -0.19347777409475486, 0.957276132500271, -0.6215647912353899, 0.7924696931309945, -0.2789445700556772, -0.4353831823556362, 0.7808776685258365, -0.24234525193385004, -0.013433357337744756, -0.3773427495127024, 0.8682202206355145, 0.8709626567592272, -0.8867234630338259], "pre_neurons": 42, "learn_rate": null, "last_input": [1, 0, 0, 0, 0, 0, 0, 0, 0, 0, 0, 0, 0, 0, 0, 0, 0, 0, 0, 0, 0, 0, 0, 0, 0, 1, 0, 0, -1, 0, 0, 0, 1, 0, 0, -1, 0, 0, 0, 1, 0, 0, -1], "last_output": -0.03526574235255966, "learn_rate_possibility": null, "cummulated_output": 14.855126865337127}, {"w": [0.38971212911131925, -0.22387772658742322, -0.543691237057417, 0.2635929158178185, 0.5537987956772403, 0.9578758219346533, 0.5042531211519896, 0.23324407345494746, -0.699770840418557, -0.41162849064208085, 0.35190318099269957, -0.5305073037450572, -0.4429488749108763, -0.18496109339173383, -0.9723974355938436, 0.23627779985645803, -0.49388308215968824, 0.31299502131098, -0.49385632780450583, -0.3788032455477106, 0.5898657630203346, 0.32248872848119836, -0.21884711269235746, 0.3399589444508164, -0.988811292814445, -0.9921901547842917, 0.09487762395034482, -0.3959949686180517, 0.3508951690478661, 0.20903137041307085, 0.5456138048044097, 0.2150891484013382, 0.046767738429149386, 0.21580042953160095, -0.49911296105568614, -0.9511301648022619, -0.645848238264555, 0.4709810017094358, 0.07707223866166779, 0.5286289164501721, -0.48592323853622443, -0.6374106060990354, -0.22837708841180193], "pre_neurons": 42, "learn_rate": null, "last_input": [1, 0, 0, 0, 0, 0, 0, 0, 0, 0, 0, 0, 0, 0, 0, 0, 0, 0, 0, 0, 0, 0, 0, 0, 0, 1, 0, 0, -1, 0, 0, 0, 1, 0, 0, -1, 0, 0, 0, 1, 0, 0, -1], "last_output": 0.01981465776235838, "learn_rate_possibility": null, "cummulated_output": 24.122395520827084}, {"w": [0.7905187906320468, -0.15758551980736857, 0.08825122431828203, 0.294972930380601, -0.6669376287685993, -0.5349414610916632, 0.5996070955891688, 0.31749804837310824, 0.0026669623266148967, -0.7276918125019867, -0.6243492956487988, -0.14895239986254372, 0.03365046630947566, -0.08260052930194828, 0.6597459870667324, -0.11102507262153472, -0.7629260049841291, -0.4391383094321397, 0.8289101815586071, -0.40825108756675665, -0.989735388817617, 0.07208734147976892, 0.21876525857520868, -0.5199353747509294, 0.7142845491094223, 0.16811065518806512, -0.9363437258758018, 0.91040069456704, -0.30493571086462423, -0.6295401241666563, -0.5841615967025493, -0.9340384400213875, 0.12503872237529845, 0.46654594199047517, -0.015567360646812967, 0.2030271830342265, 0.6994735093644351, -0.37025143672346017, 0.7491035937139852, -0.1070293097372681, 0.3914416360997961, -0.17217917783779813, 0.032340781144127195], "pre_neurons": 42, "learn_rate": null, "last_input": [1, 0, 0, 0, 0, 0, 0, 0, 0, 0, 0, 0, 0, 0, 0, 0, 0, 0, 0, 0, 0, 0, 0, 0, 0, 1, 0, 0, -1, 0, 0, 0, 1, 0, 0, -1, 0, 0, 0, 1, 0, 0, -1], "last_output": 0.024648796090400715, "learn_rate_possibility": null, "cummulated_output": 41.77474849957799}, {"w": [-0.6758931759612166, 0.6728670948580395, -0.03552758853530369, 0.029301611168842667, 0.9879795587301881, -0.7292070496206198, 0.17846067670900356, 0.524266762259135, 0.5544738318849349, -0.5453161056242499, -0.7679268295913186, 0.8892527781802178, 0.776909943825278, -0.26055885258994715, -0.5018707636100079, -0.5294233371747246, -0.949806428086855, -0.5174597783324164, 0.05820158161169564, -0.37461870990748225, 0.06566374264019825, 0.6364354892454984, -0.4419260881231628, 0.45614377117425486, 0.8386860640801803, -0.5227464283134078, -0.39359604082822686, -0.5451540166013615, 0.38208911652941135, -0.11989759037120451, -0.1399442503225634, 0.21987887122073135, -0.9582591301016246, -0.4914635148395432, -0.8506656583323096, -0.8281990695532029, -0.4231885020505086, -0.10454520805649703, -0.6330810720122382, -0.9529366349916182, 0.6827479238890743, -0.7783093774766976, 0.9354657802405093], "pre_neurons": 42, "learn_rate": null, "last_input": [1, 0, 0, 0, 0, 0, 0, 0, 0, 0, 0, 0, 0, 0, 0, 0, 0, 0, 0, 0, 0, 0, 0, 0, 0, 1, 0, 0, -1, 0, 0, 0, 1, 0, 0, -1, 0, 0, 0, 1, 0, 0, -1], "last_output": -0.08519175534122009, "learn_rate_possibility": null, "cummulated_output": 4.278112168949426}, {"w": [-0.35420934065697773, 0.14520158103814707, 0.25325303953452183, -0.4510591006675455, 0.8454745702158049, -0.9288460738196616, 0.8928743081268116, 0.34358823758758716, -0.39551636006720603, 0.7390290128433179, 0.1309308523536603, -0.1994394845307701, 0.3981193251835722, -0.29951428426656235, 0.5140532100618382, -0.21018717125226316, -0.28879567750542434, -0.591786441981494, 0.04474687991446458, 0.17299281279653078, -0.6451111838786423, -0.527408428138592, 0.17503375527040754, 0.6794883563355705, -0.12350904067662238, 0.04994372630894239, -0.21618882457730604, 0.3249988938620829, -0.23673011425840773, -0.13436255159989452, 0.15315656893739038, 0.5389516965626042, 0.7144966174549059, 0.7771079183843534, -0.11800592893816275, -0.6278456375709083, 0.3102533361786046, 0.8393735244674045, 0.3011145463752922, -0.6957533943047425, -0.4524303451057532, 0.15990624367081252, -0.3170913484217812], "pre_neurons": 42, "learn_rate": null, "last_input": [1, 0, 0, 0, 0, 0, 0, 0, 0, 0, 0, 0, 0, 0, 0, 0, 0, 0, 0, 0, 0, 0, 0, 0, 0, 1, 0, 0, -1, 0, 0, 0, 1, 0, 0, -1, 0, 0, 0, 1, 0, 0, -1], "last_output": 0.02116086454040083, "learn_rate_possibility": null, "cummulated_output": 12.74247463641978}, {"w": [-0.09078661607104443, 0.838766020263616, -0.23054527009701742, 0.2946664018119822, -0.7221247170780958, -0.9139924817533669, -0.613258894819892, 0.11065109495302994, -0.2368751059831351, -0.669454484818083, 0.44421275864478393, 0.8203219539610798, 0.48148777741526994, -0.7149168844904163, -0.08578774827014302, 0.5516229434386632, -0.5768593145667182, -0.11432971355458887, 0.31045104306077276, 0.7823720014651105, -0.1762111313070358, 0.41525470190863123, -0.5499523389563141, 0.11551122755890053, -0.397641616493148, -0.142221779690334, -0.21269904976148735, 0.758570712615829, -0.27750053063243496, -0.7198600291496116, -0.39376510617409655, 0.29137422665718193, 0.38372875200910794, -0.7011141682908346, 0.16320880796955195, -0.643352976153486, 0.4221060696147614, -0.3138131522498919, 0.9740973967447377, -0.09248113479262043, 0.498970073971865, 0.7507226012114709, 0.4333846053222672], "pre_neurons": 42, "learn_rate": null, "last_input": [1, 0, 0, 0, 0, 0, 0, 0, 0, 0, 0, 0, 0, 0, 0, 0, 0, 0, 0, 0, 0, 0, 0, 0, 0, 1, 0, 0, -1, 0, 0, 0, 1, 0, 0, -1, 0, 0, 0, 1, 0, 0, -1], "last_output": 0.012905071827813863, "learn_rate_possibility": null, "cummulated_output": 11.095167432377714}, {"w": [0.13383639157959837, 0.40161785561343444, 0.4733853313345233, 0.8770768943812624, -0.9624470091403938, 0.538053663801223, -0.30310409938990057, 0.9604180437731662, 0.021849500888646567, -0.7249665650849375, 0.8433219314979317, -0.3175135764217545, -0.6893052772099204, -0.617799831255476, -0.4033426367257671, 0.26552679125632483, 0.7545041096282854, -0.15327626391598503, 0.7730555222194364, -0.11774391569484943, 0.8393413081795547, -0.33771918451645333, 0.543886469651838, 0.7358313236405081, 0.7725224458396027, -0.083412728016796, 0.2290119794261143, -0.5450025534114873, 0.7991703670091661, 0.0010914693438908163, 0.3215930715258488, -0.949651455346745, 0.8601587935176858, 0.543294356486828, 0.5332637137856906, 0.9860663611935518, -0.03109736460513024, -0.46601768489780504, 0.7766802171361018, -0.6266032647712849, -0.6764242575177002, -0.5972058405118652, 0.003988436479432478], "pre_neurons": 42, "learn_rate": null, "last_input": [1, 0, 0, 0, 0, 0, 0, 0, 0, 0, 0, 0, 0, 0, 0, 0, 0, 0, 0, 0, 0, 0, 0, 0, 0, 1, 0, 0, -1, 0, 0, 0, 1, 0, 0, -1, 0, 0, 0, 1, 0, 0, -1], "last_output": -0.03534867387329584, "learn_rate_possibility": null, "cummulated_output": 15.025850168057064}, {"w": [-0.5610078361969537, -0.33392883792521477, 0.400181016398546, 0.30316163401232443, -0.173926911000017, -0.40056664553304944, -0.023507156821720443, -0.06875089377552701, 0.4985951499292822, -0.55396574433566, -0.7720803733937298, 0.1222071608140991, -0.02172244756982744, 0.9022516143670136, -0.7641865719436598, 0.5669508888935033, -0.27501370254623403, -0.9033046508132307, 0.07107259351441053, -0.8954715747038242, 0.4861443004513264, 0.45557509359890713, 0.698467962967364, -0.6773187466570996, 0.7568039979129066, -0.39197748798232723, 0.9893590752494172, -0.529780495767074, 0.9314682033832791, 0.1347444096493291, -0.9429942957919606, -0.8674483866204459, 0.9826147010210231, 0.3365852599405168, -0.4457341625729887, 0.8111416303157948, -0.17714090042492958, 0.7721904273807507, -0.4104484532716137, 0.25411108339732613, 0.808577007725898, -0.7250769871052845, 0.6445858047040729], "pre_neurons": 42, "learn_rate": null, "last_input": [1, 0, 0, 0, 0, 0, 0, 0, 0, 0, 0, 0, 0, 0, 0, 0, 0, 0, 0, 0, 0, 0, 0, 0, 0, 1, 0, 0, -1, 0, 0, 0, 1, 0, 0, -1, 0, 0, 0, 1, 0, 0, -1], "last_output": -0.04935154432615875, "learn_rate_possibility": null, "cummulated_output": 10.043086402612648}, {"w": [-0.5441181853176547, -0.09192160507717229, 0.3704080863101704, -0.4735196930430101, 0.31174907918278105, 0.6435402989733516, 0.20132106698941654, 0.7743657118623988, 0.5168629302726298, -0.5301666680068204, -0.27112763938322915, 0.6757238067713323, -0.650944892580442, 0.32865248390326895, -0.19925660983820426, -0.4175422662724364, -0.928172878268197, 0.7163803703614324, -0.9145207243572511, -0.27038346366767607, 0.07989808493108974, 0.965950686621065, -0.14354381887746204, 0.983227492916217, -0.7503197959619912, -0.11051351956789746, -0.09867243196027609, -0.21941205747119863, -0.5114162369614943, -0.9206387918009149, 0.7470447106283113, 0.025229969877408553, -0.7631971239200261, -0.2190006857153728, -0.2307430639744028, 0.24412223329401006, 0.3667284219177176, 0.8443860881152954, -0.04544597930070604, 0.8944073936804766, -0.9945441314532837, 0.5579933863931328, 0.17185372047773373], "pre_neurons": 42, "learn_rate": null, "last_input": [1, 0, 0, 0, 0, 0, 0, 0, 0, 0, 0, 0, 0, 0, 0, 0, 0, 0, 0, 0, 0, 0, 0, 0, 0, 1, 0, 0, -1, 0, 0, 0, 1, 0, 0, -1, 0, 0, 0, 1, 0, 0, -1], "last_output": -0.010399257984579276, "learn_rate_possibility": null, "cummulated_output": 53.0967674110932}, {"w": [0.8135027593658382, 0.8325346457225558, -0.511307259451798, 0.23055740483026899, 0.526084662485873, -0.9930199592931059, -0.345465830521156, 0.7701942812427414, 0.8254171564554127, -0.3554779667958561, -0.4299555873203247, -0.34389947612126637, 0.7536352065244603, -0.7258957384491116, 0.991853739283816, -0.8575923627384192, -0.8986535130518716, -0.49053248989696874, -0.8975901564901161, 0.39831005240421313, 0.6477374531199813, 0.0014894213412213198, -0.9087517372364775, 0.9124152036737165, 0.9678084098699957, 0.31577816659546576, 0.09590969353485956, -0.10405080810011769, 0.16345585720437672, 0.4793258698154166, 0.9809942496273387, 0.6219925070311378, -0.8087614966744066, 0.16557664494691426, 0.24090768347732272, -0.21867273497897521, 0.7037652121286613, 0.3118203334204557, 0.45105652718009437, 0.20065420635296038, -0.9888130038777521, -0.06478543014128224, 0.6725835689377067], "pre_neurons": 42, "learn_rate": null, "last_input": [1, 0, 0, 0, 0, 0, 0, 0, 0, 0, 0, 0, 0, 0, 0, 0, 0, 0, 0, 0, 0, 0, 0, 0, 0, 1, 0, 0, -1, 0, 0, 0, 1, 0, 0, -1, 0, 0, 0, 1, 0, 0, -1], "last_output": -0.002366904947940446, "learn_rate_possibility": null, "cummulated_output": 61.197139359626405}, {"w": [-0.09065281769520617, -0.3914550381139932, 0.17626386993607213, 0.7901614669473334, 0.5515616262945033, -0.14300318507767362, 0.0925224882842759, 0.47085425564997463, 0.39367061832811934, 0.22097020102593512, -0.7853380403068957, -0.9158760701014326, -0.7240436888410653, -0.2279528702897866, 0.5691539575380147, -0.25291627664942395, -0.8753711601412051, 0.18189946402988277, 0.6227903868699967, -0.1569713348947004, -0.13850806178823327, -0.11827356467226591, -0.10034906403295807, 0.23553986815802674, -0.2786345555092662, 0.9360053925262435, 0.28559888136645384, -0.46281918693077917, 0.21934804078458314, 0.6869907738096694, 0.9006909582653404, -0.18916137255828525, -0.9319214906324766, -0.432764567144198, 0.09959907049567485, -0.14766168051076667, -0.7573195979902705, 0.6658912583715051, 0.594031468131238, -0.8831638409956974, -0.867766576584976, -0.2217512415007976, 0.7595301587384318], "pre_neurons": 42, "learn_rate": null, "last_input": [1, 0, 0, 0, 0, 0, 0, 0, 0, 0, 0, 0, 0, 0, 0, 0, 0, 0, 0, 0, 0, 0, 0, 0, 0, 1, 0, 0, -1, 0, 0, 0, 1, 0, 0, -1, 0, 0, 0, 1, 0, 0, -1], "last_output": -0.04326595583964025, "learn_rate_possibility": null, "cummulated_output": 12.091715929058017}, {"w": [-0.07491096021836374, 0.17266787204623735, 0.49696123105841705, -0.6829645476820956, -0.09427455337884805, -0.9697984889503244, -0.6107916410944629, -0.5867787829340267, 0.7118487061231116, 0.18567698601919802, 0.6270227348918371, -0.5964578173882076, 0.07337512858846984, -0.5638515423133681, -0.5276322005022949, 0.7963327354995395, -0.7126303310190578, 0.8838336788499466, 0.7637968138415905, 0.047770304494273885, -0.4043063836892855, -0.666942847587082, 0.28557806181036005, -0.5659782825812352, 0.4029473000937849, -0.8591971041131037, -0.9974891713984884, -0.4970213793148921, 0.6300251984840133, -0.8091764430015271, -0.09100084314884316, -0.9388519024736379, 0.5871570831603774, 0.1779966818320622, 0.16880786669154513, 0.07552978085716289, 0.5151848178127296, 0.39563704760823737, 0.7592771201850119, 0.1401670816848246, -0.95116416704799, -0.6969914011282126, -0.6000713488574447], "pre_neurons": 42, "learn_rate": null, "last_input": [1, 0, 0, 0, 0, 0, 0, 0, 0, 0, 0, 0, 0, 0, 0, 0, 0, 0, 0, 0, 0, 0, 0, 0, 0, 1, 0, 0, -1, 0, 0, 0, 1, 0, 0, -1, 0, 0, 0, 1, 0, 0, -1], "last_output": -0.0066171583460372455, "learn_rate_possibility": null, "cummulated_output": 21.63156284945491}, {"w": [0.5289015010269569, -0.7653918297730005, 0.6915309031629844, 0.32871675893989605, 0.5695941195195287, 0.6651216790079504, -0.017503514135815967, -0.6281070122596311, 0.12541036665840166, -0.7418609603198745, 0.05907967213757326, -0.395577231679761, 0.4245781302737124, -0.3382554297952356, 0.8538965018982938, 0.4021450715359216, -0.4965277753523276, 0.43028534335163626, -0.7906192107337757, 0.5713918542458343, 0.07499757677620855, -0.0939422981630067, 0.8069452434653797, 0.6301466476028652, -0.9330127878132721, 0.8687701451486363, -0.7242003650334636, 0.6973865963831654, -0.6371044365850971, 0.38629365886726763, -0.4510634753318079, -0.37375384793390887, 0.08879438266493178, -0.320981332243925, -0.7517569472823933, -0.15964118295455965, -0.47575474652856964, 0.5391616740103873, 0.6120680214625112, 0.6398804260819111, 0.9177550939446733, 0.7148290646613384, -0.02164936036836962], "pre_neurons": 42, "learn_rate": null, "last_input": [1, 0, 0, 0, 0, 0, 0, 0, 0, 0, 0, 0, 0, 0, 0, 0, 0, 0, 0, 0, 0, 0, 0, 0, 0, 1, 0, 0, -1, 0, 0, 0, 1, 0, 0, -1, 0, 0, 0, 1, 0, 0, -1], "last_output": 0.06927566585114078, "learn_rate_possibility": null, "cummulated_output": 53.26343862796524}, {"w": [-0.6457581654368407, -0.7686131922789836, -0.9145108653600384, 0.35314140098966806, -0.39351527033670997, -0.5663733065569507, -0.33172834418648733, -0.3941847232659874, -0.23194719707994982, -0.04048461161698258, 0.6661505431802517, -0.8216659272881579, -0.26212723994906617, -0.47805023591504314, 0.31097205242548087, -0.5475657647887346, 0.10730865756109598, -0.879659396805119, 0.7791548185894901, -0.5589939170711344, -0.8228992158894162, 0.08603274788811399, 0.3572961113484572, -0.4326789854150719, 0.6211189777465635, -0.392474453108409, -0.10769513965144872, 0.8623923526265527, -0.679919358115272, 0.2940102413917114, -0.7962817922845791, 0.4283946555605067, -0.7487078039078425, -0.6158993612637198, -0.8659616341248695, 0.16696840527752888, 0.032045706380729566, -0.8252157295986959, -0.07080792970022043, 0.9053472493491905, 0.33374094212933114, -0.3206264906616709, 0.06897267367738413], "pre_neurons": 42, "learn_rate": null, "last_input": [1, 0, 0, 0, 0, 0, 0, 0, 0, 0, 0, 0, 0, 0, 0, 0, 0, 0, 0, 0, 0, 0, 0, 0, 0, 1, 0, 0, -1, 0, 0, 0, 1, 0, 0, -1, 0, 0, 0, 1, 0, 0, -1], "last_output": -0.010567026831098364, "learn_rate_possibility": null, "cummulated_output": 13.017035273386933}, {"w": [-0.27069692297871284, -0.0769715497593011, 0.40441792080828476, 0.1029537942248413, 0.44190265747264834, 0.5287952975376833, -0.5642845052530525, -0.15178861695456214, 0.6194229769208213, 0.7565537881680879, 0.2248551191822883, -0.426255896437695, -0.7567756271088171, -0.1863098239156631, 0.2829722495894218, 0.3146915792225491, -0.7976089823876149, -0.6912723383520454, 0.800137495296817, -0.08215803667875199, 0.425219456863684, -0.10966004975552823, -0.11575113433116391, -0.1970170002004974, -0.17748119302330134, -0.5029538797678375, -0.1656248720305198, 0.03627867079755265, 0.8578832112627417, -0.9179758033229977, 0.5596856823386469, -0.6273087845299263, -0.3271602138578158, -0.056818461121501906, 0.27362918706890316, -0.44955598463026547, -0.16307303475606294, 0.7599409324055046, -0.4769069420825176, 0.6052355032179084, -0.0404410430648392, -0.445326877445855, 0.09815475930544659], "pre_neurons": 42, "learn_rate": null, "last_input": [1, 0, 0, 0, 0, 0, 0, 0, 0, 0, 0, 0, 0, 0, 0, 0, 0, 0, 0, 0, 0, 0, 0, 0, 0, 1, 0, 0, -1, 0, 0, 0, 1, 0, 0, -1, 0, 0, 0, 1, 0, 0, -1], "last_output": -0.023106729515575773, "learn_rate_possibility": null, "cummulated_output": 16.03508592537248}, {"w": [-0.3055418103644849, 0.6505198120383204, 0.04376010685578513, -0.7318664425354695, 0.578646453356038, 0.023197030465218482, 0.33517677368908494, -0.3531711782679292, -0.6847323754748005, 0.4768265667990963, 0.42708938677861075, 0.9872209031168098, -0.5089326255644768, -0.22863493174618754, -0.491604532194841, 0.5434776113168973, 0.13516861169651295, 0.32613879228913056, -0.14513320192370682, 0.4967428076187408, -0.09725724461101293, -0.6439599658993589, -0.10068822056162241, 0.6693860503841913, 0.2498440112156488, -0.07355936274122077, 0.3635064593361521, 0.4407992814171404, -0.267899420391001, -0.14536438525409756, 0.6130441090932075, 0.34445731377856603, 0.43600927895926556, -0.06576579457090492, 0.2112095395088338, -0.5644649211575654, 0.6959319158539938, 0.2500082374796475, -0.7435259138777743, -0.04247705330517104, 0.7736286438147435, 0.5030723593230231, 0.39628039714642926], "pre_neurons": 42, "learn_rate": null, "last_input": [1, 0, 0, 0, 0, 0, 0, 0, 0, 0, 0, 0, 0, 0, 0, 0, 0, 0, 0, 0, 0, 0, 0, 0, 0, 1, 0, 0, -1, 0, 0, 0, 1, 0, 0, -1, 0, 0, 0, 1, 0, 0, -1], "last_output": 0.010606182191895923, "learn_rate_possibility": null, "cummulated_output": 4.990076168672751}, {"w": [0.07060319579680296, 0.3844538909388513, 0.8260700187661449, -0.795381702557683, -0.957639986538557, -0.7213452212695353, 0.8198762849548535, 0.9185955560089452, -5.8656560860681495e-05, -0.02268214844322336, -0.14321412705137804, 0.3129814118264844, 0.0926400371781455, 0.4934586641009895, 0.211939114464067, -0.323339596979634, -0.8248217773996929, -0.944802353868162, 0.4503396441615539, -0.16582627758228763, -0.028935415597924008, 0.11841581462204775, -0.11331497256112644, 0.32206808469731163, 0.0498185196300065, 0.3169016493136021, -0.8914319928043082, 0.17712754541426556, 0.7662444218203142, -0.7186121443067308, -0.22089336250120328, -0.009867364501096487, 0.18453325111457275, 0.36551244698864593, -0.07073305976410205, 0.858943500337646, 0.5531584146342063, 0.8641335218037622, 0.5224057195324803, -0.5676821569315544, -0.4664066468028638, -0.611740749165848, 0.4137801951365645], "pre_neurons": 42, "learn_rate": null, "last_input": [1, 0, 0, 0, 0, 0, 0, 0, 0, 0, 0, 0, 0, 0, 0, 0, 0, 0, 0, 0, 0, 0, 0, 0, 0, 1, 0, 0, -1, 0, 0, 0, 1, 0, 0, -1, 0, 0, 0, 1, 0, 0, -1], "last_output": -0.048185346528542936, "learn_rate_possibility": null, "cummulated_output": 25.399891885716894}, {"w": [-0.576480180219997, -0.39967627780740367, 0.7855724275322786, -0.9594229285900429, 0.026308962764272525, 0.6148923660597776, 0.3279427896156857, 0.6792601953207118, -0.04012840064017986, 0.8909805399961022, 0.0797517763563178, 0.3047793853289684, 0.5640925564637846, -0.05923310304469975, 0.6618348109567294, -0.9637625511266352, 0.08734902936422584, -0.35862875359853086, -0.8651879752748339, -0.3646039988966179, 0.638725868714755, -0.6569458140241391, 0.24291563098255553, 0.3982814074273864, 0.5058062422736829, -0.6050238052366164, -0.505911212230991, 0.1844893056399739, -0.0005392811403139852, -0.894269716589768, 0.5766603597062046, -0.11176798599228577, 0.7221092605694495, -0.3639717534158744, 0.04131276882106616, 0.4797674862398522, -0.40967926902593277, 0.8697034024542034, -0.7714681024354395, 0.8615259988590491, -0.7382112164322143, 0.4555179261597464, -0.9066265211696487], "pre_neurons": 42, "learn_rate": null, "last_input": [1, 0, 0, 0, 0, 0, 0, 0, 0, 0, 0, 0, 0, 0, 0, 0, 0, 0, 0, 0, 0, 0, 0, 0, 0, 1, 0, 0, -1, 0, 0, 0, 1, 0, 0, -1, 0, 0, 0, 1, 0, 0, -1], "last_output": 0.020081749549441513, "learn_rate_possibility": null, "cummulated_output": 26.051697498697163}, {"w": [0.5837359623981189, -0.2394849805291719, -0.5229632174472503, -0.19312736593655, -0.2951049365304579, -0.361888359720971, 0.06363470661698112, 0.2693547942640009, -0.22288746374889734, 0.8379770846657446, 0.8144113277405682, -0.6622190541310871, -0.4329799330048789, 0.13619288767560245, -0.8602858014708268, -0.7918237597037077, 0.16016127495112542, 0.36696534803319114, 0.9511141336336921, -0.1383204364563726, 0.3481339212801089, 0.24800324198384538, 0.9102507759492766, 0.48235128156346163, 0.11696666878136885, 0.8992201264653996, -0.6033491886133064, -0.26770797902576504, -0.9217755225536202, -0.3450101581962559, -0.2246981013436955, -0.8021034826323208, -0.9312192390621774, -0.6857219455234691, -0.48780213343266987, 0.8271438557499389, 0.9082305946471523, -0.5161400935343883, 0.7466180927257413, -0.8972550713612921, -0.1720563362238574, 0.9003538105086817, -0.3340592096230759], "pre_neurons": 42, "learn_rate": null, "last_input": [1, 0, 0, 0, 0, 0, 0, 0, 0, 0, 0, 0, 0, 0, 0, 0, 0, 0, 0, 0, 0, 0, 0, 0, 0, 1, 0, 0, -1, 0, 0, 0, 1, 0, 0, -1, 0, 0, 0, 1, 0, 0, -1], "last_output": 0.000994818860327913, "learn_rate_possibility": null, "cummulated_output": 48.06364692329819}, {"w": [0.9156054595088843, 0.5160645222838607, -0.632621296963805, 0.5787242756368223, 0.873538055339641, 0.5672891497986148, 0.3860726714839564, -0.47692611725554146, 0.8099292681744434, -0.5596961553120208, -0.6549042155514859, 0.6155565551910194, 0.6345362411643187, 0.1173651674273486, -0.8510433507964665, 0.8830378374564392, 0.8681856500647762, 0.5095200426571158, 0.802117613851423, -0.3599842951496033, -0.40426404885932077, 0.17689738482004924, 0.9578472376800549, -0.18215414900697158, 0.15261648609253742, -0.6060198604148781, 0.4649649592252203, -0.9461409300199779, 0.21491865891690765, 0.6481331831939388, -0.2927081314210236, -0.27287320578718455, -0.022403347213191704, -0.7885547228348151, -0.7564644296403127, 0.992565928600152, 0.11760733414015734, -0.009677823119480067, 0.28615001692101094, -0.6065200979062622, -0.6582940417397198, -0.827403191443582, -0.6562272546571128], "pre_neurons": 42, "learn_rate": null, "last_input": [1, 0, 0, 0, 0, 0, 0, 0, 0, 0, 0, 0, 0, 0, 0, 0, 0, 0, 0, 0, 0, 0, 0, 0, 0, 1, 0, 0, -1, 0, 0, 0, 1, 0, 0, -1, 0, 0, 0, 1, 0, 0, -1], "last_output": -0.020260831869448603, "learn_rate_possibility": null, "cummulated_output": 31.13909401443122}, {"w": [-0.27217847754093105, 0.5909770033561765, 0.3002191513612056, 0.33206908853045536, -0.7243349793290523, 0.9958693344247749, 0.3688518427814458, 0.34727181967525844, 0.8859116738009267, 0.498263465151805, -0.8541473673939066, 0.5448117304819007, 0.768094214657361, -0.40036099671124825, -0.4920136113285025, -0.4562356605723812, -0.538673421171012, 0.21666657687700153, -0.478495416037543, -0.25352558598472474, 0.33148396833560034, 0.7275787013065806, 0.17380759877779517, 0.5331176633699848, 0.8379880688891661, 0.08818224845132772, -0.4574435660527363, -0.42571504341872246, -0.5899740099731017, 0.5401159421036645, 0.8237451605912252, -0.32733656216206386, 0.3415025380303405, -0.63432768000999, 0.7992061996047874, 0.5818546366495254, -0.7246559977754425, -0.024523261203538205, -0.619861825116669, 0.616098551486916, 0.6008272793327833, -0.5943898626061512, 0.8048346280040926], "pre_neurons": 42, "learn_rate": null, "last_input": [1, 0, 0, 0, 0, 0, 0, 0, 0, 0, 0, 0, 0, 0, 0, 0, 0, 0, 0, 0, 0, 0, 0, 0, 0, 1, 0, 0, -1, 0, 0, 0, 1, 0, 0, -1, 0, 0, 0, 1, 0, 0, -1], "last_output": -0.0009225987294230858, "learn_rate_possibility": null, "cummulated_output": 27.330932123483386}, {"w": [-0.9607510902628127, 0.5127795181299832, -0.7203933842413548, 0.5540571567356094, -0.4021044373570193, -0.4048949679368439, 0.45448479752357973, 0.8558555884944676, 0.21592016432749972, -5.732109353706605e-05, -0.7004548758285949, 0.8072931950940447, 0.8418572187645683, 0.16139475884452725, 0.9727219028550598, -0.5333759949848456, 0.7939276613424973, -0.7150360521609644, -0.7122283656561867, -0.09344458518804033, 0.8661508811280649, -0.4159248073199644, 0.31374935386090574, 0.3180170827198323, 0.19664401336871218, 0.6517193557330756, 0.7111065463994655, -0.8325814333462789, 0.9030339494499848, 0.13120089177937233, 0.10330264525728938, -0.19941713486345058, -0.8797583786169898, 0.33388198373772826, -0.3384683021578001, 0.17798156195914827, 0.7872575017750405, -0.835577512282371, 0.5937751114152008, 0.20109494969807518, -0.2847778916966397, 0.7759338248355641, -0.45009339899851475], "pre_neurons": 42, "learn_rate": null, "last_input": [1, 0, 0, 0, 0, 0, 0, 0, 0, 0, 0, 0, 0, 0, 0, 0, 0, 0, 0, 0, 0, 0, 0, 0, 0, 1, 0, 0, -1, 0, 0, 0, 1, 0, 0, -1, 0, 0, 0, 1, 0, 0, -1], "last_output": -0.03838591688774237, "learn_rate_possibility": null, "cummulated_output": 47.16461344328088}, {"w": [0.2332646231363087, -0.8221735966963808, 0.5180349370419588, -0.40423408313358156, 0.36367988155413244, 0.08153233174557051, -0.41795229030307834, 0.21704717714990318, 0.9600495956351782, 0.7988860339584851, -0.2078253524076421, 0.9251632605888558, -0.31947341835551035, 0.18871354151551678, -0.3774864981002921, -0.053034075266051195, -0.2415802670518017, -0.047712445825348615, 0.0048687492527592635, 0.8326430944723984, 0.4550359073793353, 0.19276408633584108, 0.14233337345826724, -0.07050850316818558, 0.24387706866484193, 0.7008493311183059, 0.9522533633849086, 0.8220654182530622, -0.7322711291172666, -0.687330230146131, 0.89139463654759, 0.5278904081864684, 0.09665927528400098, -0.8315570414275277, 0.39518977764259255, 0.9037943510121702, -0.7781979901977749, 0.21183273766917465, 0.6545769126970657, 0.4029376694692355, -0.9924456045145167, 0.4788564350315405, 0.4011995691383041], "pre_neurons": 42, "learn_rate": null, "last_input": [1, 0, 0, 0, 0, 0, 0, 0, 0, 0, 0, 0, 0, 0, 0, 0, 0, 0, 0, 0, 0, 0, 0, 0, 0, 1, 0, 0, -1, 0, 0, 0, 1, 0, 0, -1, 0, 0, 0, 1, 0, 0, -1], "last_output": 0.019716577510896924, "learn_rate_possibility": null, "cummulated_output": 49.60709375584321}, {"w": [0.2963023961628024, 0.898674441891451, -0.1605407255775686, -0.028117409338004995, -0.36195084476284256, 0.9482142550786092, 0.24634588270909563, -0.022278295490055555, 0.30951478368625507, 0.2186997015576284, 0.12571747327333882, 0.0007549543241207601, -0.9444733258907672, 0.29170098622076845, 0.35325665179232524, -0.7219711348495466, 0.6775166401959427, 0.588200601874938, 0.7535115548361562, 0.7441683965934835, -0.023935251925028433, -0.9412352178636689, 0.7837355605265077, -0.8324901577096888, 0.6928824558782083, 0.8455561675959511, -0.5913996895483782, 0.05031863009351345, -0.7395886666932676, -0.6076329064931238, 0.3483486195284755, -0.6464822037509752, 0.6346041606958124, 0.40015792167868125, 0.5999059621895, 0.011694069647775196, -0.9763281501581544, -0.07361142865023984, 0.5799739048619981, 0.025770941221902266, -0.8988450159109547, 0.5804374714789298, 0.07917786312146924], "pre_neurons": 42, "learn_rate": null, "last_input": [1, 0, 0, 0, 0, 0, 0, 0, 0, 0, 0, 0, 0, 0, 0, 0, 0, 0, 0, 0, 0, 0, 0, 0, 0, 1, 0, 0, -1, 0, 0, 0, 1, 0, 0, -1, 0, 0, 0, 1, 0, 0, -1], "last_output": 0.05747023748056609, "learn_rate_possibility": null, "cummulated_output": 25.831230201894876}, {"w": [-0.7910777634166626, -0.3170392036704963, -0.5638045930963507, -0.17840125790595462, -0.5848464919218226, 0.9465098985063245, 0.046604671180986434, 0.0764041429746174, -0.9063968546655372, -0.4985555747818884, 0.7012840156646096, -0.5920191044506296, 0.9196015147682632, 0.46026225271568144, -0.018465760874839088, -0.25670198066383554, 0.6753712560740956, 0.6229370159836747, 0.2698406053535991, -0.6161784239602766, -0.8426238796845911, 0.6087498692250368, -0.8911769239328753, -0.2161532886261457, -0.6389075070492956, 0.2514935117738504, 0.13189470572280437, -0.02392151929715758, -0.6311525978754349, -0.547075721959849, -0.6040333207856283, -0.7836659495897147, 0.04845486749445227, 0.548665405251759, 0.9474330233792998, -0.08891341506669925, -0.18591104745333964, -0.5238178152203945, -0.7406379610974438, -0.08452972804277326, 0.04012250379249371, 0.4508225394530363, 0.43497127851812145], "pre_neurons": 42, "learn_rate": null, "last_input": [1, 0, 0, 0, 0, 0, 0, 0, 0, 0, 0, 0, 0, 0, 0, 0, 0, 0, 0, 0, 0, 0, 0, 0, 0, 1, 0, 0, -1, 0, 0, 0, 1, 0, 0, -1, 0, 0, 0, 1, 0, 0, -1], "last_output": -0.007408544260804183, "learn_rate_possibility": null, "cummulated_output": 2.147915035093304}, {"w": [0.8527143640721762, 0.45532335831719983, -0.7448710130604885, 0.22511554154888702, 0.8141743900052356, 0.6888754260009324, -0.3177943202540976, 0.6280460181817196, 0.9076856862199711, 0.8126027037144943, -0.12572286767217444, 0.17170307102359583, 0.5840543207306488, -0.4393530530826306, 0.931893568582647, 0.38741466630882204, 0.9171076994944305, 0.9231941621096209, -0.8946011196525598, 0.02805342524257215, 0.01623043757236009, 0.055741283331400826, -0.6426033774265751, 0.10792494288283372, 0.8317811812584963, -0.3466714357077545, 0.33886337437724734, 0.7196739707014876, -0.8209699948803646, 0.3610552549254822, 0.15539615325976874, -0.7927800070270319, 0.08867743539822959, -0.2809633226528261, 0.1778845110212932, -0.7822511961122791, 0.3358727269442716, -0.5522366919422419, 0.05885439439703255, -0.32098545441536275, -0.5811486948302269, 0.0806181915092945, -0.571764577535149], "pre_neurons": 42, "learn_rate": null, "last_input": [1, 0, 0, 0, 0, 0, 0, 0, 0, 0, 0, 0, 0, 0, 0, 0, 0, 0, 0, 0, 0, 0, 0, 0, 0, 1, 0, 0, -1, 0, 0, 0, 1, 0, 0, -1, 0, 0, 0, 1, 0, 0, -1], "last_output": 0.05802894609139826, "learn_rate_possibility": null, "cummulated_output": 29.030939096036196}, {"w": [0.08478629189962872, 0.40896063971157903, 0.46759236086488176, -0.7085368886992072, 0.20459455660784065, 0.8786965869565786, 0.09763163158520616, -0.339822629658739, 0.8904806601900488, -0.8313523618510925, -0.4074342023103674, 0.14974149657858393, -0.655538195999996, 0.5060568210302643, 0.06634227128301595, 0.10063961993010584, 0.2609747160882192, -0.6343371881461737, -0.7335896938416824, 0.33168936335621346, 0.008054600686071556, -0.5362142645985515, 0.3797275912254372, 0.4816175127968805, -0.8378571534420103, -0.9530724495114868, -0.46921098811935535, -0.835433127592655, 0.7183804631149222, -0.46512144249292064, -0.8512231122101062, 0.39785272420473716, -0.3739058667920361, -0.018726993257048852, 0.30618070382700213, 0.7838827606162699, -0.48105618812667594, 0.8160918984657939, -0.6790386472388628, 0.26563089404682794, 0.9652644956785674, 0.4888190056831274, 0.21239977624613582], "pre_neurons": 42, "learn_rate": null, "last_input": [1, 0, 0, 0, 0, 0, 0, 0, 0, 0, 0, 0, 0, 0, 0, 0, 0, 0, 0, 0, 0, 0, 0, 0, 0, 1, 0, 0, -1, 0, 0, 0, 1, 0, 0, -1, 0, 0, 0, 1, 0, 0, -1], "last_output": -0.06313635966716899, "learn_rate_possibility": null, "cummulated_output": 24.065646655827237}, {"w": [-0.36770471564621854, -0.5850080844332184, 0.42034798465542633, -0.7484830740943595, -0.6125492154563246, -0.4428910572309066, 0.9570752981076125, -0.6605912296977576, -0.04693609492913797, -0.9089277127816218, 0.26644708349422275, 0.9704731411338154, 0.19133220162921605, 0.878732758289348, 0.45886751204078835, 0.13844245465778227, -0.4414988918118907, 0.6815137963494449, 0.24666925012819751, -0.9292003859783864, 0.48408820197377667, -0.014619601572806618, -0.9112258154730228, -0.6181019406027988, 0.3573125929482006, -0.6897846789887434, -0.9170508947832048, 0.3629736620088342, -0.9903266450996957, 0.8563869403187163, 0.10910958635325985, -0.008174201820345228, 0.008300174298392582, -0.7732805638498068, 0.5834349166798036, 0.2735165658682672, -0.9779441386125478, 0.7709787655305196, 0.6255154218084775, 0.16104798128581432, -0.9399335773928479, -0.8623485083238702, -0.0909025330260591], "pre_neurons": 42, "learn_rate": null, "last_input": [1, 0, 0, 0, 0, 0, 0, 0, 0, 0, 0, 0, 0, 0, 0, 0, 0, 0, 0, 0, 0, 0, 0, 0, 0, 1, 0, 0, -1, 0, 0, 0, 1, 0, 0, -1, 0, 0, 0, 1, 0, 0, -1], "last_output": -0.0020780472627679766, "learn_rate_possibility": null, "cummulated_output": 10.943766150682553}, {"w": [0.8857757133375235, 0.45962322546121204, -0.024531467047500755, 0.36655439373012344, -0.9415011133782538, -0.922220941025532, -0.99360665804307, 0.6747340205731374, 0.2446204865262711, -0.31542539594253194, -0.825787506419789, 0.5599617567184161, -0.6566131866194029, 0.010066311935146066, 0.378265990836536, -0.5622275008997233, 0.6985806885425672, -0.48541468896040607, -0.8958368253491302, -0.7074112383497555, -0.1845316875628482, 0.5381840213829774, 0.6969495164754809, -0.30591914214473537, -0.8646148705078069, 0.0245726496505152, -0.6215954046965793, 0.25492529957479015, -0.5598561420438695, 0.04289984551756465, 0.047056090221780034, 0.011527056175045347, -0.46605702536035687, -0.3612086390791591, 0.9220760409844166, -0.7496062275300588, 0.33332497012727935, 0.6595087417628336, -0.7162847855644605, -0.29799334457427995, 0.0953291886316816, -0.8696980471834881, 0.15002653532607302], "pre_neurons": 42, "learn_rate": null, "last_input": [1, 0, 0, 0, 0, 0, 0, 0, 0, 0, 0, 0, 0, 0, 0, 0, 0, 0, 0, 0, 0, 0, 0, 0, 0, 1, 0, 0, -1, 0, 0, 0, 1, 0, 0, -1, 0, 0, 0, 1, 0, 0, -1], "last_output": 0.030761776841396783, "learn_rate_possibility": null, "cummulated_output": 76.39337989113498}]}, {"number_of_pre_neurons": 30, "neurons": [{"w": [0.03729155312695598, -0.33463271131837247, -0.4794548233349538, 0.7314143269814346, 0.48138518956146603, 0.12728083596619078, -0.7705778135621735, -0.10056870687070107, -0.06424082300254152, -0.7179678985706537, -0.26250957089589777, 0.43799832819395057, -0.48181207232034384, 0.36985901388053, 0.24896652624208349, 0.29111379122623204, -0.8297512770821651, -0.9886442878692048, -0.7890730388187062, -0.7357477524311715, 0.14463946973215536, -0.6406520076006152, -0.13646552781060328, -0.5610417434942299, -0.16349292281996353, -0.5581470320085389, -0.5261162851592442, 0.09931508572540926, 0.2710880079031075, -0.6479801232037985, 0.4376455044406171], "pre_neurons": 30, "learn_rate": null, "last_input": [1, 0, 0, 0.01981465776235838, 0.024648796090400715, 0, 0.02116086454040083, 0.012905071827813863, 0, 0, 0, 0, 0, 0, 0.06927566585114078, 0, 0, 0.010606182191895923, 0, 0.020081749549441513, 0.000994818860327913, 0, 0, 0, 0.019716577510896924, 0.05747023748056609, 0, 0.05802894609139826, 0, 0, 0.030761776841396783], "last_output": 0.0007679059053412678, "learn_rate_possibility": null, "cummulated_output": 1.5860009867835292}, {"w": [0.6395137996888052, 0.9363047677742413, -0.19876248573644428, -0.29315970654561974, -0.06877675999286681, -0.7419440598717286, 0.4325990431201152, -0.9838431982853115, 0.9973847275997141, 0.4789902476807233, 0.603929875597633, -0.3813786599670179, 0.21707328591768427, 0.5204858607135365, -0.030098652355243338, -0.5806235007238332, -0.30199603439934797, 0.637420330190988, 0.2855136785352226, -0.5566407110266387, -0.02970958610824992, 0.326605111575919, -0.19352061210560434, -0.19365767573882708, 0.3459190723423202, 0.4480873281456508, -0.6359861296897462, -0.4995075926586221, 0.9312299260891699, 0.12991649530281535, 0.6080610469381125], "pre_neurons": 30, "learn_rate": null, "last_input": [1, 0, 0, 0.01981465776235838, 0.024648796090400715, 0, 0.02116086454040083, 0.012905071827813863, 0, 0, 0, 0, 0, 0, 0.06927566585114078, 0, 0, 0.010606182191895923, 0, 0.020081749549441513, 0.000994818860327913, 0, 0, 0, 0.019716577510896924, 0.05747023748056609, 0, 0.05802894609139826, 0, 0, 0.030761776841396783], "last_output": 0.021440412884924966, "learn_rate_possibility": null, "cummulated_output": 39.42595290456624}, {"w": [-0.33087030766085124, -0.873360632606496, 0.9372005946396547, 0.4723061363391259, -0.5935578748664649, -0.9915365915222782, 0.06200977935443541, 0.4117939318907178, 0.9299977582648291, -0.031821542176874384, -0.6037654732901638, -0.41480642933609757, -0.8869939100077906, 0.051036878200103164, 0.8610608854075192, -0.7860688611524314, 0.5971716506232743, 0.15045671522497273, 0.6748860183563072, -0.3709808090790516, -0.9864420940147829, -0.6935962582797031, 0.2782269621830975, 0.3737873818388733, -0.32478053452230293, 0.010465158827445808, 0.6805686906191746, -0.17376629339972793, -0.0031809126801130017, -0.5443791589022791, -0.36756060941965907], "pre_neurons": 30, "learn_rate": null, "last_input": [1, 0, 0, 0.01981465776235838, 0.024648796090400715, 0, 0.02116086454040083, 0.012905071827813863, 0, 0, 0, 0, 0, 0, 0.06927566585114078, 0, 0, 0.010606182191895923, 0, 0.020081749549441513, 0.000994818860327913, 0, 0, 0, 0.019716577510896924, 0.05747023748056609, 0, 0.05802894609139826, 0, 0, 0.030761776841396783], "last_output": -0.010127776804139397, "learn_rate_possibility": null, "cummulated_output": 0}, {"w": [0.08128111538618787, 0.2406000361921743, -0.1960260402999503, -0.5450379716918909, 0.8697162942379126, 0.08034824328532086, -0.5786424942719457, 0.09369503149339775, -0.6597659906952298, 0.12061076921120573, -0.9453026384864931, -0.21052111600579648, 0.9506399297175572, 0.7883578916518417, -0.6109310075768064, -0.5996045978784561, -0.13659720011943066, -0.26307721775261794, 0.9967079933366181, -0.8789534304705211, -0.006920411941174098, 0.514045198117713, 0.6584663469702134, 0.2804030736917451, 0.053058157548463436, 0.547779157162495, 0.21833740504067078, -0.32968573540953394, -0.560192358040535, 0.42221784677296137, -0.9860644771424736], "pre_neurons": 30, "learn_rate": null, "last_input": [1, 0, 0, 0.01981465776235838, 0.024648796090400715, 0, 0.02116086454040083, 0.012905071827813863, 0, 0, 0, 0, 0, 0, 0.06927566585114078, 0, 0, 0.010606182191895923, 0, 0.020081749549441513, 0.000994818860327913, 0, 0, 0, 0.019716577510896924, 0.05747023748056609, 0, 0.05802894609139826, 0, 0, 0.030761776841396783], "last_output": 4.555334641962331e-05, "learn_rate_possibility": null, "cummulated_output": 2.767840917369184}, {"w": [0.004617557055365928, -0.26721314136359164, -0.8163929424671357, 0.07819041116434189, -0.949294717144431, 0.5356210936610792, 0.6016571327099121, -0.29140307166787593, -0.5247579297948839, -0.9889235264021361, -0.0966149927536315, -0.6423991756279392, 0.7735461280755354, 0.6479255477921306, -0.46668157983891345, 0.3150959616735516, 0.03413211913224923, 0.3820972493232089, 0.31695818670140263, 0.543427732788826, -0.5400859386901211, -0.9038966960263197, -0.9195615425179329, 0.32499358595868744, -0.3775336231038515, 0.2512502754260202, -0.14998087130822313, 0.2562737624495255, 0.5143075479372634, 0.45432065730989346, -0.8479086605019752], "pre_neurons": 30, "learn_rate": null, "last_input": [1, 0, 0, 0.01981465776235838, 0.024648796090400715, 0, 0.02116086454040083, 0.012905071827813863, 0, 0, 0, 0, 0, 0, 0.06927566585114078, 0, 0, 0.010606182191895923, 0, 0.020081749549441513, 0.000994818860327913, 0, 0, 0, 0.019716577510896924, 0.05747023748056609, 0, 0.05802894609139826, 0, 0, 0.030761776841396783], "last_output": -0.0009530483748021551, "learn_rate_possibility": null, "cummulated_output": 0.16606587629385766}, {"w": [-0.8387612844763972, -0.7035416651282826, -0.9076168022148918, 0.14876087173394303, 0.2909906859759144, 0.6683577475856866, -0.5054715036367623, -0.0841552472124647, 0.03423782607026049, 0.38418990399029895, -0.5878254154970612, -0.9748712195691986, -0.3449821210928641, -0.2374534658676608, 0.4997391159769522, -0.5083997371294575, -0.5740476124967853, 0.8401119558990096, -0.9544152173849558, 0.12442572687069231, -0.23410045322660356, 0.45820867444777, -0.6125770965045503, -0.8495687774763534, 0.6549540936678651, -0.9911707050233849, -0.21700613562009452, 0.6762944080611812, 0.6791956170555147, -0.615963910233231, 0.6047550876684433], "pre_neurons": 30, "learn_rate": null, "last_input": [1, 0, 0, 0.01981465776235838, 0.024648796090400715, 0, 0.02116086454040083, 0.012905071827813863, 0, 0, 0, 0, 0, 0, 0.06927566585114078, 0, 0, 0.010606182191895923, 0, 0.020081749549441513, 0.000994818860327913, 0, 0, 0, 0.019716577510896924, 0.05747023748056609, 0, 0.05802894609139826, 0, 0, 0.030761776841396783], "last_output": -0.026046969775833914, "learn_rate_possibility": null, "cummulated_output": 0}, {"w": [0.32561167911443567, 0.7970535271615646, -0.0776139483105116, 0.018722456433895918, 0.35807926939815515, 0.2629562763614628, -0.8255642460389294, 0.4778424697010415, 0.9481927516639566, 0.18419970332063862, 0.82202458062388, -0.3045454364449731, -0.25119417140619094, 0.8592219741321012, 0.7808866874523877, -0.3770411255606336, -0.5252355062820946, 0.8899891982238401, -0.3124568695043095, 0.8367745645945088, -0.8481472046745899, 0.4619072192842153, -0.07573542298770608, 0.25271629894176284, 0.171074052989326, 0.7151741003162992, -0.019578218433175865, 0.4658938259373222, -0.8277695454903748, 0.7638500763877651, -0.6196858358659678], "pre_neurons": 30, "learn_rate": null, "last_input": [1, 0, 0, 0.01981465776235838, 0.024648796090400715, 0, 0.02116086454040083, 0.012905071827813863, 0, 0, 0, 0, 0, 0, 0.06927566585114078, 0, 0, 0.010606182191895923, 0, 0.020081749549441513, 0.000994818860327913, 0, 0, 0, 0.019716577510896924, 0.05747023748056609, 0, 0.05802894609139826, 0, 0, 0.030761776841396783], "last_output": 0.015152760055580522, "learn_rate_possibility": null, "cummulated_output": 21.380827835845043}, {"w": [0.21150186862870446, 0.062323461409322434, 0.8607551957956532, 0.9353337345759445, 0.36876210760730777, -0.6039019529070229, 0.8119911013537462, 0.5885688965225091, 0.010656608620918773, 0.3556560801490143, 0.24297880768845093, 0.6058625365283974, -0.8317922062299492, -0.21022847954022517, -0.5087503710911991, 0.2672749447126004, -0.2248995304922654, -0.1632555912917184, -0.13664025606693198, -0.15420047829798822, -0.6336867245425499, 0.8042110431013156, 0.2874029626320409, 0.3798598431229996, -0.6745330015749651, 0.9447805055575331, 0.6174582120517291, -0.7777800902223599, -0.22699797400158173, 0.6144833465119444, 0.7115356566719637], "pre_neurons": 30, "learn_rate": null, "last_input": [1, 0, 0, 0.01981465776235838, 0.024648796090400715, 0, 0.02116086454040083, 0.012905071827813863, 0, 0, 0, 0, 0, 0, 0.06927566585114078, 0, 0, 0.010606182191895923, 0, 0.020081749549441513, 0.000994818860327913, 0, 0, 0, 0.019716577510896924, 0.05747023748056609, 0, 0.05802894609139826, 0, 0, 0.030761776841396783], "last_output": 0.008034862046998452, "learn_rate_possibility": null, "cummulated_output": 15.918843094842055}, {"w": [-0.5713447520457979, -0.6813386143168632, 0.09026665046463789, 0.7107869145548966, -0.39178122671664206, -0.7729630197690049, 0.5021972520331051, -0.8186273198759244, -0.3188498529959969, -0.9304665514583641, -0.39343317721526394, 0.7508020543723806, -0.8439900280778296, 0.10926759948233289, -0.6861001963621887, -0.43001931314295216, -0.9656020740315865, -0.7113992364851953, -0.539238997717504, -0.7829114052240869, 0.6367969572048613, -0.04818333604694702, 0.8367774585917749, -0.43223083592303047, -0.15159039704125776, 0.44838021682927565, 0.2946046616256641, -0.8663389666863304, -0.3032175667883199, 0.4955150919177962, -0.07760348675201212], "pre_neurons": 30, "learn_rate": null, "last_input": [1, 0, 0, 0.01981465776235838, 0.024648796090400715, 0, 0.02116086454040083, 0.012905071827813863, 0, 0, 0, 0, 0, 0, 0.06927566585114078, 0, 0, 0.010606182191895923, 0, 0.020081749549441513, 0.000994818860327913, 0, 0, 0, 0.019716577510896924, 0.05747023748056609, 0, 0.05802894609139826, 0, 0, 0.030761776841396783], "last_output": -0.022193213468148915, "learn_rate_possibility": null, "cummulated_output": 0}, {"w": [0.7396436563039619, 0.8556437551935234, -0.00983624282508333, -0.22978341055463614, -0.40941973742388615, -0.03915027515753633, 0.9627836456411019, -0.14575817504432687, 0.07784396521658965, -0.20735623558393623, -0.7269120767212705, 0.9536760582637056, -0.9328263611349716, 0.7205859229750902, -0.9837948839228661, 0.14594002921300198, -0.7935322469687898, 0.7521320222974033, -0.3401883585281704, -0.8977879851637272, 0.8868828569714355, -0.2928489213862895, 0.1304449799794718, 0.2670918634358552, 0.04608989140107944, -0.4600003793627001, -0.4519334339222263, -0.5682756749526403, 0.77220186305973, 0.5062659133821055, 0.785787956008593], "pre_neurons": 30, "learn_rate": null, "last_input": [1, 0, 0, 0.01981465776235838, 0.024648796090400715, 0, 0.02116086454040083, 0.012905071827813863, 0, 0, 0, 0, 0, 0, 0.06927566585114078, 0, 0, 0.010606182191895923, 0, 0.020081749549441513, 0.000994818860327913, 0, 0, 0, 0.019716577510896924, 0.05747023748056609, 0, 0.05802894609139826, 0, 0, 0.030761776841396783], "last_output": 0.021097670015093946, "learn_rate_possibility": null, "cummulated_output": 43.331357082497924}, {"w": [-0.4062974564806403, 0.07632414226838646, -0.5057368253846248, 0.05308932728686644, 0.02329155596456567, 0.5127616146330944, -0.08144642838038618, 0.0316346849558633, 0.47818586419245146, -0.4721139778560468, 0.3493430861589233, -0.15097516744214, -0.8801133270403074, -0.3115876093319392, 0.8658043723243252, -0.09986248936612707, -0.6277000346003854, 0.33183529843338877, 0.8428586508278249, -0.7085691353173595, 0.7656102812512067, 0.7525456485897004, 0.9586713114555352, -0.26560388648035005, -0.5643430658546149, 0.3098288725494467, -0.19286134620103446, 0.7906046001384084, -0.06576042153548034, -0.37146424838717906, -0.2989501118545028], "pre_neurons": 30, "learn_rate": null, "last_input": [1, 0, 0, 0.01981465776235838, 0.024648796090400715, 0, 0.02116086454040083, 0.012905071827813863, 0, 0, 0, 0, 0, 0, 0.06927566585114078, 0, 0, 0.010606182191895923, 0, 0.020081749549441513, 0.000994818860327913, 0, 0, 0, 0.019716577510896924, 0.05747023748056609, 0, 0.05802894609139826, 0, 0, 0.030761776841396783], "last_output": -0.010484617389131144, "learn_rate_possibility": null, "cummulated_output": 0}, {"w": [0.9041271153711552, -0.2674573175610926, -0.6699440867353856, 0.3358523801952831, -0.12539995847188856, 0.9017531444779256, -0.6151936599839272, 0.7156359695341208, 0.44260314876027507, -0.6628157351856927, -0.2816890941533945, -0.34326251852578094, -0.8697248617594568, 0.9535340487947634, 0.08738741389145654, 0.2285563327312199, -0.9111385197622184, -0.49412439516782847, -0.09655058992132415, -0.6572975386846176, -0.789901128493135, -0.15809080495657657, -0.9729240158535801, 0.8758042522059111, -0.07745345719533847, -0.12235732232987906, 0.11299039861081961, 0.19865331041724543, -0.5157689651235142, -0.3545089493644369, 0.7133820339394301], "pre_neurons": 30, "learn_rate": null, "last_input": [1, 0, 0, 0.01981465776235838, 0.024648796090400715, 0, 0.02116086454040083, 0.012905071827813863, 0, 0, 0, 0, 0, 0, 0.06927566585114078, 0, 0, 0.010606182191895923, 0, 0.020081749549441513, 0.000994818860327913, 0, 0, 0, 0.019716577510896924, 0.05747023748056609, 0, 0.05802894609139826, 0, 0, 0.030761776841396783], "last_output": 0.03053944777254715, "learn_rate_possibility": null, "cummulated_output": 50.03537561758736}, {"w": [0.18473363932273124, 0.4369713808461191, -0.7204414834654254, 0.4129466035068481, 0.9705588711025119, 0.3785423690342453, 0.27037830696953447, 0.6387445362613018, 0.7020092211819815, 0.9993348340515469, -0.3089378390588715, 0.5169878485472659, -0.33668238322662525, -0.04781975481681955, -0.3379614851094068, 0.4374140148291492, -0.3373628385126739, 0.9846746605418797, 0.9484753838410125, 0.20216965236755668, 0.9755167913126137, 0.3212520820904827, 0.9248124022065498, 0.8079326318688407, 0.15098306430008468, -0.7148666586524255, 0.5646859698702114, -0.9444803506504089, -0.9701494320356974, 0.08234766665969206, -0.906043927811274], "pre_neurons": 30, "learn_rate": null, "last_input": [1, 0, 0, 0.01981465776235838, 0.024648796090400715, 0, 0.02116086454040083, 0.012905071827813863, 0, 0, 0, 0, 0, 0, 0.06927566585114078, 0, 0, 0.010606182191895923, 0, 0.020081749549441513, 0.000994818860327913, 0, 0, 0, 0.019716577510896924, 0.05747023748056609, 0, 0.05802894609139826, 0, 0, 0.030761776841396783], "last_output": 0.0034564454897628573, "learn_rate_possibility": null, "cummulated_output": 13.666818401335041}, {"w": [-0.6142642957847302, -0.3626825281200965, -0.4047395370405338, 0.09192449058122909, 0.2901160296182299, 0.544630407996229, 0.17543967810915562, 0.9496069340813333, 0.855902394017549, -0.7640592249405198, 0.7529746034895943, 0.1556721714400584, -0.06046067426284352, 0.5711269000550314, 0.12070541459253947, 0.9015805917470525, -0.7921271348420005, -0.5081512363743805, 0.13376756183322902, 0.5355658037762738, 0.9684756139865309, 0.5252050595096269, 0.23330450340479758, 0.5625433944554383, 0.02738278409826367, -0.441333168300597, -0.8127534284300095, -0.6209806361784194, 0.3200713092816565, -0.08642333317049511, -0.676549773410513], "pre_neurons": 30, "learn_rate": null, "last_input": [1, 0, 0, 0.01981465776235838, 0.024648796090400715, 0, 0.02116086454040083, 0.012905071827813863, 0, 0, 0, 0, 0, 0, 0.06927566585114078, 0, 0, 0.010606182191895923, 0, 0.020081749549441513, 0.000994818860327913, 0, 0, 0, 0.019716577510896924, 0.05747023748056609, 0, 0.05802894609139826, 0, 0, 0.030761776841396783], "last_output": -0.02183170766993512, "learn_rate_possibility": null, "cummulated_output": 0}, {"w": [-0.4949029766244035, -0.042698412568384025, 0.8748509569259237, -0.7434865095816166, 0.2885392800356512, 0.8553437980965624, 0.0552007368787224, -0.9821909467224681, -0.1056783764164968, 0.11547260230278433, -0.1471913479161182, -0.36198551653446076, -0.6226076967126835, 0.4074800726968595, 0.9348577685737498, -0.5559481493652114, 0.5009103830500203, 0.5585656197858029, 0.9996762659961282, 0.2520415151840829, 0.560854514078835, 0.27571220732142576, 0.24788375219091008, -0.15225027238762, 0.33223040182679564, 0.2884542977964262, -0.03563803899212181, 0.3625068429817868, -0.9406857905760819, -0.725830111193613, 0.6164232219103642], "pre_neurons": 30, "learn_rate": null, "last_input": [1, 0, 0, 0.01981465776235838, 0.024648796090400715, 0, 0.02116086454040083, 0.012905071827813863, 0, 0, 0, 0, 0, 0, 0.06927566585114078, 0, 0, 0.010606182191895923, 0, 0.020081749549441513, 0.000994818860327913, 0, 0, 0, 0.019716577510896924, 0.05747023748056609, 0, 0.05802894609139826, 0, 0, 0.030761776841396783], "last_output": -0.012561947345068143, "learn_rate_possibility": null, "cummulated_output": 0}, {"w": [-0.65344200608542, -0.31649008495283293, -0.09737697781661914, -0.3751925155554674, 0.9237119917954708, 0.2121208770338152, 0.6631299872071612, 0.6806001440215179, 0.9705019004852826, 0.9349784357515463, -0.49093313789176607, 0.9176442065846033, -0.14086081655577565, 0.15266785234463076, -0.739918517997352, 0.7943993345579952, 0.7582393666018661, -0.8062770271879627, 0.768004568390253, 0.7256631077904094, 0.8962454226049554, 0.739597094388148, 0.14749760966128833, 0.7179692837746834, -0.6206005286475835, 0.7352650803130285, -0.38465707476602296, -0.637261664122104, -0.263408455145673, 0.7198469139980275, -0.10776445941050916], "pre_neurons": 30, "learn_rate": null, "last_input": [1, 0, 0, 0.01981465776235838, 0.024648796090400715, 0, 0.02116086454040083, 0.012905071827813863, 0, 0, 0, 0, 0, 0, 0.06927566585114078, 0, 0, 0.010606182191895923, 0, 0.020081749549441513, 0.000994818860327913, 0, 0, 0, 0.019716577510896924, 0.05747023748056609, 0, 0.05802894609139826, 0, 0, 0.030761776841396783], "last_output": -0.02231398377464269, "learn_rate_possibility": null, "cummulated_output": 0.003977338557636499}, {"w": [-0.37593290573817306, 0.6450540256150186, 0.27011959731293245, -0.1241385163337152, -0.8354138736933221, 0.8616549617952087, 0.6923728777742242, 0.8163104453481791, 0.20349340321860465, -0.5624628416888353, -0.4006927482044176, -0.5055973306977588, -0.6820031216985727, 0.43760311855375233, -0.10455770479752435, 0.9009067012974095, -0.11862428344713649, -0.09224903903677384, -0.3345385972058825, -0.0004572380928276054, -0.34352115473189526, 0.406247533919889, 0.8504258096256032, 0.810944302415739, 0.02145517369659844, -0.2794227481704876, -0.5879170580224566, 0.6860261426998209, -0.37979939071877666, -0.9020560208408679, 0.16255398013764677], "pre_neurons": 30, "learn_rate": null, "last_input": [1, 0, 0, 0.01981465776235838, 0.024648796090400715, 0, 0.02116086454040083, 0.012905071827813863, 0, 0, 0, 0, 0, 0, 0.06927566585114078, 0, 0, 0.010606182191895923, 0, 0.020081749549441513, 0.000994818860327913, 0, 0, 0, 0.019716577510896924, 0.05747023748056609, 0, 0.05802894609139826, 0, 0, 0.030761776841396783], "last_output": -0.011760502218757048, "learn_rate_possibility": null, "cummulated_output": 0}, {"w": [0.8417675466144245, -0.3700716948849334, 0.8700582010099576, -0.0032348452719033194, -0.4143187854321886, 0.19344273763293085, 0.43758643020052435, 0.7961880855207242, -0.7957373399037533, 0.2151800488376645, 0.0956126254102736, -0.4888450760367751, -0.921374529586092, -0.6395890911532511, 0.9940113448339973, 0.5994258163481299, 0.6342400733131632, -0.3254673125367584, 0.2751469257041763, -0.7506084759665641, 0.46826062180958816, -0.18292881294566876, 0.2588845148681771, 0.05254576482772766, -0.9456540394514861, -0.890420484385483, 0.4146150567835527, 0.4203550125170281, -0.38354439597829715, 0.6062337147182462, 0.11105815429944865], "pre_neurons": 30, "learn_rate": null, "last_input": [1, 0, 0, 0.01981465776235838, 0.024648796090400715, 0, 0.02116086454040083, 0.012905071827813863, 0, 0, 0, 0, 0, 0, 0.06927566585114078, 0, 0, 0.010606182191895923, 0, 0.020081749549441513, 0.000994818860327913, 0, 0, 0, 0.019716577510896924, 0.05747023748056609, 0, 0.05802894609139826, 0, 0, 0.030761776841396783], "last_output": 0.028646188441457318, "learn_rate_possibility": null, "cummulated_output": 47.5269558403049}, {"w": [0.3745226767692058, 0.8581947363536984, -0.4871986989610513, 0.1098629944783367, -0.5938156138295629, -0.3085007373819322, 0.42020202614450985, 0.2207174060754309, -0.8515307727716885, -0.17890002951324058, 0.8551761216962064, 0.2926174276365907, -0.5548311697425872, -0.5214956824030235, 0.40775900945486865, -0.17421945134355354, -0.7013765271756212, -0.9576274292270273, 0.7890367174513357, 0.4443578391063252, -0.2805181264708543, -0.07456982869921225, -0.16370367968633448, 0.06092957657128828, -0.6264525762268387, 0.21957718270466842, 0.5712131537483385, -0.0662192705708895, 0.9452395710735073, 0.9307760526431563, -0.10875905309300826], "pre_neurons": 30, "learn_rate": null, "last_input": [1, 0, 0, 0.01981465776235838, 0.024648796090400715, 0, 0.02116086454040083, 0.012905071827813863, 0, 0, 0, 0, 0, 0, 0.06927566585114078, 0, 0, 0.010606182191895923, 0, 0.020081749549441513, 0.000994818860327913, 0, 0, 0, 0.019716577510896924, 0.05747023748056609, 0, 0.05802894609139826, 0, 0, 0.030761776841396783], "last_output": 0.01310864756940277, "learn_rate_possibility": null, "cummulated_output": 22.37607701330156}, {"w": [-0.06383056783365948, -0.047742875333696366, 0.9945885382848985, 0.03532187516664398, -0.34790892158171194, -0.0063614674474676836, 0.2815276893904648, 0.006015885956884848, 0.3568698059715678, -0.5619820971554137, -0.5910020764135053, -0.29097473330985046, 0.8542306521811567, 0.37316929674779953, -0.4940911898483469, -0.8197494088279007, -0.3371748774292542, 0.7781707933893467, -0.03680814109952646, 0.40745098187278694, -0.4170578512099148, -0.45764272131821526, -0.6005048284810077, -0.6511199724674475, 0.34403859450434293, -0.44500799168821703, -0.30907598155387905, 0.959672768466669, -0.5124388657296033, -0.801927940262616, -0.9783779133800468], "pre_neurons": 30, "learn_rate": null, "last_input": [1, 0, 0, 0.01981465776235838, 0.024648796090400715, 0, 0.02116086454040083, 0.012905071827813863, 0, 0, 0, 0, 0, 0, 0.06927566585114078, 0, 0, 0.010606182191895923, 0, 0.020081749549441513, 0.000994818860327913, 0, 0, 0, 0.019716577510896924, 0.05747023748056609, 0, 0.05802894609139826, 0, 0, 0.030761776841396783], "last_output": -0.0025255007169102377, "learn_rate_possibility": null, "cummulated_output": 0.006212687073410677}]}, {"number_of_pre_neurons": 20, "neurons": [{"w": [-0.029301208345258845, -0.9016918372777356, -0.13199851117079375, -0.38729373724697225, 0.7900127605391851, -0.660674471047705, 0.770341647626821, -0.8582329756460669, 0.4807045825391112, -0.07617982325976147, -0.023914083910790307, 0.613917194729549, 0.8836276573149378, 0.8441752008071377, -0.597902921788831, 0.39803588329336903, 0.287281749154467, -0.5812366987561142, 0.4308609727998689, 0.004891830428031652, -0.22240394988897605], "pre_neurons": 20, "learn_rate": null, "last_input": [1, 0.0007679059053412678, 0.021440412884924966, 0, 4.555334641962331e-05, 0, 0, 0.015152760055580522, 0.008034862046998452, 0, 0.021097670015093946, 0, 0.03053944777254715, 0.0034564454897628573, 0, 0, 0, 0, 0.028646188441457318, 0.01310864756940277, 0], "last_output": -2.9075226096381087e-06, "learn_rate_possibility": null, "cummulated_output": 0.4969005778680506}, {"w": [-0.37463020013378245, -0.5258086125405352, -0.22243077544330836, 0.7377576267462769, 0.5112805842203676, 0.4059713467143802, -0.7338622110781376, 0.6147591986154204, -0.695571290035879, 0.13914688107439255, 0.25817015323983594, 0.9593908596331941, 0.29311687417152243, 0.13095582465073896, 0.8797886424024344, -0.5471175057532314, 0.09043866505228126, 0.9453672731576459, 0.35339410686394834, -0.8434036101110585, -0.293011529240937], "pre_neurons": 20, "learn_rate": null, "last_input": [1, 0.0007679059053412678, 0.021440412884924966, 0, 4.555334641962331e-05, 0, 0, 0.015152760055580522, 0.008034862046998452, 0, 0.021097670015093946, 0, 0.03053944777254715, 0.0034564454897628573, 0, 0, 0, 0, 0.028646188441457318, 0.01310864756940277, 0], "last_output": -0.018105879156523275, "learn_rate_possibility": null, "cummulated_output": 0}, {"w": [0.8349435058469636, -0.9757202346169886, -0.9227828196573766, -0.6958843116636946, -0.855383638517696, -0.36455895664849547, 0.04775418443109758, -0.17031199515203355, 0.3353059962636882, 0.3663812812820444, -0.3203317192242747, 0.34902172835852174, -0.7612320026414736, 0.5458719436439621, -0.79088391726307, -0.2843482206479404, -0.23607818675856085, -0.9807538311120854, -0.5603376504647801, -0.9804535935659848, 0.5513363563192086], "pre_neurons": 20, "learn_rate": null, "last_input": [1, 0.0007679059053412678, 0.021440412884924966, 0, 4.555334641962331e-05, 0, 0, 0.015152760055580522, 0.008034862046998452, 0, 0.021097670015093946, 0, 0.03053944777254715, 0.0034564454897628573, 0, 0, 0, 0, 0.028646188441457318, 0.01310864756940277, 0], "last_output": 0.03787416624853931, "learn_rate_possibility": null, "cummulated_output": 65.05131627997426}, {"w": [0.7777079167023424, 0.029993869698730746, -0.3519624875339169, -0.825102648880512, -0.7837911492807017, 0.48805854521810765, -0.9507661750918643, 0.953455376432605, 0.028856877571480366, 0.15696268701251315, 0.45687567334944523, 0.7954803856132839, 0.6813874637494453, 0.16771131956729146, -0.05041315794544654, 0.9423503924731136, 0.39874226077560593, 0.498966773056136, -0.5766834666985181, -0.5439594367790781, 0.26259392040805074], "pre_neurons": 20, "learn_rate": null, "last_input": [1, 0.0007679059053412678, 0.021440412884924966, 0, 4.555334641962331e-05, 0, 0, 0.015152760055580522, 0.008034862046998452, 0, 0.021097670015093946, 0, 0.03053944777254715, 0.0034564454897628573, 0, 0, 0, 0, 0.028646188441457318, 0.01310864756940277, 0], "last_output": 0.03961336540496262, "learn_rate_possibility": null, "cummulated_output": 67.80399725756224}, {"w": [-0.6505537590060804, -0.7804509412285463, 0.4632540481975531, 0.16185051025937458, 0.37749222359286017, 0.23265686383083062, -0.9745592648430323, -0.7445347730297573, -0.54999967001067, -0.07309434930413072, -0.059396124768478664, 0.5341572165025377, -0.5613798468583189, 0.1913937173352751, 0.20295216749011558, -0.38227175321719975, -0.1535182279164966, 0.09494302141073807, 0.25339470216821836, 0.893273286229531, 0.8159798286192539], "pre_neurons": 20, "learn_rate": null, "last_input": [1, 0.0007679059053412678, 0.021440412884924966, 0, 4.555334641962331e-05, 0, 0, 0.015152760055580522, 0.008034862046998452, 0, 0.021097670015093946, 0, 0.03053944777254715, 0.0034564454897628573, 0, 0, 0, 0, 0.028646188441457318, 0.01310864756940277, 0], "last_output": -0.03278534025591387, "learn_rate_possibility": null, "cummulated_output": 0}, {"w": [-0.3138006737689807, -0.26534516814730513, -0.033384060145858374, 0.06435752480340495, -0.10076154183889119, 0.18705927413568735, 0.34943716303444505, 0.2795993475107468, 0.6732086706377367, 0.7233959992174475, -0.9460897658702989, 0.06995084273486074, 0.04939705381353554, -0.6616628650302112, 0.6933246104400392, -0.25859483377648207, 0.8060184860554018, -0.2292157473283878, 0.2617999964952191, 0.47939547955118833, -0.9502515302356158], "pre_neurons": 20, "learn_rate": null, "last_input": [1, 0.0007679059053412678, 0.021440412884924966, 0, 4.555334641962331e-05, 0, 0, 0.015152760055580522, 0.008034862046998452, 0, 0.021097670015093946, 0, 0.03053944777254715, 0.0034564454897628573, 0, 0, 0, 0, 0.028646188441457318, 0.01310864756940277, 0], "last_output": -0.015608159186111515, "learn_rate_possibility": null, "cummulated_output": 0}, {"w": [-0.6426446227003593, 0.5582988956349724, -0.8426021480199428, -0.20606449966734797, 0.3436935457982646, 0.7928679848095965, 0.43522791013581097, -0.8286763226805349, 0.7138237037123454, 0.12111510482124155, 0.6011097983869493, 0.6551346076657356, -0.8266163141750196, 0.9329379767492354, 0.3479169309113537, 0.563133529091518, 0.43469908981742567, 0.06277623954868794, -0.3509895409018864, 0.5419599312296957, -0.4684919526005631], "pre_neurons": 20, "learn_rate": null, "last_input": [1, 0.0007679059053412678, 0.021440412884924966, 0, 4.555334641962331e-05, 0, 0, 0.015152760055580522, 0.008034862046998452, 0, 0.021097670015093946, 0, 0.03053944777254715, 0.0034564454897628573, 0, 0, 0, 0, 0.028646188441457318, 0.01310864756940277, 0], "last_output": -0.033957685921377725, "learn_rate_possibility": null, "cummulated_output": 0}, {"w": [0.7834634865263239, 0.3514425438629716, -0.8141104040242493, 0.9146533220141657, -0.062190457548259026, -0.7501876848986206, 0.45291823301491596, 0.0342485231977232, 0.32000977383002427, -0.5437157530838062, 0.6937457107191445, -0.5252979638926167, 0.5030688798674019, 0.48539284826692186, -0.4575810794349966, 0.06082850423617692, 0.30019353963675677, 0.22076696744654867, -0.18258129831770642, 0.8109111255430088, 0.7452032035847442], "pre_neurons": 20, "learn_rate": null, "last_input": [1, 0.0007679059053412678, 0.021440412884924966, 0, 4.555334641962331e-05, 0, 0, 0.015152760055580522, 0.008034862046998452, 0, 0.021097670015093946, 0, 0.03053944777254715, 0.0034564454897628573, 0, 0, 0, 0, 0.028646188441457318, 0.01310864756940277, 0], "last_output": 0.040327231095393254, "learn_rate_possibility": null, "cummulated_output": 69.48760868589335}, {"w": [0.21436158789313264, -0.3164808730666986, 0.4215570432899829, -0.6983317396882593, -0.9355736826590937, 0.412088430987116, 0.7525953121023632, 0.02592740196984722, -0.5959646960190055, 0.3462289508600329, -0.6862021115162282, -0.7856161782233242, -0.9895939473392217, -0.8420296452878797, -0.016104447274530864, 0.08208917395585313, -0.9878049948652023, 0.2156967891268151, -0.3645993959568532, -0.02465562219331585, -0.426260870324618], "pre_neurons": 20, "learn_rate": null, "last_input": [1, 0.0007679059053412678, 0.021440412884924966, 0, 4.555334641962331e-05, 0, 0, 0.015152760055580522, 0.008034862046998452, 0, 0.021097670015093946, 0, 0.03053944777254715, 0.0034564454897628573, 0, 0, 0, 0, 0.028646188441457318, 0.01310864756940277, 0], "last_output": 0.008009572823983518, "learn_rate_possibility": null, "cummulated_output": 13.193315357942872}, {"w": [0.09512989747294442, 0.8827128168157052, 0.33820155098783067, 0.7242913161336306, -0.23577665518615087, 0.8392187650869651, 0.7594661883916913, -0.09657208648224413, 0.9441368856422971, -0.33802391695007294, 0.03667897791380503, 0.6831351145650582, 0.5763583593823696, 0.004726735665756987, 0.10969385363736883, 0.8931714470699805, 0.37752660822865414, -0.9383224831549373, -0.38258804965878923, -0.5122602459934484, 0.5506811217258722], "pre_neurons": 20, "learn_rate": null, "last_input": [1, 0.0007679059053412678, 0.021440412884924966, 0, 4.555334641962331e-05, 0, 0, 0.015152760055580522, 0.008034862046998452, 0, 0.021097670015093946, 0, 0.03053944777254715, 0.0034564454897628573, 0, 0, 0, 0, 0.028646188441457318, 0.01310864756940277, 0], "last_output": 0.005499039706312918, "learn_rate_possibility": null, "cummulated_output": 9.563997580604145}, {"w": [0.983651262553825, -0.8417298588850417, -0.08983966881445071, 0.37977219865235323, -0.08342299608359482, 0.8722642269539571, -0.5852264759754211, 0.16535762229074202, -0.33499814288817675, -0.3760341464388228, 0.010655711781703436, -0.581986338436242, 0.2288463387464783, -0.07052749194651708, -0.8920809520880744, 0.9885130010844607, -0.6142958323010417, -0.13018667843744125, 0.05372554759617176, -0.09086024020531269, 0.7622954509498574], "pre_neurons": 20, "learn_rate": null, "last_input": [1, 0.0007679059053412678, 0.021440412884924966, 0, 4.555334641962331e-05, 0, 0, 0.015152760055580522, 0.008034862046998452, 0, 0.021097670015093946, 0, 0.03053944777254715, 0.0034564454897628573, 0, 0, 0, 0, 0.028646188441457318, 0.01310864756940277, 0], "last_output": 0.04940990719813752, "learn_rate_possibility": null, "cummulated_output": 84.63279566268383}, {"w": [0.3187114844468617, 0.8759321673724234, -0.6562766426009585, 0.5872120847947466, -0.07709916474600687, -0.807975812739435, -0.48668040235449816, -0.3974058719111033, 0.9902231400141293, 0.48320428352530476, -0.22928170842249385, 0.8888625621663573, 0.3419410155526379, -0.5896258016749898, 0.16092040413661657, 0.9046760888251615, 0.8580404858656436, -0.21988006438531338, 0.032398446204480846, -0.5708228291976007, 0.7264897075157077], "pre_neurons": 20, "learn_rate": null, "last_input": [1, 0.0007679059053412678, 0.021440412884924966, 0, 4.555334641962331e-05, 0, 0, 0.015152760055580522, 0.008034862046998452, 0, 0.021097670015093946, 0, 0.03053944777254715, 0.0034564454897628573, 0, 0, 0, 0, 0.028646188441457318, 0.01310864756940277, 0], "last_output": 0.015213729959357407, "learn_rate_possibility": null, "cummulated_output": 25.861652288097005}, {"w": [0.09862083367204999, -0.985555941392902, -0.40692072581311267, 0.031500114977038196, -0.5338987128452615, -0.5443078500317589, 0.4860887890109822, 0.5018833955240882, -0.3530766960686922, -0.4430570874172495, -0.38886243936298426, 0.1660303348051646, -0.9300656187490828, -0.4722967110227547, 0.3591548388289414, -0.23530317380481147, -0.9572454642736483, -0.7288959809216964, 0.0784788020952829, -0.8035443686526083, -0.07851239760733253], "pre_neurons": 20, "learn_rate": null, "last_input": [1, 0.0007679059053412678, 0.021440412884924966, 0, 4.555334641962331e-05, 0, 0, 0.015152760055580522, 0.008034862046998452, 0, 0.021097670015093946, 0, 0.03053944777254715, 0.0034564454897628573, 0, 0, 0, 0, 0.028646188441457318, 0.01310864756940277, 0], "last_output": 0.002360782720875868, "learn_rate_possibility": null, "cummulated_output": 3.5536744757240863}, {"w": [-0.40484938438160833, 0.5869953521380291, -0.39375730262480513, -0.039891594956779075, 0.48922450836403053, 0.017498247280651524, -0.8758385495134218, 0.11684866021088491, -0.6585254640769291, 0.6906986175338563, -0.4113719472679578, 0.7750057948394808, -0.4293072602207799, 0.8411489963903447, -0.6830741752754732, 0.7091779923562296, -0.41700023443099, 0.5529716396811093, 0.31090550944931516, 0.7572223989166063, 0.13047607372376646], "pre_neurons": 20, "learn_rate": null, "last_input": [1, 0.0007679059053412678, 0.021440412884924966, 0, 4.555334641962331e-05, 0, 0, 0.015152760055580522, 0.008034862046998452, 0, 0.021097670015093946, 0, 0.03053944777254715, 0.0034564454897628573, 0, 0, 0, 0, 0.028646188441457318, 0.01310864756940277, 0], "last_output": -0.020816571936836517, "learn_rate_possibility": null, "cummulated_output": 0}, {"w": [0.4926026678339217, 0.8211352396280169, -0.6751828262706099, 0.7384215765788775, 0.542828494703415, -0.7290082292761071, -0.11605119692842547, -0.2732712053082349, -0.60539998575505, 0.28397243804845873, -0.6538660499549687, -0.81297693139711, 0.29636935874190873, -0.051979183395412853, 0.7776279058150126, 0.576227670882353, 0.3531586321119591, -0.035438823282764265, 0.7780508383621512, -0.02015525344427771, -0.8695746783359932], "pre_neurons": 20, "learn_rate": null, "last_input": [1, 0.0007679059053412678, 0.021440412884924966, 0, 4.555334641962331e-05, 0, 0, 0.015152760055580522, 0.008034862046998452, 0, 0.021097670015093946, 0, 0.03053944777254715, 0.0034564454897628573, 0, 0, 0, 0, 0.028646188441457318, 0.01310864756940277, 0], "last_output": 0.024344240380077826, "learn_rate_possibility": null, "cummulated_output": 41.40993180447837}, {"w": [-0.6680282286516868, -0.6638287411633992, -0.8228165488060537, -0.5369411451681676, 0.21715495364433868, -0.7176765257259767, -0.5502123916937418, 0.3999768961523973, -0.6611710294484774, -0.7535592102441588, 0.8582024930844805, 0.8572121757062525, 0.4149790866061651, 0.0205583012817645, -0.6870447431109461, 0.13502487200338553, -0.2575278227326978, -0.018653807721840998, -0.7076032776992369, -0.6029583746765865, -0.4575091188827638], "pre_neurons": 20, "learn_rate": null, "last_input": [1, 0.0007679059053412678, 0.021440412884924966, 0, 4.555334641962331e-05, 0, 0, 0.015152760055580522, 0.008034862046998452, 0, 0.021097670015093946, 0, 0.03053944777254715, 0.0034564454897628573, 0, 0, 0, 0, 0.028646188441457318, 0.01310864756940277, 0], "last_output": -0.034134860499395764, "learn_rate_possibility": null, "cummulated_output": 0}, {"w": [-0.06203214426997783, 0.0332529773982555, -0.7966865282231832, -0.5903235107967073, 0.5734102690560403, 0.932540251893778, 0.8994987185702592, -0.5033693019108689, 0.20095592132511797, 0.1269128590777897, 0.2938778626561105, -0.236965682099622, 0.529996891661074, -0.4295897464090903, 0.6897853260198052, 0.9530092697270249, 0.3058788933441061, -0.4048490504359641, 0.03988361455807676, -0.8397020223303309, 0.33919209034045417], "pre_neurons": 20, "learn_rate": null, "last_input": [1, 0.0007679059053412678, 0.021440412884924966, 0, 4.555334641962331e-05, 0, 0, 0.015152760055580522, 0.008034862046998452, 0, 0.021097670015093946, 0, 0.03053944777254715, 0.0034564454897628573, 0, 0, 0, 0, 0.028646188441457318, 0.01310864756940277, 0], "last_output": -0.0036963438482705948, "learn_rate_possibility": null, "cummulated_output": 0}, {"w": [-0.31871468165626515, -0.606798598015819, 0.3007230794630693, -0.9940378840573585, -0.19429466882538837, 0.3031819149730828, 0.8165686160370449, 0.534860329793386, 0.17692453732970925, -0.9052762105850856, 0.26011741218372, 0.7143279696248939, 0.8420720019289152, 0.19925762860196095, 0.08536349943844601, 0.03661179445768692, -0.2815579684670175, 0.0867404394493776, 0.4556920081666971, 0.40298951134056793, 0.9160578703388318], "pre_neurons": 20, "learn_rate": null, "last_input": [1, 0.0007679059053412678, 0.021440412884924966, 0, 4.555334641962331e-05, 0, 0, 0.015152760055580522, 0.008034862046998452, 0, 0.021097670015093946, 0, 0.03053944777254715, 0.0034564454897628573, 0, 0, 0, 0, 0.028646188441457318, 0.01310864756940277, 0], "last_output": -0.012650403266626184, "learn_rate_possibility": null, "cummulated_output": 0}, {"w": [-0.6289987555498784, 0.6276056182762884, -0.02811316057680635, -0.7431785555417949, 0.31001525638131744, -0.14219481208366047, -0.8070654189852666, 0.3252417782565096, -0.5680204791893344, 0.9395872338384488, 0.41163131265744757, 0.26563363036609267, -0.29054016664164317, 0.6757594664871058, -0.18903106991764718, 0.7365353089504332, -0.6851174366696615, -0.23146939906663655, 0.9278981244071116, -0.3640468760005109, -0.12080955309035835], "pre_neurons": 20, "learn_rate": null, "last_input": [1, 0.0007679059053412678, 0.021440412884924966, 0, 4.555334641962331e-05, 0, 0, 0.015152760055580522, 0.008034862046998452, 0, 0.021097670015093946, 0, 0.03053944777254715, 0.0034564454897628573, 0, 0, 0, 0, 0.028646188441457318, 0.01310864756940277, 0], "last_output": -0.03023598878540601, "learn_rate_possibility": null, "cummulated_output": 0}, {"w": [0.8483420583783721, 0.2629572376479077, 0.7567055833323166, -0.3428130907010434, -0.09894173365912118, 0.18108082543968385, -0.8074887856063908, 0.624419779508147, -0.5686708990820166, 0.7800432943758484, -0.309019098165326, -0.7409085401843247, -0.7825756891626565, -0.4181011661791094, 0.07994411773225352, -0.2102779288715586, 0.22841415205706928, 0.11797163405992794, -0.4335174364112726, 0.30003624846396293, 0.45670720532466436], "pre_neurons": 20, "learn_rate": null, "last_input": [1, 0.0007679059053412678, 0.021440412884924966, 0, 4.555334641962331e-05, 0, 0, 0.015152760055580522, 0.008034862046998452, 0, 0.021097670015093946, 0, 0.03053944777254715, 0.0034564454897628573, 0, 0, 0, 0, 0.028646188441457318, 0.01310864756940277, 0], "last_output": 0.041459757454853335, "learn_rate_possibility": null, "cummulated_output": 70.89566274493032}, {"w": [0.8634030750437487, -0.7262612145368259, 0.6223320112487418, 0.09216595366115721, 0.2978647549613209, -0.8114424612115612, -0.6001642697008833, -0.6007542792431577, -0.41091910604722837, 0.14149968994304585, -0.7798659029591162, 0.7423858226544064, -0.5535792966655375, 0.9406063649481915, 0.06892121473273582, -0.7400782321605524, 0.5071134262871533, -0.12949416109791612, 0.960998019956367, 0.6616775110589228, -0.8189598184200975], "pre_neurons": 20, "learn_rate": null, "last_input": [1, 0.0007679059053412678, 0.021440412884924966, 0, 4.555334641962331e-05, 0, 0, 0.015152760055580522, 0.008034862046998452, 0, 0.021097670015093946, 0, 0.03053944777254715, 0.0034564454897628573, 0, 0, 0, 0, 0.028646188441457318, 0.01310864756940277, 0], "last_output": 0.04349074895314509, "learn_rate_possibility": null, "cummulated_output": 74.90639731186931}, {"w": [-0.3495018471902489, 0.0559364962363853, -0.1668092453555332, 0.6673132356989677, -0.854072260822883, -0.28067844745871295, 0.4199604195122759, -0.007197493238339625, 0.80488668531012, -0.4722174404827082, 0.0746303877408323, -0.8501415323537327, -0.9651676394380522, 0.10715876637815347, 0.5398760901995465, -0.5895907042670454, -0.5184630019931549, 0.34569941693218675, -0.5843167525565218, 0.9204206380534736, -0.5119978160205776], "pre_neurons": 20, "learn_rate": null, "last_input": [1, 0.0007679059053412678, 0.021440412884924966, 0, 4.555334641962331e-05, 0, 0, 0.015152760055580522, 0.008034862046998452, 0, 0.021097670015093946, 0, 0.03053944777254715, 0.0034564454897628573, 0, 0, 0, 0, 0.028646188441457318, 0.01310864756940277, 0], "last_output": -0.01894701557874498, "learn_rate_possibility": null, "cummulated_output": 0}, {"w": [-0.3207978321169829, -0.7433401667212629, 0.9233155503023072, 0.6384155987802775, 0.12448395146697933, 0.8564321981701775, -0.9405928670944421, -0.7627695749913912, -0.5237773940731691, 0.7513926145879257, 0.8890386921311828, -0.7900934090859375, -0.6458388256938288, 0.25459727818481115, -0.3972923388606353, -0.4650166701347913, 0.6514838375858147, 0.906093174917868, 0.6518318522261715, -0.8596666803442601, -0.5171181163127421], "pre_neurons": 20, "learn_rate": null, "last_input": [1, 0.0007679059053412678, 0.021440412884924966, 0, 4.555334641962331e-05, 0, 0, 0.015152760055580522, 0.008034862046998452, 0, 0.021097670015093946, 0, 0.03053944777254715, 0.0034564454897628573, 0, 0, 0, 0, 0.028646188441457318, 0.01310864756940277, 0], "last_output": -0.015498753025017025, "learn_rate_possibility": null, "cummulated_output": 0}, {"w": [0.25616190927408833, -0.2565473823501614, -0.33664216039587336, 0.8109895061315724, 0.06802305326421298, -0.8035224265165726, 0.6311701205827496, 0.7657220166440062, 0.9751857909219257, -0.06257607049939362, -0.10534798248492838, 0.08661771349652247, -0.05285682976911232, 0.14636608690421427, -0.24811184641801698, -0.7477947260985613, -0.8103601663315061, -0.31288942018845023, -0.5747523545973376, -0.7631909657210219, 0.06445980970501597], "pre_neurons": 20, "learn_rate": null, "last_input": [1, 0.0007679059053412678, 0.021440412884924966, 0, 